http://www.w3.org/1999/02/22-rdf-syntax-ns#type,-0.57563424,-0.07126196,0.44212872,0.34530908,0.51913345,-0.65474075,0.36098087,0.1429772,0.77165675,0.066781305,-0.1853386,-0.01736863,0.5261157,0.6264885,-0.1313575,0.6501273,-0.67089826,-0.101734765,-0.18063489,-0.02798439,-0.68875915,-0.28823468,0.595741,0.29804254,-0.52719826,-0.08913241,-0.29633787,-0.26781628,0.63372236,0.4727561,0.021506626,-0.39531592
http://www.w3.org/2000/01/rdf-schema#comment,0.09766688,0.21407947,0.6093328,0.066145904,0.030959357,-0.15822257,0.57454133,0.331075,0.9260266,0.5347731,-0.14346416,0.45384336,0.91412336,-0.37204292,-0.2540602,0.27543938,-0.9727947,0.19221105,-0.5883563,0.34946948,-0.41163597,-0.43110982,0.63461626,-0.27180123,-0.56487584,-0.19144318,-0.6535003,-0.38053888,1.5942336,0.741266,-0.026543818,-0.4324287
http://www.w3.org/2000/01/rdf-schema#subClassOf,-0.72966474,-0.33527872,0.75537884,0.13730691,0.52309716,-1.0312262,0.586581,-0.3984885,-0.12226499,0.34451884,-0.009157212,-0.5487603,1.1489453,0.7623982,-0.5536701,0.18861926,-0.9323938,-0.011617448,0.060827054,0.2106228,-0.67495227,-0.49401134,0.8828827,-0.30860376,-0.8514324,0.21655531,-0.7600635,-0.57162607,0.20674871,0.6486053,0.37423187,-0.71549034
http://iot.uni-trier.de/FTOnto#hasComponent,-0.044615433,-0.07012317,-0.5787204,0.13777804,1.5613357,0.069139875,0.63809204,0.30622804,0.6193063,-1.108448,-0.6691359,-0.07104726,0.34508198,0.4720381,-0.29169324,0.22309417,-1.5267383,0.24060148,-1.1861849,-0.62293965,-0.49611613,0.7408213,0.3953638,-0.031088246,-0.12235277,-0.93334615,-0.087873995,-0.17161709,1.6940099,-0.386826,-0.22268131,0.5446762
http://www.w3.org/2000/01/rdf-schema#label,-1.8238298,-1.1505936,0.52285063,0.73212314,0.08390896,-1.0261629,0.73287153,-0.6178646,-0.7760854,0.0897228,-0.24097079,-0.9112821,1.1871966,1.4393469,-0.45155275,-0.14902176,-1.3537468,0.26307213,-0.03349525,-0.27994606,-0.51323265,0.2891824,0.7068386,0.081642956,-0.6943263,0.33614105,-1.285829,-0.78874415,-0.23079382,0.17512861,1.0996739,-0.41229463
http://www.w3.org/ns/sosa/observes,-1.1761461,0.85360044,0.3830494,0.66098946,1.5401312,-1.2673908,-0.08161695,0.19220759,-0.08009406,-0.31654844,-0.05863433,0.0375908,-0.33820346,0.30419734,-0.7702797,0.063339286,0.13764913,-0.85766435,-0.28674024,2.1030085,-0.4764021,-0.5166369,0.45454213,0.11790905,-0.070881784,-1.4169959,0.4499937,-1.3190929,2.2350874,0.020851409,-0.25133222,-0.5407623
http://www.w3.org/ns/sosa/madeBySensor,-0.8751695,1.0879157,-0.5682144,1.004622,1.0704383,-0.85276216,0.32894868,1.033671,0.48602548,0.11300662,-0.6103928,-1.2368362,1.1612622,0.53658307,-0.76116866,0.12338447,-0.6147413,-0.89049673,0.023355413,0.24635175,-0.7402893,0.46213204,-0.7487906,0.65869904,0.88685507,0.8861629,-1.0870533,-0.8440752,0.6301158,-0.34906596,-1.5381526,0.30152255
http://www.w3.org/ns/sosa/hasFeatureOfInterest,-1.1626796,0.22414121,-0.7309143,1.8395389,1.2007321,-0.48999146,-0.46727002,-0.14712094,0.9896736,0.8897719,-1.499217,-0.13874061,1.2279403,0.36017415,-0.9280975,-0.37007824,0.2038176,-0.48086217,-0.019973902,-0.22767296,-0.14839956,0.07081839,0.037046857,-0.0015533505,0.22804311,-0.09587685,-1.3814133,0.23922727,0.6692616,-0.94697917,-0.91158164,1.2520156
http://iot.uni-trier.de/FTOnto#getsInputFrom,-1.032771,-0.22054024,0.38021034,0.47206512,0.94610965,0.08893419,-0.29983124,0.9046907,0.4753233,-0.6793554,0.66720974,-1.3538766,0.04214937,0.14157893,-0.5910361,-0.6557551,-1.1011698,-0.12383681,-2.1491652,0.8418192,-0.22204615,0.8305858,-0.17462045,-0.47330117,0.5402504,-1.3927547,-0.060764767,-0.7666015,1.1651361,-0.2956042,0.16064525,0.0694586
http://iot.uni-trier.de/FTOnto#FT_HighRackStorage,-0.29752454,0.17557494,1.011176,-0.76323706,0.14431538,0.73187053,-1.1155032,-0.20372598,0.26780844,-0.43993908,-0.45039743,0.39005727,0.48934165,0.37576133,-2.2474227,-0.31824276,-1.3292187,-1.3083464,-0.7863212,0.028874906,-0.8140371,0.20100129,1.1199946,0.6500188,-0.81632715,-0.30601004,0.08173141,-0.41994542,0.72127503,-0.5304105,-0.9135344,0.5807092
http://iot.uni-trier.de/FTOnto#controls,-0.4828551,-0.3873448,0.43914852,0.39556152,1.6725883,0.6288805,0.34103385,-1.4034679,1.2893889,-1.028422,0.31530267,0.6882688,1.0568627,0.17911717,-0.6441832,-0.4590377,-0.26957372,-0.23064186,-0.8432563,-0.099636815,-0.4702863,0.9213883,-0.044732686,-0.15224943,0.38249388,-0.8854545,-1.053492,-0.12243045,1.2798699,-1.5065976,0.91963255,0.61909294
http://iot.uni-trier.de/FTOnto#FT_SortingMachine,-0.69947314,0.72237176,0.65476733,0.56320983,0.56589663,0.20962735,-0.61291003,0.46442196,-0.0724352,-0.9053886,-1.2077638,-0.34927282,0.46182624,-0.6877935,-0.38980684,0.58364654,-1.927623,-1.0833066,-1.4867471,-0.06534624,-1.3690696,0.14712206,-0.1280434,-0.15338911,0.5660471,-0.6576996,-0.9659194,0.6403721,-0.02100736,-0.9411964,0.99411076,-0.5914907
http://www.w3.org/ns/sosa/isHostedBy,-1.4490395,0.47686762,-0.03093913,1.638814,1.0990403,0.14618467,-0.4625019,-0.4585961,-0.1365042,0.0052556973,-0.96321535,0.33796784,0.34642836,-0.5031656,-0.9021728,0.1376921,-0.6900359,-0.7743511,1.0535082,0.6843007,-1.0195466,0.5670416,0.4902076,0.29825982,0.8324391,-0.9967685,-0.6281883,0.030040085,2.2261736,0.33400145,0.24128553,0.17559943
http://iot.uni-trier.de/FTOnto#FT_BlastFurnace,-0.023963688,0.17896718,0.49584132,0.67410356,1.3815473,1.4467787,0.9641953,0.97169006,-0.03214374,0.13706711,-0.042698905,-0.13976459,0.6773475,0.83093953,-0.38735616,0.0029652712,-0.9267477,-0.7003498,-1.3781936,-0.23740445,-1.040417,-1.2095022,1.2181462,1.2142732,0.5323123,-1.3552341,-0.54110074,0.40472114,0.11780006,-0.813442,0.27805802,0.47486022
http://www.w3.org/ns/sosa/isResultOf,-0.17487003,0.806986,0.8441349,0.6079014,1.336435,-0.7296964,-1.0011578,0.99813795,0.5010282,-0.20383774,-0.89734787,0.39509553,2.0215225,0.3598802,-1.3774617,0.6738452,0.067716725,-0.87918985,-0.433553,-0.035516795,0.18959542,0.6569314,0.61562705,0.42559204,0.16546518,1.0228113,-1.7573396,0.61845434,-0.3033252,0.07098524,-0.638099,-0.84919786
http://iot.uni-trier.de/FTOnto#isComponentOf,-1.1839678,0.20992152,0.5464764,-0.44110402,2.0451646,-0.36116135,0.96433556,0.51666486,-0.1127245,-0.27832133,-0.38396454,-0.054844137,0.60417736,1.1636158,0.18077174,0.28187498,-1.9819697,0.40498874,-0.30124217,0.3681295,0.45975688,0.75669557,0.87929076,-1.2069923,-0.88845664,-0.3962245,-0.12302845,-0.4365477,1.5014915,-0.8695745,0.30138412,0.56619656
http://iot.uni-trier.de/FTOnto#FT_MultiProcessingStation,0.51753175,0.542157,1.0510352,0.5336409,1.4907587,0.42945445,-0.22872251,0.10364438,0.31238526,-0.22249922,-0.6325647,-0.21438453,0.53762305,0.09140018,-1.5622605,0.5104178,-0.09067728,-1.3327055,-2.157731,-0.71953076,-0.7395985,0.5691431,0.4658858,-0.45512402,-0.7814774,-0.050024908,-0.15758374,-0.1979717,0.37452817,0.63595456,1.2600818,1.1730833
http://www.w3.org/2002/07/owl#equivalentClass,0.22564445,-0.72321457,-0.00885378,0.11734722,2.3402653,-1.6403685,0.6304778,-0.67055887,0.5852158,1.1295457,0.19751498,-1.397576,1.1751508,-0.7276359,-2.0061412,0.2989699,-0.3794061,-0.51598084,-0.3311133,0.11106068,-0.78992605,0.24473743,0.13033599,-0.62072515,0.47399563,-0.8091406,-0.5429589,-0.12147745,-0.27573493,0.30966452,0.51070035,0.3098676
http://www.w3.org/ns/sosa/observedProperty,-0.6584605,1.5969329,-0.47944483,1.197192,0.5245985,-0.91326654,-0.5056656,1.2291722,0.21153355,0.41097268,-1.8995136,-0.4665424,1.0647962,0.75586486,-0.9423026,-0.33317605,-0.39057687,-0.34156355,0.16291906,0.6850389,0.29522157,-0.46564996,0.6721702,0.188124,-0.4412202,-0.41670915,-0.94908506,-0.034934014,-0.01421625,-0.6064195,-1.6416694,0.4980984
http://iot.uni-trier.de/FTOnto#isCalibratedBy,-0.9804931,1.5935515,0.37717864,0.182734,0.660328,0.19171849,-0.61511934,0.662184,1.2701524,-0.5189981,0.06444153,-0.03200144,0.14504479,1.9022572,0.07597097,-1.2040302,-0.16196072,-0.56155,-1.414351,0.54983026,-1.5144717,0.91362154,0.72094905,-0.30784097,-0.045802902,-0.21201605,-0.48824307,-0.5250263,1.6496475,-0.4149611,-0.063061215,0.7491775
http://iot.uni-trier.de/FTOnto#isConnectedTo,0.0010515607,1.2008586,0.71627903,1.7708132,1.6925466,-0.21599378,0.3561466,-0.23712324,0.030935358,-0.81146467,0.120010436,1.293503,0.61244553,0.3149523,-0.20766973,0.22867957,-0.87850344,-0.70664483,-0.7406399,-0.29403657,0.05883998,-0.35179222,-0.33213782,-0.665343,0.29658666,-0.29393387,-2.3600967,-0.87097985,1.2299786,-0.7298083,0.35776874,-0.29748553
http://iot.uni-trier.de/FTOnto#SM_Machine_Controller,-0.52366,1.1784204,0.011811886,0.22668342,0.4924661,0.10873666,-0.39571643,-0.022004334,0.13876492,-1.2404342,-1.0801036,-1.4200758,0.5206203,-0.5280688,0.13049479,0.78076583,-0.7173431,-1.047982,-0.51460445,-0.9718031,-1.5336107,0.05477032,-0.15597042,-0.838369,0.08084988,-1.8052759,-1.9467841,-0.48324704,0.53833425,-1.0433435,0.18968268,-0.41213483
http://iot.uni-trier.de/FTOnto#FT_VacuumSuctionGripper,0.5748164,-0.14311525,0.46348834,0.8046844,1.2556447,0.5494152,-0.68140346,0.67065984,0.12299149,-0.25224367,-0.75904703,-0.08429815,0.023962602,0.09290124,-1.6375177,-1.0338302,0.13321911,1.2612149,-0.7162327,0.03311618,-2.0042553,0.022650346,1.287107,0.20045897,0.2855061,0.30942047,-1.3364377,-0.025568655,1.3268044,-1.1668859,0.7943406,0.60528904
http://iot.uni-trier.de/FTOnto#transports,-0.3913274,0.699108,0.60707957,-0.07332289,1.075959,0.29180303,0.0628333,-0.5511567,-0.28364998,-0.7853589,-1.0617647,-0.46680188,1.4630239,0.009444588,-1.0050191,-0.00013512776,-1.3579596,-0.2696048,0.17357111,-0.27307174,-0.3443282,0.43900266,1.3910797,1.6238216,-1.5187607,0.32346672,-0.105758384,0.2907216,1.1895887,-1.2377417,-0.60515684,1.2905278
http://iot.uni-trier.de/FTOnto#BF_Machine_Controller,-0.2031222,1.1732174,-0.68143004,0.0568867,0.8872511,1.2834742,0.4044178,0.8277336,0.039544784,-0.056349967,0.29378006,-0.6111466,0.59062016,1.166523,-0.19238997,0.6986199,-0.055938162,-0.84597105,-0.73239493,-1.1400447,-1.0292054,-1.0224714,0.03717273,0.5463136,-0.21472304,-2.109318,-1.8173717,-0.8619076,0.37648374,-0.9588173,-0.40694338,0.5124464
http://iot.uni-trier.de/FTOnto#HRS_Machine_Controller,-0.8018686,0.9225482,-0.020107634,-1.1565824,0.28210342,0.47886044,-0.84475166,-0.5623953,0.25384486,-0.4371573,0.36978605,-0.5166427,0.3256701,0.41404665,-1.2713509,-0.47626784,-0.036631104,-1.4286569,-0.53832513,-0.8047778,-1.295279,0.3490765,0.5137969,-0.20656228,-1.0978224,-1.5576283,-1.4936955,-1.5008545,0.93872905,-1.1919554,-1.1710259,0.24424979
http://iot.uni-trier.de/FTOnto#MPS_Machine_Controller,0.18409783,0.83405185,-0.075222276,0.79915607,1.3035104,0.43646777,0.157247,0.071674235,0.4592659,-0.5607802,-0.40615988,-0.9445303,0.22678469,0.20631294,-0.8541174,0.71348983,0.6412814,-1.3758714,-0.95826817,-1.0217755,-1.4193689,0.50218844,0.26575136,-1.0976522,-1.3428941,-1.0993391,-1.3571632,-1.2688829,0.6196571,0.33074585,0.65481734,1.5477731
http://iot.uni-trier.de/FTOnto#HRS_Conveyor_Belt,0.29373634,0.9193894,-0.69990665,-0.8861801,0.09625211,0.026793355,0.24534748,0.51566565,0.0152618345,-1.0568525,0.13959162,-0.32737496,0.74891925,-0.12896904,-2.1926818,0.8756321,-1.7207438,-0.92578834,-0.8063324,-0.12905511,-0.6589894,1.7439445,1.2938716,0.36788815,-1.05295,-0.26625624,-0.5991059,-1.0187414,0.09924008,-0.59677756,-1.098443,-0.4003075
http://iot.uni-trier.de/FTOnto#VGR_Machine_Controller,0.26009673,0.56663555,-0.25209305,0.1979767,0.91636586,0.30135491,-0.6784046,0.33117542,0.33187604,-0.39554188,-0.6172209,-0.84671617,-0.19221915,0.36037877,-0.9174822,-1.0001541,0.55158615,0.9320972,-0.0065474873,-0.8243719,-1.8506296,0.15524869,0.8755503,-0.39905483,-0.24297595,-0.9258826,-2.42528,-1.1226695,1.3692782,-1.013997,0.1025513,0.36774537
http://iot.uni-trier.de/FTOnto#regulates,-0.42813748,-0.29541928,0.5321996,0.8734257,1.6745378,1.2198792,-0.07570629,1.0383061,0.3078898,-0.71911985,0.024633635,0.61323273,1.0507531,-0.024117094,0.30544463,0.640443,-2.1005,-0.041125957,-1.2245065,-0.2631058,0.31504062,0.1618049,0.7428311,-0.6717145,0.28925258,0.35654485,-1.7845502,-0.8300717,1.0957439,-0.7286161,0.44579467,0.50525
http://iot.uni-trier.de/FTOnto#HRS_Crane_Jib,-0.28965166,1.8133132,-1.131086,-0.8548046,0.5936051,1.0914394,0.4102628,-0.50157964,-0.03760883,-0.6577254,-0.34826317,-0.6390807,0.501841,0.16612823,-1.5429564,0.5558008,-1.2518957,-0.99736965,-0.39912835,0.4034991,-1.2320939,0.6118136,1.261341,1.1161054,-1.2231079,0.8558257,-0.17391165,-0.95860445,0.6718509,-0.18886001,-0.14887609,0.15993887
http://iot.uni-trier.de/FTOnto#FT_Workpiece_White_1,-0.22438611,2.0436487,0.088048406,0.16406052,1.830592,0.86750954,0.6007243,0.28720474,0.8784385,0.16036439,-1.523672,-1.1277398,0.53248024,0.30786645,-0.90764683,-0.67115057,-0.9401015,0.10769329,-0.75836724,0.2576495,-0.73383784,1.6383172,0.24068467,1.1516573,-0.751391,-0.56405264,-0.17182378,0.58108705,-0.1462229,0.12592869,0.26710445,-1.0383765
http://iot.uni-trier.de/FTOnto#isTransportedBy,-0.4131181,0.5078798,0.96549666,0.42535156,1.8356992,0.27173966,0.9276553,0.60384613,0.5283386,0.116067976,-1.2220726,-0.8342219,0.5513422,0.15197678,-1.8470229,-0.2798861,-1.6393526,-0.7775437,0.3845571,0.4828497,0.23126948,0.4804776,1.6265976,1.0351719,-0.88526374,-0.35210818,0.6732714,1.2038305,0.9107573,0.57696855,0.04058594,1.0953513
http://iot.uni-trier.de/FTOnto#monitores,-0.7718836,0.2034112,1.2324973,0.44524866,2.5238154,-0.1693841,0.19283842,0.9201029,-0.07286303,-0.40592068,-1.1182514,-0.9893028,-0.14027193,-0.8918061,-0.59123284,0.21283399,-1.3207388,-1.6596887,-0.41595322,0.78909594,0.25937578,0.31332064,0.18654679,-0.15752116,-0.55568385,-2.1989245,-0.30546907,0.21135373,0.73740077,0.07655727,-0.058514737,-0.39435235
http://iot.uni-trier.de/FTOnto#actuatesHorizontallyLeftRight,-0.34256226,2.2772062,1.3610519,0.9477767,0.86756796,0.99985236,0.88694406,-0.6704403,1.4703115,-0.518728,-0.13168399,-0.86826575,0.020956917,1.0972835,-0.61473423,-0.5140209,-2.2686462,-0.19792388,-0.6641295,-0.5166328,0.40730175,-0.41155076,0.32489705,-0.38489738,-0.7106718,-1.2819842,0.7187195,-0.30435607,1.3316348,-0.6029318,0.7321364,0.48991832
http://iot.uni-trier.de/FTOnto#calibrates,-0.9923638,0.8212941,0.38499355,-0.55208176,1.395643,1.1578531,-0.081063256,0.9026692,-0.032521874,-0.57116693,1.4435239,-0.46003237,0.9375799,1.2500961,-1.0773829,0.034108553,0.85033387,-0.30132896,-0.30461144,0.47145748,-0.312855,-0.07667694,1.1035948,-0.5362864,0.01146565,-1.3655379,-0.21460967,-0.40959507,2.1287117,-0.29622886,0.87553895,0.9758523
http://iot.uni-trier.de/FTOnto#MPS_Motor_1,-0.7257153,0.7039289,-0.77701074,0.746836,2.0174792,-0.13301474,-0.8145998,0.43929985,0.8333343,0.08965296,-0.440898,-1.7696223,-0.25185233,-0.15980682,-0.60631883,-1.0776008,-0.35119745,-0.84833115,-2.0557618,-0.99431527,-0.96330017,-0.34329984,1.2253524,-1.1165004,-0.7568782,0.25481275,-0.72484237,0.76195365,0.09800878,0.7650834,0.87883675,1.1092185
http://www.w3.org/2002/07/owl#disjointWith,0.7667655,0.6493595,1.0140483,1.3710775,0.48771796,-0.46553075,0.45207855,0.6042463,-0.7911864,0.8967485,-0.69944626,-2.4214222,1.6298841,-0.34366474,-1.0173677,0.9682085,-1.452568,-0.00693688,0.37788746,-0.002137443,-1.0142044,0.44903582,1.3810955,-0.4876812,0.38067478,-0.6291168,-1.4406818,0.36068293,-0.95461756,0.3007437,-0.4633266,0.19000962
http://iot.uni-trier.de/FTOnto#BF_Crane_Jib,-0.3629862,0.97403204,-1.0221452,-0.6681483,0.9396104,2.1124358,0.17292234,-0.43309718,-0.16364507,-0.4998307,0.36385262,-0.14969477,0.48839957,0.95608324,-1.2578169,0.57894176,-1.1758199,-0.64390534,-1.2386262,0.35096607,0.29797083,0.06424925,2.2667832,0.9883131,0.6103388,-0.15122378,-0.864251,0.6445612,0.0846868,0.31873077,0.88965505,-0.73913646
http://iot.uni-trier.de/FTOnto#hasPeakPressure,-0.5522787,0.17721356,0.41186503,-0.9279276,0.09294831,-1.1321986,-1.4164658,0.44284663,0.75113255,0.0506726,-0.8365288,-0.9871384,2.223658,0.9934996,-0.86147904,-0.19243383,-0.23988065,-0.67363554,0.16909581,-0.3511348,-0.4239663,-0.06799101,0.4802993,1.4289562,-0.094879925,0.15739927,-1.7155955,1.668821,0.34334707,-1.4849448,1.8177948,1.286163
http://iot.uni-trier.de/FTOnto#hasPeakXAcceleration,-1.6003876,-0.95437247,0.28182718,-0.0022861604,1.1029567,0.27112553,-0.6230283,0.5872005,0.10561153,1.220876,-0.52162457,-0.5612957,0.48222634,-0.14502756,-1.9430277,1.5346074,-0.81490314,-1.0799005,0.49545717,0.19782892,0.35015312,0.08298253,0.690757,1.4454682,0.8926746,0.884823,-2.070975,0.025850594,0.06292996,-0.96281826,1.0049944,0.6753773
http://iot.uni-trier.de/FTOnto#actuatesRotationallyAroundVerticalAxis,-0.58332247,1.9842178,1.2511593,1.350094,1.5216589,0.68070865,-0.07258293,0.13659562,1.0468279,-0.3158914,-1.0316653,0.052751586,0.4239482,0.84640414,0.026600854,-0.566742,-0.20831473,-0.68791723,-0.7129677,0.82358456,-1.4137383,1.1410338,1.2531941,-1.1699905,-0.35209504,1.107796,-1.1533257,0.75652903,1.4979532,0.43157333,-0.6267767,-0.07591545
http://iot.uni-trier.de/FTOnto#hasPeakYAcceleration,-2.2274375,0.016317548,0.75240225,-0.6168439,0.72163457,0.62443554,-1.9408504,0.6642331,-0.4606493,1.3087461,0.054946512,-2.1057396,0.77988476,-0.31903917,-1.6022937,0.34576425,-0.124314785,-0.38581568,-1.1751429,0.95532924,0.48432758,1.1170436,0.26381975,0.81323206,-0.650304,1.3318965,-1.42256,0.018414745,0.28850028,-1.1558657,-0.3956121,-0.6786417
http://iot.uni-trier.de/FTOnto#hasPeakZAcceleration,-1.11805,-0.68333626,0.13904804,0.3303523,0.77760667,-0.20529762,-0.99145025,0.67891717,0.37350065,1.4466523,-0.8994354,-0.57229453,0.5047479,0.086020015,-2.0382774,2.0064716,-0.92898005,-0.622684,0.46207952,0.11984174,1.0372828,0.41566348,0.6721693,1.85763,0.15914318,0.1376268,-1.4696633,-0.059480835,0.29065388,-1.0277015,0.7672102,0.14756148
http://iot.uni-trier.de/FTOnto#PositionSwitch,-0.5764676,0.017717838,-0.80289555,-0.574424,1.1105882,0.94735056,-2.14302,0.751519,-0.24715403,0.36749375,0.5354259,-2.3937376,0.6265092,1.36963,-0.9889445,0.24018902,-0.23333976,-0.000897362,-0.114186004,0.3019864,-1.1019496,-0.005839923,-0.673077,-0.78024095,-1.0331464,-1.4319298,-0.56088144,0.80713046,1.5282271,0.1846767,0.15155971,0.653552
http://iot.uni-trier.de/FTOnto#SM_Compressor_8,0.35284674,0.05525371,1.0447047,1.0873077,1.9171053,1.414532,-1.3252074,-0.592289,0.31152138,-0.5026047,-0.27625692,-0.7996788,1.3012496,-0.85171264,-0.36364406,0.7669891,-0.9726393,-0.036696803,-0.311403,-0.22049728,-1.1403612,-0.28207448,0.81585705,-1.2705944,0.878599,-1.092561,-1.3208535,-0.3099234,-0.2709895,-1.4670899,-0.474155,-0.949914
http://iot.uni-trier.de/FTOnto#HRS_Motor_3,-0.33311296,0.45797193,-0.6490171,-0.0070944014,0.6634849,0.03920358,-1.4609522,-0.08437941,0.7786507,-0.026769534,0.63013446,-0.76481116,-0.24534641,0.21135983,-1.7893431,-1.8627282,-1.5575877,-0.54767704,-1.8230263,-0.844314,-0.08319972,-0.4596886,0.951376,0.3224094,-2.330788,0.19681686,-0.626328,-0.01596325,0.21740834,-0.49814203,-0.19168116,1.053983
http://iot.uni-trier.de/FTOnto#VGR_Motor_1,-0.5742988,0.20666343,-0.11324805,0.8619845,0.51605594,0.66083443,-1.1723114,-0.39746323,0.8027059,-0.6097901,-0.91316015,-2.2521358,-1.5842211,0.06294263,-1.5435017,-0.8059091,-1.4223707,0.88327485,-1.1775153,0.3449665,-0.8974067,-0.25091615,1.1710417,-0.5939622,0.5751191,-0.13642114,-1.3915251,0.9178092,0.7407014,0.16735227,-0.1861831,0.7082624
http://iot.uni-trier.de/FTOnto#ADXL345AccelerationSensor,0.040611885,0.7693223,-0.5231603,1.048359,0.09456463,0.99825555,-0.6451271,-0.37814644,-0.8089439,1.2384202,-0.25907153,-1.6869886,-0.6524528,1.3690953,-0.55541193,0.95114505,-0.43376157,-0.63252157,0.51229227,0.854007,-0.9893138,-0.043250617,0.39279228,-0.051559363,0.6618877,-1.0974598,-1.6945595,1.4016143,1.9106457,0.17865774,1.6588607,-0.08702591
http://iot.uni-trier.de/FTOnto#isControlledBy,-1.0581709,0.29345384,1.8874476,0.034080096,1.6042433,0.15706111,0.63335925,-0.54059887,0.94704336,-0.21416998,1.0435523,0.28539243,1.1991862,1.3455129,-0.033180196,-0.22475372,-0.7944353,-0.22532846,-0.10027782,0.3475654,-0.12951788,1.1358193,0.23906934,-1.1075892,-0.24225055,0.12391777,-1.1467366,-0.9107464,0.90956277,-1.8478043,1.6934416,0.09700345
http://iot.uni-trier.de/FTOnto#Transport_From_Milling,1.4085134,0.9375718,0.6881354,1.2775154,0.8670257,0.8708806,-1.4321625,-0.045490857,0.89832723,-0.39832574,-1.4183961,-1.7355982,1.1536518,0.74308145,0.09786501,0.29810262,-0.42622378,-0.5640461,-1.3375742,1.0511322,0.007911901,0.8192854,1.4432514,0.47514772,-1.0112686,-0.82746905,0.0620429,-0.3767424,0.46350563,0.5675347,0.001643394,-0.094706416
http://iot.uni-trier.de/FTOnto#Milling_Operation,0.90026015,1.5995785,-0.7064712,1.1878159,0.93585646,-0.645791,-1.4627874,-0.16086194,0.41876015,0.51530707,0.90948814,-0.6923534,-0.24200854,0.29169485,-0.14230934,1.2488489,-1.0562631,-1.0303956,-0.6410266,0.9481563,0.35712716,1.3107593,0.2162444,0.013637159,-1.0945759,-1.2066364,-1.3806298,-1.524568,0.055622704,1.0358264,0.14948036,0.3675834
http://iot.uni-trier.de/FTOnto#isInputFor,-2.3556008,-0.2327246,1.502154,0.09133408,1.3671768,-0.30099943,-0.39532503,0.8825374,0.059516132,-0.47404268,0.55793875,-0.9809608,0.6250498,1.100208,-0.660925,-0.5759476,-1.0375595,-0.0786958,-1.1149839,1.1862653,0.0909228,0.3151282,0.16864912,-1.3291947,-0.48434126,-1.1596797,-0.6400283,0.11808323,0.8450508,-0.3601297,0.11904189,0.3582676
http://iot.uni-trier.de/FTOnto#Milling_Operation_Sequence,0.433136,1.5639672,-0.88283527,0.30917802,0.7009223,-0.27334893,-1.1030685,-0.44047254,1.6740593,0.43709192,-0.023718534,-0.17961372,0.7944973,0.8999812,0.08320674,-0.29016614,-0.06803654,-1.0779727,-1.2802082,0.5093711,0.3704562,0.7188577,1.8924588,1.3047969,-0.07308743,-0.9311647,-1.2474549,-1.281908,0.2393549,0.5260252,0.92927617,0.2761884
http://iot.uni-trier.de/FTOnto#Transport_To_Milling,1.4706061,0.3474171,-0.13873187,1.3326223,1.1934555,0.5704387,-2.1951718,-0.0501026,0.7465894,-0.051360205,-0.58992,-0.40330678,1.1184701,1.2551944,-0.435664,0.2967829,-1.0160127,-0.054373898,-1.6823874,0.53084975,0.44082174,0.48719257,1.7578148,0.3859381,-0.55518204,-0.24140799,-0.054180965,-0.86358213,0.59315616,0.5475519,-0.17868721,0.53344005
http://iot.uni-trier.de/FTOnto#BF_Motor_2,-1.1867776,0.94947416,-0.5071118,0.88541174,1.9583367,2.3149989,-0.46079123,-0.3246044,0.2544538,0.36039314,-0.0899117,-1.0792974,0.88446766,0.2548325,-1.7729037,-0.8081014,-0.56585246,-0.20866714,-0.90205425,-0.6889305,-0.099365786,-1.1162196,0.24694104,-0.16144769,-1.2117324,-0.575128,0.08613037,0.46245417,0.0680488,0.18212575,0.46883875,0.040044915
http://iot.uni-trier.de/FTOnto#MPS_Compressor_8,0.63636154,0.17232475,0.32512262,1.4599901,2.6288424,1.6519275,0.125364,-0.75311506,0.41896406,0.9909067,0.2550515,-0.63025427,0.71392006,0.24979946,0.23098974,0.445895,0.35623676,-1.4005227,-1.3815739,0.025783319,-1.0451009,-0.8143895,1.6153004,-0.6708628,0.39731205,-0.56861013,-1.1623365,-0.923519,-0.21440692,-0.777992,-0.18531828,0.19467367
http://iot.uni-trier.de/FTOnto#VGR_Crane_Jib,0.7100139,1.6581811,-1.1054783,-0.7238361,0.6647171,0.5501724,-0.28623843,-0.43310487,0.04497615,-0.960046,-0.6366482,-0.44856015,-0.35442987,0.20459886,-1.912236,0.116930634,-0.5505487,0.8875967,-0.14119071,0.17944516,-0.88369614,1.2136636,3.110533,-0.2210625,0.04347232,0.5400071,-1.2610978,-0.17101954,0.9570355,0.31008962,1.503156,-0.22248693
http://iot.uni-trier.de/FTOnto#LightBarrier,-0.49142537,0.34244496,0.047601044,-0.9414281,0.55869985,0.34224343,-1.3284216,0.22361386,-0.55000466,0.5680776,0.35761186,-2.2831044,0.005772635,0.5456517,-0.58841014,1.0056846,-1.2479508,-0.8171313,-0.45888656,0.36591837,-0.31642687,1.571842,-0.34415615,-1.0756875,-0.91509235,-1.8632115,-1.3676031,1.3241291,0.3958024,0.16658035,0.2122263,-0.75984234
http://iot.uni-trier.de/FTOnto#BF_Valve_5,0.5306391,0.100223854,0.5674362,0.97278833,2.7240307,0.97867495,-0.07970042,-0.29942685,-0.21703869,0.8083239,1.0601866,-0.09658331,-0.8698045,-0.3518562,-1.1392282,0.8807108,-1.7246343,-0.74418044,-0.7546791,-0.28413695,-0.81462806,-0.44070607,-0.19432835,0.6323199,-0.99784875,-0.5998929,-1.330681,0.014474058,-0.11374261,-0.12405504,0.11653605,0.9045368
http://iot.uni-trier.de/FTOnto#HRS_Motor_4,-0.9278774,0.072927214,-0.9072289,-0.38626817,1.3111335,1.7605565,-0.8421433,-0.9566093,1.4878392,0.31415308,-0.13150416,-1.209404,-0.55640745,0.031402905,-1.4193364,-1.1297698,-1.524277,-0.60330987,-0.34961003,0.23253864,-0.088668846,-1.0133828,2.0508645,0.53050494,-0.42440996,-0.960932,-0.13640001,-0.5673574,0.40244713,-1.0181696,-1.0537217,0.34958097
http://iot.uni-trier.de/FTOnto#HRS_Motor_2,-1.0580271,0.52596885,-0.32422793,0.95711964,0.083551094,1.5760225,0.21608137,-0.8118244,0.29191142,-0.108624324,0.5392994,-2.055597,-0.79752517,-0.01225963,-1.9062638,-0.9149319,-0.83615017,-0.7073223,-1.2501053,0.5467068,-0.6222815,-0.4238084,1.709265,0.0023273933,-1.5586697,-0.5983469,-0.091014616,0.24162766,1.0815164,-0.93335015,-1.2850404,0.65724355
http://iot.uni-trier.de/FTOnto#VGR_Motor_2,-0.3574402,-0.10390214,0.07860164,-0.4018298,2.4959466,1.6315297,-0.6534628,-0.45959517,0.1989818,0.11366644,-0.58265823,-2.0467386,-0.8232778,-0.17773436,-0.87277246,-1.1908044,-0.49311462,-0.26588365,-0.7510796,0.08525552,-1.2286901,-0.49930596,1.2119672,0.83503324,0.47325188,0.18110204,-1.16221,-0.24939637,1.1392839,0.1421056,-0.48943087,-0.48394877
http://iot.uni-trier.de/FTOnto#SM_Light_Barrier_1,0.5981696,0.61741096,0.59425944,1.5554516,-0.74617165,-0.001164658,0.19407971,0.7555139,0.7198812,-0.621533,-1.0381799,-1.21493,0.34588403,-0.17094964,-2.6470675,-0.44864783,-0.51841474,-0.016519357,0.035033375,0.5428805,-0.5288832,0.6123137,0.7969511,-0.89366764,-0.51028794,-1.179891,-0.40007678,0.48788807,0.34894314,-1.7179184,0.26076475,-1.1212231
http://iot.uni-trier.de/FTOnto#VGR_Motor_3,-0.19463533,-0.42915818,-0.1535346,0.21149121,1.6635977,1.1737628,-0.21783617,0.3893519,0.3444296,-1.0892828,-0.2135105,-1.8917563,-1.5239742,-0.2551658,-1.7007312,-1.4489148,-0.7863012,0.5850928,-0.7331882,0.89151883,-0.9030386,0.3121845,0.8466601,0.14641252,-1.3068732,0.7317557,-2.0055807,0.13192157,0.7011569,-0.13311937,-0.3232927,-0.12830399
http://iot.uni-trier.de/FTOnto#VGR_Position_Switch_1,0.22997326,0.9439077,0.07993868,0.4939026,0.6155118,0.81129485,0.38902783,0.34228817,1.0426922,-0.761566,-1.3253508,-1.2719223,-0.96541995,1.0675044,-2.9933798,-0.4511503,-0.26357415,-0.4153606,-0.21486117,0.55719554,-0.74040794,0.009187298,0.44379425,-1.5394782,0.887993,0.6954893,-1.1908555,-0.57225543,0.3378324,-0.47969836,-0.03417214,-0.84432703
http://iot.uni-trier.de/FTOnto#MPS_MillingMachine,0.46217963,1.2155629,-0.76589257,1.9008024,-0.37691835,1.347374,-0.018862937,-0.8354798,-0.27912104,0.22099516,0.7354595,-0.84075195,-0.049958948,0.5900162,-0.70104903,1.7545329,-0.4807959,-1.3957275,-1.6431818,0.99633837,-0.008916134,0.12528282,2.9078624,-0.7403805,-1.1583717,-0.23355548,-0.9671534,-0.3586558,-0.22166094,0.05732821,1.1394,1.2214829
http://iot.uni-trier.de/FTOnto#BF_Valve_7,0.09616693,0.2813928,0.08621943,1.3436424,2.1087706,1.3931619,0.095394336,-0.2377564,0.2600028,1.124443,0.7001014,0.7885589,-0.23491871,-0.14477201,-1.8492168,-0.21169922,-1.750192,-0.044553846,0.1315898,-0.82030827,-0.73631597,0.2876525,-0.01750158,0.63829195,-1.3328145,-0.5487036,-1.5502725,-0.6501966,-0.6077879,-0.8719634,0.5478207,0.24703863
http://www.w3.org/ns/sosa/madeObservation,-2.2632089,0.85780597,-0.20232701,0.21864425,0.6899745,0.11896089,-1.202565,0.5084657,1.6735263,-0.98741215,-0.796056,-0.43104142,-0.31928796,-0.03266917,-2.094244,0.21745081,-0.79762715,-0.0978398,0.68711245,0.67115563,-0.4603327,0.1581698,1.1266141,-1.5142468,1.4282655,-1.2808138,-0.9139273,-0.32797074,0.84539866,-0.2235187,0.56168383,-0.5916968
http://iot.uni-trier.de/FTOnto#defaultSpeed,-0.79120344,1.8749063,0.7815365,1.1146766,0.7640553,0.5561088,-1.1439333,-0.92303145,1.4189395,0.34599766,-0.50212127,-0.7371227,0.21984147,1.5827771,0.03107753,-0.7826873,-0.14485411,-0.34067103,-0.30568442,1.1613967,-1.2475765,0.7927869,0.66176206,-1.0521889,0.06600873,0.8810618,-1.9942636,-0.37029627,1.8685981,0.18275394,-1.1203053,0.09521902
http://iot.uni-trier.de/FTOnto#hasOperation,-0.16724701,1.5602484,0.2621642,0.8977738,1.2532963,0.5784147,-1.0196164,-0.44893193,-0.18657294,1.3950182,0.08764566,-1.0240641,1.2279348,0.2384171,0.26177993,0.4123284,-0.11507105,-1.3439894,-1.261902,0.110106386,0.8345545,0.7346264,1.5495589,1.205906,0.079651155,-1.1850158,-1.1175716,-0.7514913,1.2588338,1.1051438,-0.40438586,-0.16812743
http://iot.uni-trier.de/FTOnto#BF_Valve_6,-0.014356297,0.2301234,0.25338033,1.5221881,1.8134849,2.0872386,0.41301075,-0.9162865,0.4377421,0.5686022,1.0455922,0.43124884,-0.91256726,0.2949929,-1.3986818,0.7549244,-1.9446801,-0.7765518,-0.24773595,-0.8113524,0.15592764,0.52632,0.9408213,-0.088022806,-0.455266,-0.721868,-2.1593256,0.0045328103,-0.61192566,0.2746783,0.6976921,0.28834254
http://iot.uni-trier.de/FTOnto#SM_Color_Sensor_2,1.1618581,0.8431391,1.7223407,0.8613887,0.1778449,0.52653414,-0.9029891,0.3318254,1.136007,-1.304767,-1.094442,-1.0220946,0.5455637,0.69338953,-2.4629662,-0.079594605,-1.0055759,-1.0065396,0.3978297,-0.14328699,-0.5503647,-0.9991396,-0.30204707,-1.0546508,0.6399895,-1.1585295,-0.75196296,0.3155123,0.20327376,-0.97722185,-0.5572295,-1.1436474
http://iot.uni-trier.de/FTOnto#PressureObservation,-0.08786924,0.95900434,-2.1699126,1.8460991,1.0421803,0.41857958,0.7748043,-0.7454015,0.386151,1.5285826,0.40082902,-0.9360231,0.3826668,0.16721736,-0.41589025,0.38234603,-1.7826655,-1.7366269,-0.4142349,0.010561054,0.28871092,-0.33097506,-0.39402202,-0.44387028,-0.39222905,0.21500485,-1.619339,0.17555991,1.0192386,-0.81612706,-0.6780871,-1.3853669
http://iot.uni-trier.de/FTOnto#AbnormalPressureObservation,1.2277384,-0.14657488,-0.5884093,1.2798976,0.8975082,-1.0075244,-0.4502683,1.3374463,-0.3933355,1.0601784,1.7153428,-1.476564,1.097291,0.59261936,-0.41569746,0.1990181,-0.95788455,0.47561353,0.36584026,0.07703932,0.15259065,0.83700883,1.3288038,0.29700056,0.9913577,-1.078674,-0.8640747,-0.32279393,1.0603424,-0.30692533,1.4651691,-0.044221595
http://iot.uni-trier.de/FTOnto#AccelerationResult,-0.12422061,0.7143566,-0.7418679,1.1118122,1.5836556,1.2865238,-0.7792184,0.79699343,0.4313123,2.2408292,-0.5139853,-1.065987,0.53706443,1.0934732,-1.2150387,0.77331156,-0.78579515,-0.35160744,-0.17239086,1.1241512,-0.120299004,1.2750539,-0.13789453,0.10373482,0.20709957,1.44317,-1.6051483,0.8517865,-0.3755148,0.41185603,0.46936542,-0.96320695
http://iot.uni-trier.de/FTOnto#MPS_Conveyor_Belt,0.9140115,1.2233912,0.40639675,0.83681387,0.64105624,0.91203386,0.55217654,-0.5144075,-0.42108783,-0.7909028,1.131979,-0.16611978,0.80207187,-0.19916,-1.2823868,0.78086054,-0.15532252,-0.8573446,-0.796179,0.24658626,-0.89856875,1.7034572,2.9575925,-0.7729278,-1.647855,-1.5157992,-0.5665753,0.12650146,0.6927126,0.62132925,-0.32757112,-0.27196303
http://iot.uni-trier.de/FTOnto#AccelerationObservation,-0.2668833,0.63188237,-1.7916285,1.0783371,0.29862615,-0.3038668,-0.09760698,-0.044930145,0.9160302,1.3638715,0.22031118,-1.7667263,0.104420625,0.15516031,-0.3311947,-0.5662807,-0.42304817,-1.0582651,-0.5955348,1.1821913,-1.2600445,1.2363483,0.019642418,0.12884787,-1.1689895,0.15232828,-2.1750078,0.59953195,0.8092426,0.38899252,-0.6032409,0.12893867
http://iot.uni-trier.de/FTOnto#PressureResult,1.5152068,0.3468825,-0.17917486,1.2151467,0.6829252,-0.72311246,-0.31290868,0.48689497,0.6780894,1.2228856,-0.4726509,-1.0655919,1.1260283,1.7526846,-0.531564,-0.81579524,0.034894828,-0.7860068,-0.48340473,0.665467,-0.42934087,0.66211385,-0.09571038,0.6116564,-0.11599896,0.90280116,-2.2926562,2.0685017,0.5319193,-1.2891325,0.904982,-1.0116056
http://iot.uni-trier.de/FTOnto#IndirectlyAddressable,-0.19669268,-0.15561682,-0.8002463,-0.2049745,0.39462414,0.6999909,0.081848286,0.07694743,-0.556271,0.73833364,1.5546335,-0.6632695,2.3362708,0.2910776,0.3446133,-0.7710254,-1.4887183,-1.6417681,-0.45200357,2.0093997,-0.9236234,0.6922558,1.7088996,0.34220296,-1.1104856,0.6745989,-1.4883419,0.65294784,0.37178075,-0.44099578,0.7345146,-0.109418765
http://www.w3.org/2000/01/rdf-schema#seeAlso,-1.6472462,-0.05210178,0.041349225,-0.31984895,0.60296607,-0.7136618,-0.910058,-0.21752226,0.009850065,-1.0876901,0.100130044,-0.6836206,1.0323153,-0.42424387,-2.429358,0.514221,-1.1625273,-1.1736157,2.1558022,1.1487148,-1.6984165,0.0048862277,-0.26598582,-0.56429356,0.281099,-0.85204697,-0.4199143,-0.18857132,1.1655422,-1.105792,1.113797,-0.3496148
http://iot.uni-trier.de/FTOnto#SM_Valve_6,0.7220597,-0.13935873,0.25995812,1.23102,0.6485277,0.6047568,-1.4689747,0.18587117,1.0443755,-0.08815297,-0.773938,0.095102854,-0.501472,0.54582894,-1.2748055,0.55069774,-2.4911313,0.0791823,-0.3802353,0.16006136,-0.40848044,-0.15937154,0.19352509,-0.6997283,-0.6200663,-1.2973118,-1.2351829,-0.63284504,-0.9826284,-1.0201268,0.28460643,0.7907214
http://iot.uni-trier.de/FTOnto#SM_Valve_7,0.4148355,-0.32333988,0.24487147,1.4751627,1.3753215,0.18000244,-1.68246,0.21608317,0.20659742,-0.6396432,1.003566,-0.3924455,-0.8995832,-1.3399179,-1.1495993,0.8422664,-2.4615145,0.020277187,-0.32920903,0.08308559,-1.0432583,-0.57239324,0.054938417,-0.75768775,-0.64024156,-0.8355993,-1.9227132,0.24162222,-0.23387069,-0.7466309,0.89581275,0.86990416
http://iot.uni-trier.de/FTOnto#SM_Valve_5,-0.028259171,-0.10904956,0.37760383,1.6959287,0.77020365,0.96612334,-0.7581983,-0.21136943,1.0865513,-0.35876828,-0.21706584,0.1271599,-0.5914137,-0.7136804,-1.0254865,0.30953294,-2.5036001,0.46347865,0.47413796,-0.09693675,-0.22988188,0.6322338,0.8957679,-0.35688704,-0.6636728,-0.9778532,-2.2306008,0.69987917,-0.8817223,-1.0934414,0.26236856,-0.11090652
http://iot.uni-trier.de/FTOnto#VGR_Motor_1_ADXL365_Observation_2019-02-26_14_54_34.67,0.032276887,1.3650701,-0.4119233,0.7814832,0.9603163,-0.2509774,-0.87856525,-0.32327512,1.1560376,-0.8280369,0.49727252,-0.4915479,0.4817189,0.18374574,-1.4447029,-0.7141064,-0.51381695,-0.088619016,0.2917278,-0.2688332,-0.32291552,0.19155622,0.20326607,-0.11692707,0.222658,-0.034425147,-0.5696389,0.68230623,1.1868814,0.7524475,0.21603517,-0.29800746
http://iot.uni-trier.de/FTOnto#VGR_Valve_8,1.0746154,-0.7649667,0.80960625,0.48967317,2.343337,0.47516578,-1.6138406,0.2194946,0.82977784,0.120252706,0.018670155,0.15965638,-1.3866612,0.38180828,-1.4567215,-0.6230817,-1.6456248,0.15742889,-0.2775267,0.07146479,-1.172309,0.0546167,0.7057032,0.123349324,-0.08010463,-0.027496306,-2.554976,-0.5494405,-0.31384486,-0.33853552,-0.4430734,0.5503813
http://iot.uni-trier.de/FTOnto#AccSensor_ADXL345_1,1.4434927,1.4660581,-0.25927475,1.2333492,0.11401894,-0.9566542,-0.34186056,-0.8669882,0.93857175,-0.22648118,-0.3380447,-1.6073873,-0.21968323,0.7080767,-1.7519898,-0.9697121,-0.34225678,-0.12903802,0.42855474,-0.62631285,-0.5106629,-0.30777717,1.040059,0.60333425,-0.23662524,-0.09940013,-0.5213649,0.23091497,1.8879445,-0.59271085,-0.33920804,0.6084812
http://iot.uni-trier.de/FTOnto#MPS_Light_Barrier_4,0.9470513,0.04221658,0.49159878,0.48679844,0.5453405,0.40931877,0.4179433,0.8190571,1.0414302,-0.86522704,-0.26844984,-1.606586,0.31168354,0.050217383,-0.7641056,-0.8591438,0.36865234,-1.8666966,-0.8949498,0.6480847,0.19524582,0.59242195,1.9217844,-0.22442862,-1.2513307,-1.6486281,-0.8034952,0.6205414,0.21334212,-0.35913298,1.1668526,-1.2254478
http://iot.uni-trier.de/FTOnto#VGR_Motor_1_ADXL365_Observation_2019-02-26_14_55_16.45,0.003768474,1.4087515,-0.44198847,0.73212904,0.9901478,-0.25419992,-0.7816667,-0.32413998,1.1443243,-0.84506714,0.45574158,-0.42064822,0.46854568,0.17942375,-1.4382156,-0.75511426,-0.56392133,-0.112261124,0.3040604,-0.34636816,-0.30721924,0.1355679,0.21877392,-0.036357813,0.28905472,-0.024901606,-0.59561825,0.74180573,1.1562662,0.68312526,0.2002357,-0.34962854
http://iot.uni-trier.de/FTOnto#BF_Transport_Platform,0.04623022,1.2048101,-0.6422511,0.15554893,0.8140046,1.4215976,0.4541629,1.0635194,-0.4262185,-0.6282479,1.950046,0.18824495,0.94605243,0.68996865,-1.9826152,0.9466948,-0.60765725,-0.5060627,-0.90214735,0.18748991,-0.32633868,0.3944192,1.3454912,0.6521733,-2.0511975,-1.5004408,-0.37187067,1.1731056,-0.23290771,-0.15742512,-0.23773766,0.42262852
http://iot.uni-trier.de/FTOnto#VGR_Motor_1_ADXL365_Observation_2019-02-26_14_54_24.18,0.04708825,1.4171754,-0.44150296,0.8224156,0.9790071,-0.28788364,-0.8564693,-0.26454806,1.1391081,-0.7913978,0.48671505,-0.4767047,0.43862963,0.17244688,-1.396639,-0.7306372,-0.548908,-0.11193402,0.32096732,-0.3148008,-0.22986253,0.16957556,0.1850848,-0.081157446,0.24514937,-0.0059839687,-0.6227761,0.6714169,1.1975592,0.7431393,0.26178712,-0.28727016
http://iot.uni-trier.de/FTOnto#VGR_Motor_1_ADXL365_Observation_2019-02-26_14_54_13.76,0.14184895,1.3852634,-0.4065339,0.77443296,0.98099476,-0.2857527,-0.7698741,-0.25706992,1.1403555,-0.8943164,0.43740007,-0.505753,0.42140839,0.1769219,-1.3187895,-0.7099192,-0.5084641,-0.13224591,0.34697613,-0.25396773,-0.3134329,0.08583618,0.17226897,-0.07572639,0.15833423,-0.04324723,-0.6964197,0.7137631,1.2129776,0.771746,0.27797243,-0.30889598
http://iot.uni-trier.de/FTOnto#MPS_Valve_7,1.1838253,-0.3436162,0.7324821,1.5590438,2.377857,0.365675,-0.6953428,-0.45208484,1.2717403,0.29644173,0.7032909,-0.06872141,-0.96628577,-0.25165698,-0.4547244,0.13842697,-1.4545137,-0.7851404,-1.3597367,-0.10086343,0.1344819,-0.11940806,1.9297708,-1.1233803,-0.9637583,-0.34624374,-1.7332586,0.46987918,-0.7289052,0.09655271,0.17883639,1.0824498
http://iot.uni-trier.de/FTOnto#isActuatedHorizontallyLeftRightBy,0.071588,1.3265473,0.9973053,0.1714966,0.67335737,0.1513648,0.93852794,0.012989588,0.074149154,0.28042313,-0.15758389,0.1452756,0.8974763,0.8912961,-0.8136407,0.16132794,-0.8892722,-0.6127935,-0.84323144,-0.37831426,0.38902226,1.7862288,1.6858639,0.9971995,-1.1938235,-2.8608112,-0.12826099,0.5324761,0.8726564,-0.88988125,1.7696444,0.612791
http://iot.uni-trier.de/FTOnto#VGR_Motor_1_ADXL365_Observation_2019-02-26_14_53_54.97,-0.024735456,1.4731271,-0.47269195,0.792739,0.95830876,-0.17870523,-0.89842904,-0.30566347,1.1213685,-0.84296805,0.43245676,-0.5796029,0.47132832,0.16087003,-1.3222007,-0.7646686,-0.49698296,-0.12165601,0.29088962,-0.34608105,-0.22665685,0.10883019,0.24123004,-0.09413787,0.21881121,-0.026454633,-0.6627659,0.7260034,1.1963848,0.72730637,0.14943032,-0.40675044
http://iot.uni-trier.de/FTOnto#MPS_Position_Switch_5,0.07078303,0.53141564,-0.36792046,0.66658604,0.4753415,1.5722795,0.95407856,-0.4680404,0.91007197,-1.1566147,0.31781986,-1.416961,0.101662636,1.128785,-1.2297884,-0.56975394,0.20343424,-1.7934921,-0.5719989,-0.2710816,0.24417795,-1.6899033,1.4912574,-0.8285426,0.07174928,-0.6567898,-1.0931656,0.5233382,0.9522334,-1.0602832,0.69953936,-0.66547304
http://iot.uni-trier.de/FTOnto#SM_Conveyor_Belt,-0.14334275,1.5914906,-0.029896384,0.34356195,-0.07402905,1.2052475,0.16535799,-0.28048217,-0.12095411,-1.461946,0.015105742,-1.1225929,0.85647297,-0.6463418,-1.5687512,1.6113527,-1.3351357,-0.8025893,-0.17336099,0.5272754,-0.1838601,1.0455425,1.9692189,-1.2604339,-0.6955623,-1.1840771,-0.2497307,0.6290785,-0.0539211,-0.28175107,-0.08360828,-1.4730306
http://iot.uni-trier.de/FTOnto#VGR_Motor_1_ADXL365_Observation_2019-02-26_14_54_55.58,0.078285314,1.4152933,-0.40171173,0.7800853,1.0402931,-0.2788449,-0.8287053,-0.26333106,1.1671375,-0.9448036,0.47987598,-0.44058678,0.42894152,0.23986755,-1.3882102,-0.7276753,-0.5438508,-0.051356394,0.3669793,-0.3223345,-0.30162898,0.08817848,0.17617097,-0.10856862,0.20636818,-0.075646706,-0.7182587,0.65923977,1.189521,0.7562816,0.18876852,-0.23927742
http://iot.uni-trier.de/FTOnto#VGR_Motor_1_ADXL365_Observation_2019-02-26_14_55_36.51,0.04325859,1.4348183,-0.51894826,0.8111133,1.0591125,-0.3172811,-0.811499,-0.24255016,1.0859452,-0.8739498,0.3978912,-0.4930373,0.47407186,0.07289968,-1.3978771,-0.75211453,-0.5531274,-0.11921324,0.31123194,-0.33117932,-0.32029277,0.09752529,0.24111365,-0.110193275,0.27581164,0.06940778,-0.67460084,0.7085939,1.1826266,0.700495,0.27378345,-0.36014998
http://iot.uni-trier.de/FTOnto#Bucket,0.96949875,0.63913953,-0.5865299,-0.012672907,0.2407462,0.7457503,-0.25155374,-0.13861637,-0.23129056,0.6760922,-0.73734605,-1.6382612,0.0073944232,1.4538314,-2.1330884,0.36171535,-2.277999,-0.873176,0.6374146,0.84301156,-0.5487246,1.3776876,0.6035224,1.0119253,-1.5103006,0.37727246,0.014824449,0.23499808,1.1963352,-0.016221058,-0.3987941,-0.42483717
http://iot.uni-trier.de/FTOnto#VGR_Motor_1_ADXL365_Observation_2019-02-26_14_54_45.25,0.117990114,1.358503,-0.43377155,0.83138806,1.0852096,-0.3630391,-0.8441138,-0.272022,1.1229552,-0.8892292,0.4756901,-0.4882554,0.41210958,0.103206985,-1.3113729,-0.72139025,-0.5516168,-0.09656822,0.23715255,-0.21406773,-0.30939782,0.043615032,0.26244944,-0.08907341,0.30919117,0.02090141,-0.61964226,0.72866046,1.2151426,0.7639597,0.22773299,-0.26975262
http://iot.uni-trier.de/FTOnto#VGR_Motor_1_ADXL365_Observation_2019-02-26_14_55_26.44,0.09153798,1.4121301,-0.4216147,0.76860386,1.010642,-0.345952,-0.8510597,-0.24959564,1.1297418,-0.81482285,0.42080352,-0.51320785,0.47486126,0.12516005,-1.4222571,-0.7848944,-0.6029405,-0.09814937,0.28908473,-0.33387375,-0.32513207,0.05726618,0.18494785,-0.08471386,0.27256197,-0.0075239055,-0.693991,0.7553017,1.2013512,0.7773956,0.1871138,-0.35085344
http://iot.uni-trier.de/FTOnto#nextOperation,0.45028323,1.209551,-0.11990699,0.94351935,0.99318254,0.14964432,-1.041199,-0.9501545,0.60337377,0.59310454,-0.37935695,-0.7645646,1.1689174,0.56404406,0.59773445,-0.004362787,-0.463032,-1.2453616,-0.09408681,0.39623082,0.64645886,0.65871924,1.4276553,0.72537744,-0.46321583,-0.74836457,-1.4906341,-1.2371689,1.2471838,0.9680352,0.5108362,0.34744757
http://iot.uni-trier.de/FTOnto#AbnormalAccelerationResult,0.11044078,-1.0198319,-1.0555725,0.022937905,0.025262928,-0.32095563,-0.063549176,0.38283578,0.6851481,-0.014068776,1.3018291,-2.7219768,1.0946105,-0.23674536,-1.1188244,0.18252316,-1.700884,0.28964704,0.8170107,0.24535085,0.0017379768,1.5175475,1.9258986,0.2755059,0.7483072,-0.4363173,-1.8086641,-0.21632142,-0.14407077,-0.61027783,-0.9636344,0.10394199
http://iot.uni-trier.de/FTOnto#BF_Position_Switch_3,-0.40544546,0.65531695,-0.8836227,0.24666114,0.81272066,1.2763466,0.21385285,-0.38360363,0.14313437,-0.5771184,0.98905236,-0.45574966,0.026287388,1.1048561,-2.1785314,-0.34226745,-0.761164,-1.6148274,-0.5063296,-0.87635535,-0.19100614,-1.5535636,0.12823282,-0.70380706,0.33097795,-0.8910332,-0.7636531,-0.2920907,0.8608179,-1.0314013,1.4674351,-0.6733181
http://iot.uni-trier.de/FTOnto#VGR_Motor_1_ADXL365_Observation_2019-02-26_14_53_45.12,0.029919928,1.5151657,-0.51889217,0.77980435,1.017917,-0.3191343,-0.83635163,-0.23119336,1.105158,-0.8814454,0.4033249,-0.54866666,0.48955986,0.105835006,-1.2749121,-0.7447419,-0.5245639,-0.122807726,0.32502058,-0.25682244,-0.38581714,0.096431844,0.19836926,-0.06648909,0.2457384,0.05647554,-0.6936251,0.7656648,1.2108,0.69365686,0.27010694,-0.38535145
http://iot.uni-trier.de/FTOnto#VGR_Motor_1_ADXL365_Observation_2019-02-26_14_54_03.56,0.031994395,1.4039465,-0.43158165,0.74389136,0.98981243,-0.27610725,-0.8447158,-0.26031896,1.1489972,-0.7839241,0.41205806,-0.5043142,0.3937289,0.18221465,-1.3873254,-0.73387754,-0.5828516,-0.06869223,0.3016058,-0.29718018,-0.27381754,0.12359918,0.21335748,-0.027026512,0.2983564,0.053018913,-0.632273,0.7443223,1.1345193,0.6888551,0.18038544,-0.29466945
http://iot.uni-trier.de/FTOnto#Valve,1.0814182,0.53116363,-1.1160755,0.11964468,1.8594422,0.21228108,-0.64302886,-0.15807796,-0.7256929,0.24842007,0.4346426,-0.9067494,1.4606322,1.0175642,0.98460054,0.45566478,-0.5712719,-1.3270583,-0.46163487,-0.6252915,-0.9746967,-0.11679515,0.045371566,-0.80000263,-0.1554571,0.0750581,-2.1518407,0.007460704,1.0703495,-0.9494201,1.1898689,-1.0391487
http://iot.uni-trier.de/FTOnto#BF_Motor_1,-1.1252444,0.5158198,-1.0802464,0.53541857,1.6402764,1.2134987,-0.8053294,-0.02038413,-0.50100625,-0.18637311,0.38442302,-0.9041275,-0.43195695,0.181129,-0.6523343,-1.2470024,-1.0117837,-0.85246277,-1.0609416,-0.07485743,-0.27532318,-1.5553582,0.3711847,0.72083503,-1.6788175,-1.3644644,-1.2966521,1.0512723,0.62203455,0.24577348,0.9488102,-0.24894476
http://iot.uni-trier.de/FTOnto#BF_Light_Barrier_5,0.22777809,-0.20996673,-0.33011544,0.14629231,1.4282244,1.1880672,0.40097162,1.8763884,-0.2664173,-0.20991278,0.57017976,-0.7712272,0.338407,0.17077918,-1.7613447,-0.90139985,-0.68484277,-1.046683,-0.3104093,0.08263505,-0.1662668,0.49112704,0.56557095,1.1466855,-1.9030222,-1.8736393,-0.73294014,-0.022286884,-0.021610895,-0.9602918,1.5102566,-1.7092867
http://iot.uni-trier.de/FTOnto#VGR_Motor_1_ADXL365_Observation_2019-02-26_14_55_06.02,0.11927765,1.4087622,-0.4759642,0.68912923,1.0137008,-0.25303623,-0.86811686,-0.26730138,1.1218231,-0.7852621,0.48832121,-0.50588393,0.4071049,0.22261672,-1.4502491,-0.7830931,-0.5696935,-0.09691551,0.29301655,-0.27896675,-0.28207725,0.10963454,0.174172,-0.0761924,0.27734107,-0.053444643,-0.5778251,0.68310046,1.1917228,0.7946907,0.25611255,-0.23784646
http://iot.uni-trier.de/FTOnto#AbnormalAccelerationObservation,-0.5306524,1.2098291,-0.89228594,0.6345477,1.1106095,-0.5902282,-0.04453259,0.28396657,0.57487965,0.26564112,1.0788656,-2.4676201,0.6538405,0.44775477,-0.7265515,0.23110524,-1.70386,0.8309059,0.481762,-0.3679089,0.74591637,1.3882486,1.1818353,-0.7925466,0.7410472,0.42007253,-0.19339918,1.1083095,0.9097142,0.52163774,1.0353636,0.428003
http://iot.uni-trier.de/FTOnto#AbnormalPressureResult,0.053054154,0.24730766,-1.7319295,0.91039467,0.32749504,0.054443922,0.1274534,0.8476872,0.8644771,-0.024218906,0.96397483,-2.1002417,2.5146737,0.26932138,0.12472877,0.67461866,-1.9937555,-0.023109065,0.059574276,-0.36815098,-0.41788244,0.86181164,1.0241119,-0.28839266,0.0064561567,-0.21011853,-0.7352402,-0.058708046,-0.843292,-0.78671545,0.9026778,1.0197618
http://iot.uni-trier.de/FTOnto#VGR_Compressor_7,0.1415804,-0.13257392,0.057647824,1.2019368,2.1071138,1.211524,-0.8973788,-0.250487,0.12174631,0.6257527,-0.18992874,-0.59049916,-0.5916334,-0.05766596,-0.75633097,-0.51768446,0.011774769,-0.08849289,-0.68643963,-0.19680825,-1.3299248,0.32492465,1.5399281,-1.1780014,1.4444808,0.05320418,-2.9319499,-1.2508736,-0.08780325,-0.71942407,0.5844098,-0.773884
http://iot.uni-trier.de/FTOnto#SM_Light_Barrier_8,0.6280972,-0.9247919,-0.37367278,1.1142803,1.3085433,-0.15175186,-0.48213252,2.0290139,0.7711092,-1.4383786,-0.08815711,-1.5367763,0.04259736,-0.89479613,-1.598536,-0.22395343,-0.49050638,-0.71443915,-0.285734,1.1856407,-1.2647932,-0.07212134,0.896956,-0.80976796,-0.7921191,-1.0266515,-0.4567702,0.4542272,0.12607048,-1.3395221,1.536857,-0.32076368
http://iot.uni-trier.de/FTOnto#VGR_Motor_1_ADXL365_Result_2019-02-26_14_55_16.45,-0.22496662,-0.25032684,-0.2546572,1.3390833,0.498202,-0.025492162,-1.5280944,0.93783253,-0.06933925,-0.29476413,1.466438,-0.20770659,-0.026488774,0.6406118,-0.5988214,0.6493151,0.04558024,-1.5790569,0.11500556,1.3165617,0.2721701,-1.426616,0.78014374,-0.30544832,-0.28658953,-1.095389,-2.875874,0.59138334,0.2806088,-1.3895652,-1.1955389,-0.88483953
http://iot.uni-trier.de/FTOnto#VGR_Motor_1_ADXL365_Result_2019-02-26_14_54_13.76,-0.5174256,0.19376689,-0.9488188,0.4016271,0.42822042,-0.68524414,-1.1598481,0.36145896,0.85123914,-0.3447104,0.841996,-0.49235642,-0.4066094,0.5279219,-2.167679,1.0878104,-0.043678947,-0.33527035,0.76102763,1.2823659,-0.6801802,1.1674877,-0.06312919,-1.0753621,-0.17374219,-0.298207,-3.00098,-0.90933114,-0.57869154,-0.9591622,-0.2752554,-0.6068252
http://iot.uni-trier.de/FTOnto#SM_Color_Sensor_2_Observation_2019-02-26_14_55_23.69,-0.10451321,1.0728658,-0.7009926,0.4161251,-0.06765336,-0.3496683,-1.9438554,0.18105005,0.86751527,-1.0807564,-0.5746587,-1.6213343,0.8614465,0.1283272,-0.6281688,-0.8251526,-0.79281664,-1.1815053,-0.5757203,0.76112646,-0.17848133,0.05172723,0.6398738,-0.53718644,0.9056041,0.20249216,-0.62026685,-0.753236,0.76281923,-0.65508944,0.4500834,-1.9030468
http://iot.uni-trier.de/FTOnto#SM_Color_Sensor_2_Observation_2019-02-26_14_54_14.17,-0.03258283,1.049633,-0.6318147,0.6112189,0.0006482161,-0.42144528,-2.103298,0.35005796,0.7336772,-0.927608,-0.5131603,-1.6172901,0.8961937,-0.10526175,-0.6313935,-0.5306016,-1.0006759,-1.1031883,-0.4857988,0.61424243,-0.22372562,-0.13963701,0.65308833,-0.39537135,1.240149,0.1516704,-0.6694593,-0.56397057,0.6818948,-0.72084296,0.3615953,-1.982313
http://iot.uni-trier.de/FTOnto#Sensor,0.25446448,-0.28198394,0.6023819,-1.5638056,0.8613625,0.3592028,-0.2103597,1.5812334,0.042441167,0.4069666,1.1116732,-2.214746,0.69790024,1.1820251,-1.0379022,-0.5038981,-1.7726347,-1.401754,1.608956,1.8962091,0.9377644,-0.3174466,0.07003718,-0.96301657,0.28726393,-0.15313093,-1.5149944,-0.68936104,1.0671799,-1.0436704,0.057286583,-0.8625768
http://iot.uni-trier.de/FTOnto#VGR_Motor_1_ADXL365_Result_2019-02-26_14_53_45.12,0.62562007,-0.036768965,-1.0582455,0.0011712996,1.3800052,-0.3799773,-0.84059095,0.37612516,-0.41466987,0.4376722,1.3958501,-0.20239344,0.3748938,0.81065243,-2.3713994,0.33968714,0.53433686,-0.56508803,-0.5000392,1.2722796,-0.36023125,-0.9637822,1.7583508,0.17314509,1.3321649,0.07990516,-1.3590773,0.065698326,1.0554911,-1.2190516,-1.5436985,-0.7645585
http://iot.uni-trier.de/FTOnto#VGR_Motor_1_ADXL365_Result_2019-02-26_14_54_55.58,-0.46570137,0.35484213,-1.1525637,0.37710473,0.7624499,0.15104154,-0.6610103,0.5415032,0.7118409,0.2648355,1.9884697,0.60312146,-0.23606874,0.65167606,-2.168099,0.50506413,0.15865822,-0.37921378,0.6237039,0.5362117,-0.0649738,0.8669603,2.0598276,0.18179171,-0.6621549,-0.5030317,-2.1880143,0.035374556,0.2440913,-0.34934005,-1.8061821,0.40909296
http://iot.uni-trier.de/FTOnto#VGR_Motor_1_ADXL365_Result_2019-02-26_14_54_24.18,-0.0008048836,-0.6363214,-0.4775657,-0.21533574,1.1396487,0.09005135,-2.1920984,0.5921062,1.5488136,-0.23043674,0.5411011,-0.13356414,0.18764575,0.25869736,-0.90766656,0.20691547,-0.16538854,-1.5012151,-0.0033622426,2.1235056,-0.37069836,-0.27426252,1.6781031,-0.21144801,0.7549712,-1.0294455,-2.1478033,-0.5378821,-0.9346344,-0.3767382,-0.919636,-0.42158622
http://iot.uni-trier.de/FTOnto#Normal_Motor,0.5697957,0.40040493,-0.5115454,-0.07889458,1.0014646,1.1983839,1.0375392,-1.0584693,0.6189463,0.7206197,0.97378,-1.1386025,1.0666835,1.8926271,-1.1870508,1.1312757,-0.67399836,-1.3583224,-0.8816406,0.5624283,-1.0441532,1.9318216,0.21088722,-1.6867105,-0.24309756,-0.6174986,0.052668262,0.28676987,0.62568736,-1.0563073,0.100206845,0.21805161
http://iot.uni-trier.de/FTOnto#SM_Light_Barrier_3,0.88285404,0.06407899,0.75525576,1.5648272,0.3417369,0.75851166,0.380279,0.86021143,0.22845462,-0.3945299,-0.025919832,-1.2026628,0.77198184,0.023667775,-2.0805135,-0.25604218,-0.4279605,-0.49608427,0.1953554,0.12561533,-0.85376734,-0.111890495,0.76950413,-0.114964,-0.6069295,-2.1050436,0.15761071,0.62276644,0.6950474,-1.8488787,1.0682932,-1.0808876
http://iot.uni-trier.de/FTOnto#BF_Position_Switch_2,0.5410138,0.35350946,-0.36482897,-0.07135979,1.2735238,0.72449744,0.7640282,0.7977672,0.7489993,-0.504891,1.1350088,0.26896304,-0.825865,1.3580635,-2.702856,-0.6188235,-0.199602,-1.2915288,-0.22588868,0.22875004,-0.26713276,-0.72057855,0.058360055,0.20375384,-1.1958635,-0.7601851,-1.2847657,0.1415474,0.33287138,-0.2406164,0.6435524,0.43737388
http://iot.uni-trier.de/FTOnto#VGR_Motor_1_ADXL365_Result_2019-02-26_14_55_36.51,0.90934056,-0.09405827,-0.8545439,1.009475,0.43958384,-0.37382722,-1.2557642,-0.30913138,1.5758501,-0.056282528,0.90549195,-0.59295756,-0.43627188,0.20421246,-1.5255651,0.22357747,-0.48996395,-0.87730837,-0.0903585,1.098965,1.1670288,-0.1521612,2.2390466,-0.6376292,-0.07363515,1.2202129,-2.7859674,-0.62988424,-0.46769476,-0.8204144,-0.8609862,-0.09274896
http://iot.uni-trier.de/FTOnto#VGR_Motor_1_ADXL365_Result_2019-02-26_14_55_06.02,-1.125449,0.19079207,-1.1643962,0.5804329,0.8452701,-0.016273495,-0.7582379,0.24714907,1.2175099,-0.72067565,2.0771358,0.021478757,0.98589957,-0.75360537,-1.2663164,1.4925859,-0.9758304,-1.6403686,0.2573813,0.9402666,-0.63104475,0.34887242,0.6899481,-0.14944553,0.08112526,-0.51461005,-1.4150978,0.37397128,-0.620076,-1.3241501,-1.449081,-0.266528
http://iot.uni-trier.de/FTOnto#MPS_Motor_2,0.062642835,0.46068448,0.14816608,1.4496316,1.0092359,1.2716188,-1.1087549,-0.8841551,0.04972584,-0.7879196,0.6478388,-1.1706259,0.6060913,-0.113220416,0.009683954,-0.3726971,-1.5387019,-0.79840237,-1.8543348,-0.51318043,0.0028113476,-0.8524647,1.9692174,-1.0268868,-1.2056402,-1.0755482,-0.3925227,0.93332195,0.35842568,0.22028221,0.47113043,0.0953712
http://iot.uni-trier.de/FTOnto#BF_Position_Switch_1,0.20923893,0.32169536,-0.7028485,-0.14648788,1.2839813,0.5758431,0.38163704,0.8467154,1.1044354,-0.121097915,0.908007,0.17059733,-0.7571114,1.4313359,-2.5736706,-0.57949215,-0.16787365,-1.6185735,-0.21229234,0.08820705,-0.3007172,-0.58346564,0.21857812,0.29567686,-0.93216765,-1.075641,-0.9234831,0.079845786,-0.06258814,0.13245189,1.1929073,0.7491195
http://iot.uni-trier.de/FTOnto#isMonitoredBy,-1.1772463,1.0401576,1.3599284,-0.9632319,1.2741433,-1.3217218,0.16133839,1.1640253,-0.8709278,-0.664087,-0.6833069,-1.553286,0.8940305,-0.10390652,-1.008008,-0.2907874,-1.1729842,-1.3590696,-1.7894213,0.45243236,-0.4231058,1.0182036,0.30113146,0.9117933,-0.68696433,-0.7590705,-0.10476921,0.8007338,0.60691637,-1.395803,-0.6214006,-0.22639246
http://iot.uni-trier.de/FTOnto#VGR_Motor_1_ADXL365_Result_2019-02-26_14_54_03.56,-0.11187139,0.5090384,-1.7254828,-0.260765,1.6267545,-1.0779868,-0.86352766,-0.12087683,1.2757816,-1.0479164,0.1463327,-1.283763,0.30367875,-0.42484373,-1.4389024,1.0340557,-0.0842295,-0.07438946,0.48329517,1.4136868,-0.2326849,0.09320357,1.6017072,-0.5358752,1.007893,0.32723606,-1.8111949,1.1054293,0.14587529,-0.84807146,-0.9675621,-0.8690456
http://iot.uni-trier.de/FTOnto#VGR_Motor_1_ADXL365_Result_2019-02-26_14_54_34.67,-0.6583278,-0.15649204,-1.0523219,0.5254429,1.4431483,1.1980897,-1.0938364,0.4451512,0.9856324,-0.92539054,0.6713987,0.03525128,0.34215918,0.73763573,-0.8418059,0.2879192,-1.0628129,0.29926458,0.28087506,1.3804902,0.18933252,-0.21334742,1.5088322,0.6429195,0.86625385,-0.5102959,-1.8214462,1.047176,0.18852481,-1.1991609,-1.651148,-1.1136974
http://iot.uni-trier.de/FTOnto#VGR_Motor_1_ADXL365_Result_2019-02-26_14_55_26.44,-0.44888064,0.10456285,-0.12816766,1.8118991,0.23942222,-0.06393402,-0.32980716,-0.41612294,0.8138893,-0.051330145,0.98283184,-0.27107897,0.045204595,0.38037163,-1.6356323,1.2306166,0.045646563,0.048297975,0.5963185,1.7025996,-0.37289402,0.3667015,1.6737869,-0.5320299,0.24928428,0.58348894,-1.7367902,1.3941319,0.4333772,-1.9554298,-0.8630865,-0.43341112
http://iot.uni-trier.de/FTOnto#VGR_Motor_1_ADXL365_Result_2019-02-26_14_54_45.25,0.512326,0.036626574,-0.8643888,0.34024024,0.75422823,-0.37266695,-0.6373172,0.5363959,0.246022,-0.83850896,1.7404993,0.59078676,0.0383104,0.6995128,-2.292434,0.13769102,-0.9541601,-0.061563067,-0.51967937,1.4793768,-0.21934745,-0.15708493,-0.060194902,0.96426934,-0.40632227,0.5962551,-2.4874632,0.34088585,-0.08463645,-1.7178556,-0.94081753,-0.49732774
http://iot.uni-trier.de/FTOnto#VGR_Motor_1_ADXL365_Result_2019-02-26_14_53_54.97,0.7150012,-1.0702152,-0.20223047,0.26787454,1.7589955,-0.147013,-1.6398208,0.10183613,1.0712394,-0.13905711,1.1826733,-0.5708537,0.70023006,1.5871104,-2.0172062,0.9315094,-0.15440293,0.46053514,-0.070164196,0.9843394,0.2888997,0.8904401,0.58862036,-0.7889667,0.6504791,-0.41278675,-1.3721107,-0.5617501,0.11530813,-0.9540735,-1.4606284,-0.72580796
http://iot.uni-trier.de/FTOnto#SM_Light_Barrier_7,1.8643613,-0.50786453,1.1930953,0.81559515,0.92504555,-0.2501379,0.36664656,1.3738285,0.4868939,-0.56230515,0.31297615,-0.37790817,-0.32475272,0.0809189,-2.0897684,0.37502447,-0.9862286,-1.5822648,-0.28950793,0.6573358,-0.5643871,0.8831112,0.8385137,-0.64907426,-0.2600463,-1.2617342,-0.74712855,-0.36793536,0.06422186,-1.7158369,0.66794604,-1.4208363
http://iot.uni-trier.de/FTOnto#SM_Light_Barrier_6,0.4827346,-0.48066556,0.29493913,0.67785144,0.81128645,1.4139233,0.5309797,1.6842953,1.0402844,-1.5284938,-0.18455467,-0.9870776,0.18465687,-0.14003463,-1.8183751,0.2698827,-0.7311735,-0.64171624,0.54519457,1.4479256,-1.4515002,0.9123427,0.5315936,0.28372785,-0.58100516,-0.6700631,-0.8313934,-0.35961306,-0.28399774,-1.524284,0.47802773,-1.0000231
http://iot.uni-trier.de/FTOnto#VGR_Compressor_7_SSCMRRN03PD2A3_Observation_2019-02-26_14_55_36.51,0.19702858,1.0182445,-0.20784877,1.360973,0.6143581,-0.5856739,-1.2314944,0.77146035,-0.11623049,0.44887322,1.2127881,0.24150735,0.77022463,0.19534461,-1.0290846,0.03142682,-0.59873843,-0.03759478,-0.416429,-0.5953266,-0.67677534,1.0467278,0.6414634,-0.24529818,0.4855751,-0.38061818,-0.75446147,-0.31242397,0.88910705,-0.4471944,-0.15846752,-0.68773043
http://iot.uni-trier.de/FTOnto#VGR_Compressor_7_SSCMRRN03PD2A3_Observation_2019-02-26_14_54_13.76,0.1669758,0.96583825,-0.15940872,1.3059936,0.6491124,-0.60084546,-1.2180845,0.6993952,-0.119281165,0.40220883,1.2758434,0.25979042,0.8143953,0.16837116,-1.0024871,-0.032974597,-0.64244837,-0.07042399,-0.48749253,-0.54254967,-0.7223829,1.0630056,0.5994884,-0.2092903,0.5107018,-0.46268475,-0.746431,-0.13619784,0.92452455,-0.4981761,-0.25264198,-0.69994175
http://iot.uni-trier.de/FTOnto#VGR_Suction_Head,1.0400206,0.6626365,0.16935715,-0.5211193,3.0522726,-0.23976405,-1.5104536,0.23456934,-0.18088073,0.024177393,-0.7114854,-0.4519909,-0.963173,-0.39316288,-1.2526878,-0.25063792,-1.6171834,0.6920798,-0.8152183,0.06938634,-1.2812178,0.19737372,1.3184004,0.4757385,0.09006834,0.9356323,-2.0921202,0.9991615,-0.31876242,-0.3413276,0.036131483,-0.14690216
http://iot.uni-trier.de/FTOnto#SM_Sink_White,0.64147544,0.46646938,0.15773566,-0.13189559,0.5626931,0.4042242,-0.9350767,0.8737,-0.4457807,-1.1370515,0.12964202,-0.3557484,0.3958348,-0.26778638,-1.120932,0.66987604,-1.3378104,0.9089037,0.31519982,0.14014369,-0.70690566,0.96902823,2.0825293,0.51462746,-0.43223718,-2.0822012,-1.5667909,1.5699456,0.40116033,-0.9642224,-0.0046172873,-1.2046282
http://iot.uni-trier.de/FTOnto#SM_Ejector_White,1.4259944,1.091164,-0.23686057,0.8055919,1.4829596,1.1186243,-0.0716378,0.7444297,-0.33944574,-0.6538843,-1.7866933,-0.99881667,0.13026914,-0.22553927,-0.71080613,1.5547397,-1.462226,0.16522667,0.59388673,0.854751,-0.6475966,-0.2833154,0.93408275,0.6428194,-0.48349595,-0.14253904,-1.7063239,-0.16323437,-0.50383025,-1.4615743,0.5863427,-1.304944
http://iot.uni-trier.de/FTOnto#VGR_Compressor_7_SSCMRRN03PD2A3_Observation_2019-02-26_14_55_26.44,0.09779099,0.9679843,-0.25264716,1.4291774,0.55234915,-0.61483556,-1.2682235,0.65579605,-0.17544854,0.39696872,1.222739,0.2512296,0.75055194,0.19741671,-0.989576,-0.011842212,-0.64003,-0.18725872,-0.36462432,-0.50312406,-0.7421685,0.94855154,0.6965924,-0.3154647,0.5376313,-0.5226676,-0.77896684,-0.28988814,0.99335504,-0.52544254,-0.23380968,-0.7118234
http://iot.uni-trier.de/FTOnto#SM_Ejector_Red,2.214284,0.18686381,0.56979555,0.6457171,1.5385957,0.011846374,0.03650186,0.29144374,-0.047330033,-0.41181204,-0.41937783,-0.83956873,-0.6714922,-0.077232935,-0.74218684,1.7567644,-2.1197104,-1.298329,-0.4725036,0.22064237,0.32599038,-0.6906387,1.2594354,-0.273432,0.40547493,-0.45853183,-1.3838165,0.3429175,0.018203782,-2.1241379,0.36891204,-1.1702209
http://iot.uni-trier.de/FTOnto#BF_Vacuum_Generating_Piston,0.6148057,0.51454294,-2.0043712,0.050857738,1.836707,0.69951713,0.18779032,0.19152026,0.2245764,0.04851697,0.5092456,0.3032151,-0.67173856,0.24750882,-0.8382491,1.1006272,-1.646043,-1.1372757,-0.59444034,0.60964644,-0.78387386,-0.13931805,1.2532197,0.7009279,0.6278215,-0.8166127,-1.3094367,-0.7352871,-0.36137357,-0.9325946,2.524853,0.078714594
http://iot.uni-trier.de/FTOnto#VGR_Compressor_7_SSCMRRN03PD2A3_Observation_2019-02-26_14_53_54.97,0.14448029,0.9889165,-0.23964928,1.362539,0.64999497,-0.5855314,-1.298523,0.72835416,-0.16772163,0.4269647,1.2420939,0.2669055,0.7088997,0.20534873,-0.98760897,0.017506026,-0.58842283,-0.07209952,-0.4803691,-0.54091716,-0.6699942,1.0142902,0.57676965,-0.21218388,0.5022523,-0.47384164,-0.8090514,-0.19957924,0.9677243,-0.51202595,-0.20743407,-0.70342934
http://iot.uni-trier.de/FTOnto#Component_Vibration,0.30551246,0.12445447,-0.8894912,-0.7214424,0.1348172,-1.3834251,0.54399437,-1.7196271,0.009351006,-0.12689853,1.6325694,-2.3523858,0.9287085,1.4201514,-0.846108,0.26029897,-1.0186447,-1.1362293,0.20690778,-0.35978663,0.20125787,0.5805486,0.71222913,-0.27695125,-0.2837465,-0.92699236,-1.6859946,1.7302934,0.9915058,-1.06836,-0.0741718,1.4533321
http://iot.uni-trier.de/FTOnto#ejectsWorkpieceTowards,0.25164172,0.61033833,0.4293652,0.07849547,2.740094,-0.27304617,-0.6583894,1.1004462,0.76864296,-1.5065819,-0.99870133,0.51372355,0.98240346,-0.921748,-0.40863633,1.3120623,-2.6317453,-1.3547244,0.2767952,0.85807127,-0.63477093,0.43564042,1.0736719,0.121990964,0.73664916,-0.42309603,-0.7221407,0.059214972,-0.3738892,-0.9498944,1.2959949,-0.12544884
http://iot.uni-trier.de/FTOnto#HRS_Bucket_White_1,-0.20484804,1.3943878,-0.7223055,0.44933528,0.7609395,-0.025521467,0.47414273,-0.04480081,0.8477253,-0.10877204,-0.18756983,0.19603902,0.47499833,-0.6600375,-1.4517024,-0.4101704,-1.2195976,-0.3598294,0.165357,0.1162896,-0.40137756,0.45274383,2.107841,1.0738044,-0.8725658,-0.35795876,-0.88327736,2.1513865,-0.27476442,-1.5812283,-0.092456594,-0.8082218
http://iot.uni-trier.de/FTOnto#VGR_Compressor_7_SSCMRRN03PD2A3_Observation_2019-02-26_14_53_45.12,0.15720935,0.98686576,-0.18383045,1.3929807,0.6169565,-0.6002307,-1.1753355,0.6996456,-0.14314291,0.38544652,1.2901082,0.27746946,0.80438584,0.2415775,-0.98895746,0.026943136,-0.58376104,-0.16522373,-0.4154478,-0.5235356,-0.70674646,0.9583749,0.58210486,-0.23292044,0.44593775,-0.50121045,-0.6751354,-0.20336546,0.94748265,-0.49439403,-0.23476009,-0.6634833
http://iot.uni-trier.de/FTOnto#Component_Acceleration,0.3223209,-0.0024606406,0.12446698,-1.23122,1.7940292,-0.15104961,0.087820716,-1.4295639,-0.073829025,-0.38522327,2.0303164,-2.9229155,1.9844773,0.8092358,-0.8037045,-0.2725886,-0.6835253,-0.81245404,0.6674704,0.54236466,0.41137174,0.59173846,0.693378,0.6720953,0.47564113,0.6353139,-0.5835033,0.88160074,1.1419934,-0.14586611,0.5209018,0.3499195
http://iot.uni-trier.de/FTOnto#SM_Ejector_Blue,1.5115436,0.3663202,-0.60007083,0.8163436,2.1240292,-0.1911295,-1.2271352,0.47690788,0.0019527498,-1.0521549,-1.48771,-1.4353527,-0.055583835,-0.62780076,-0.31099945,0.22253162,-1.5005744,0.18400727,-0.42743152,0.37391824,-0.47301555,-1.823977,1.3094571,-0.45671302,-0.063917965,-0.32727766,-0.91836965,0.7509534,0.60102606,-1.4813302,1.0222721,-0.7258294
http://iot.uni-trier.de/FTOnto#SM_Motor_1,-0.54082155,0.87177616,0.022628583,2.3928173,0.9475696,1.7611269,-0.9575006,-0.31157696,-0.2973299,-0.81664985,-0.52845836,-1.159143,0.9268675,-1.1584927,-1.5089295,-0.38311693,-1.775208,0.22839755,-0.15212269,0.1896613,-0.37372974,-0.68490326,0.4098248,-0.88283896,-2.139377,-0.98356915,-0.09334357,0.60252535,-0.08377931,-0.7900329,0.41660264,-0.822697
http://iot.uni-trier.de/FTOnto#VGR_Compressor_7_SSCMRRN03PD2A3_Observation_2019-02-26_14_54_03.56,0.095778205,0.9664548,-0.22596319,1.4204292,0.6543645,-0.5573574,-1.2267445,0.7052731,-0.2128213,0.43510145,1.2999463,0.21591954,0.7449907,0.189334,-0.9936918,0.028149484,-0.46420568,-0.12619224,-0.46352804,-0.49912983,-0.6671001,0.9583193,0.6293115,-0.28952602,0.5149214,-0.43500307,-0.7282162,-0.18515055,0.9632064,-0.48479527,-0.17514496,-0.67637765
http://iot.uni-trier.de/FTOnto#VGR_Compressor_7_SSCMRRN03PD2A3_Observation_2019-02-26_14_54_34.67,0.08343424,0.97531444,-0.20815143,1.4790488,0.7084581,-0.51498204,-1.225479,0.72200227,-0.15576446,0.3689982,1.2897633,0.27922374,0.83452785,0.20066248,-1.039495,-0.010631518,-0.56538844,-0.08439308,-0.4547876,-0.51357085,-0.70432377,0.96760094,0.53323096,-0.27346227,0.48605725,-0.44939694,-0.73449785,-0.2043464,0.87539226,-0.5933275,-0.26452562,-0.71261126
http://iot.uni-trier.de/FTOnto#VGR_Compressor_7_SSCMRRN03PD2A3_Observation_2019-02-26_14_54_45.25,0.12485525,1.0000209,-0.26401174,1.4464339,0.6963302,-0.49613562,-1.2534928,0.73024225,-0.14299679,0.42915872,1.2080218,0.2559639,0.7369009,0.2524805,-0.94784236,0.00408,-0.6069347,-0.023815906,-0.4023551,-0.49666762,-0.7588148,1.0049672,0.6206806,-0.2872148,0.5169551,-0.37560335,-0.77905023,-0.27340743,1.0106766,-0.46476457,-0.2107282,-0.68755984
http://iot.uni-trier.de/FTOnto#VGR_Compressor_7_SSCMRRN03PD2A3_Observation_2019-02-26_14_54_24.18,0.12292195,0.96596694,-0.19436307,1.4315493,0.6502977,-0.5142639,-1.1723803,0.67790806,-0.15943572,0.43753624,1.2512388,0.17328511,0.7600697,0.14153151,-0.95395976,-0.02619057,-0.5501551,-0.04819507,-0.45181814,-0.5094614,-0.6756623,0.90303665,0.6407758,-0.27194917,0.53493834,-0.48032343,-0.723383,-0.22678337,0.98750514,-0.49337167,-0.22018538,-0.7460675
http://iot.uni-trier.de/FTOnto#VGR_Compressor_7_SSCMRRN03PD2A3_Observation_2019-02-26_14_54_55.58,0.20930706,0.9434038,-0.14492585,1.4718971,0.68901527,-0.59134567,-1.1773672,0.6909101,-0.16137165,0.31629696,1.3153954,0.28032798,0.79539216,0.2266078,-0.9366904,-0.019301027,-0.5300226,-0.1392418,-0.5279081,-0.40136978,-0.70487463,0.9369848,0.54008615,-0.18539682,0.48384294,-0.5238204,-0.7704262,-0.17951487,0.882482,-0.46993062,-0.28245217,-0.68844146
http://iot.uni-trier.de/FTOnto#VGR_Compressor_7_SSCMRRN03PD2A3_Observation_2019-02-26_14_55_16.45,0.14554997,0.96984243,-0.23370312,1.4131187,0.5947798,-0.5130374,-1.2819371,0.73410684,-0.14048333,0.43332192,1.2094508,0.2846803,0.71025014,0.2406121,-0.94781286,-0.06446934,-0.66451174,-0.11127081,-0.39158666,-0.47012517,-0.75991577,1.0637498,0.59538203,-0.16927846,0.58831525,-0.5413928,-0.84670997,-0.23740536,0.95723486,-0.5665637,-0.19042234,-0.82666516
http://iot.uni-trier.de/FTOnto#BF_Crane_Simple_Piston,0.85555327,1.5129364,-0.67790335,-0.5231281,2.2572043,0.8390831,-1.0212811,-0.9453728,-0.5734572,1.0702692,-0.41438997,-0.09126865,0.6204172,0.6313406,-1.1407415,0.15648957,-0.75901896,0.34759906,-1.0151782,-1.2814584,0.13140017,-0.62314236,1.9632845,-0.04056145,-0.300458,-0.49654993,-0.68532866,-0.29727918,0.11425969,-1.3816752,1.231659,-0.3758616
http://iot.uni-trier.de/FTOnto#VGR_Compressor_7_SSCMRRN03PD2A3_Observation_2019-02-26_14_55_06.02,0.105918296,0.98813987,-0.24555743,1.3483598,0.6918779,-0.60033125,-1.2553797,0.7489505,-0.08479516,0.47265944,1.3290584,0.2915915,0.7382173,0.29020938,-1.0148383,-0.06876275,-0.56050664,-0.110936716,-0.47067386,-0.50525075,-0.71250063,1.0206516,0.5391388,-0.19443451,0.52762496,-0.5564237,-0.74669474,-0.26532972,0.9247667,-0.52163965,-0.2211246,-0.6860683
http://iot.uni-trier.de/FTOnto#VGR_Position_Switch_2,0.3039336,0.15489416,-0.24203977,-0.27361038,0.8350407,0.79202527,0.18482584,-0.1657891,0.075667605,-0.21849369,-0.2250629,-0.97047997,-1.5359466,1.0690994,-2.2468991,-1.500178,-0.20774826,-1.0191643,-0.24905531,0.1496976,-0.17131944,-0.16197567,0.9068027,-0.39762247,0.47093135,0.02127021,-2.1958861,-0.8421104,0.9968424,-0.49827325,1.3302511,-1.6484053
http://iot.uni-trier.de/FTOnto#HRS_Light_Barrier_1,-0.15203485,0.030134551,0.07220784,0.6998113,0.6086404,-0.0424442,-0.097509354,1.3449438,0.64210427,-0.18464896,0.67464536,-0.5258868,1.0124673,-0.69330764,-1.3025972,-0.8626129,0.35818937,-1.2104875,-0.54218614,0.5167741,-1.3460351,0.2421311,1.1086843,0.010345735,-1.7679482,-1.133206,-0.5003671,0.40096357,-0.0765263,-2.5207481,-0.047272045,-0.5331262
http://iot.uni-trier.de/FTOnto#MPS_Position_Switch_3,0.44964254,0.39075336,-0.58367854,0.29974785,1.2984653,0.10948603,0.7474617,0.2572304,1.7124139,-1.0856221,-0.34025848,-1.4991205,-0.72424793,0.48387375,-1.0795628,-0.1593054,0.21022232,-1.8135021,-0.72445685,0.5022268,-0.85592526,-0.7587777,1.4018356,-1.28189,0.45668495,-0.003399376,-0.7409702,0.6025376,0.42253217,-0.78656036,1.4860333,0.07647612
http://iot.uni-trier.de/FTOnto#HRS_Light_Barrier_4,0.6378655,-0.22850661,0.17457788,0.45769227,0.49998114,-0.4271416,-0.2565144,1.304976,0.67715806,-0.015271729,0.55153596,-0.9065358,0.29159752,-0.44938475,-0.9035095,-1.0343188,0.08079087,-1.371423,-0.7796577,0.69241667,-0.9939018,0.2209522,1.5798247,0.3268927,-1.8096865,-1.2885073,-0.5808956,0.020188933,0.13851884,-2.760452,0.65697527,-0.5494965
http://iot.uni-trier.de/FTOnto#TooLowPressureObservation,0.738723,0.1999261,-0.58505625,0.17077754,0.9721841,-1.4125274,0.24488004,0.8313328,-0.009472598,0.84302694,1.1877494,-2.8199298,0.8843524,0.17941663,-0.38538086,0.52625185,-1.4710729,-0.0056161205,-0.1226793,-1.1075594,-0.10054793,1.0014368,0.11440272,-0.63207287,-1.1687014,-0.29656795,-1.2554545,-0.33085936,-0.12595621,-2.0633318,0.4509094,0.7852746
http://www.w3.org/2002/07/owl#onProperty,0.74731857,0.7840555,-0.5726758,0.32892546,1.9410443,-1.5701076,1.2239507,0.87274915,-0.033292223,-0.060624372,-0.1560492,-1.8009315,1.4176482,-1.2494923,-1.3264425,1.3032947,-0.7613948,-1.2812303,0.18923546,-0.5994515,-0.58793724,0.047597215,0.69331986,0.8242164,-0.5648237,-0.71844524,-1.9535567,0.73883075,0.44469473,1.4397775,0.86392385,0.18386248
http://iot.uni-trier.de/FTOnto#isregulatedBy,0.1757043,1.2774478,0.8694925,-0.086079344,2.5302525,0.101367265,-0.05600818,0.14920618,-0.5390217,-0.4352598,-0.37430805,0.75783455,1.0977874,0.8594787,0.5887769,0.87384546,-2.2480528,0.27561074,-1.5432065,0.76703984,-0.7283165,0.9140464,1.7366978,0.07749985,1.0025824,0.9968233,-1.110836,-0.106580414,0.9338548,-1.0810865,0.3225457,0.41722462
http://iot.uni-trier.de/FTOnto#Color_Sensor_Observation,-0.9299287,1.2586646,-1.5608436,0.5524127,-0.67950875,0.3813223,-1.0631806,0.11649996,1.2999992,2.6332333,-0.059592117,-2.1844153,-0.12468097,0.9169342,-1.637538,-0.04845105,-1.0535382,-1.0054911,0.059583176,0.4608368,-0.17519552,0.62908334,-0.41403562,0.056269,0.0058192313,-0.7576729,-0.7983206,-0.69702727,0.59475446,-0.40096778,1.0942521,0.33029678
http://iot.uni-trier.de/FTOnto#TooHighPressureObservation,0.7180929,0.95695055,-0.082599916,-0.26405495,1.19587,-1.0594558,-0.017524647,0.27224693,0.18977097,1.875523,0.7700894,-2.1957283,1.1651833,1.1244262,0.06858114,0.84641075,-0.7536803,-0.47817653,0.20362772,-0.7342194,0.62006193,2.0272117,0.69344234,-0.6917284,-0.38765797,-1.7132732,-1.7374158,-0.15215646,-0.8776972,-1.4036365,0.35988984,0.18255788
http://www.w3.org/2002/07/owl#someValuesFrom,0.797227,0.8434998,-0.5559892,0.28435323,2.0305657,-1.5087227,1.2438769,0.8517693,-0.14959659,-0.1175834,-0.0154030565,-1.6304771,1.3387594,-1.1934029,-1.286129,1.2976665,-0.7400801,-1.2289035,0.10972331,-0.6065201,-0.61362886,0.04906899,0.6770745,0.823557,-0.59231704,-0.7437238,-1.9210643,0.71318394,0.42546698,1.4989842,0.8629621,0.18405549
http://iot.uni-trier.de/FTOnto#VGR_Position_Switch_3,1.06124,-0.32206723,0.38563815,-0.8469229,1.0766635,0.36697483,-0.18126781,-0.100677595,1.2191476,-0.9472902,0.1833418,-0.9324149,-1.7673256,0.96080077,-2.331422,-0.4687505,-0.33440802,-1.2799236,-0.14681025,0.845422,-0.8830828,0.092122495,0.7265871,-0.60937923,0.035920642,0.031326476,-1.5676341,-1.0039141,0.73655456,-0.21579355,0.6018368,0.15340045
http://iot.uni-trier.de/FTOnto#MPS_Position_Switch_1,0.66184056,0.6841312,-0.22735058,0.8642469,1.262344,0.039860815,1.0277238,0.16719438,1.2775578,0.1854424,0.017461495,-1.2407242,-0.9277817,0.548451,-1.242945,-0.2821092,0.952318,-2.432586,-0.96113694,0.40050045,-0.5394737,-0.9247087,1.3789709,-1.073778,0.058858413,0.28869486,-1.4367455,0.05643378,0.055953678,-0.52416444,0.69206554,0.2520335
http://iot.uni-trier.de/FTOnto#HRS_Position_Switch_7,0.18294244,0.21530418,-0.5373222,0.15489307,1.2025431,0.15296933,0.37018165,0.10691769,1.5342319,-0.5891525,0.18915732,-0.79528135,-0.6502162,0.25825185,-1.7117027,0.12803715,-0.7417227,-2.1583188,-0.4267019,0.6340851,-1.3150216,-1.1584103,0.42142522,-0.5543635,-0.6904131,0.25815454,-0.04876847,-0.46160942,0.27770254,-1.9771825,0.12114815,0.79675376
http://iot.uni-trier.de/FTOnto#actuatesVertically,-0.40285486,0.88792825,0.80009615,0.4941192,1.3176548,1.7689073,0.5983157,0.48611313,1.248576,1.4402361,-1.1451416,0.23586531,-0.21234891,1.4968171,-0.9461395,-2.3398976,-1.811748,0.22482853,-1.0245076,-0.21136741,-0.27404198,1.0087607,1.6904461,0.5072849,-0.9129546,0.5455211,-1.2202811,-1.0282739,0.9116597,-1.7313278,-0.14251587,-0.18308565
http://iot.uni-trier.de/FTOnto#HRS_Position_Switch_5,0.3125694,0.47027802,-0.274106,-0.32145426,-0.19772555,0.27613094,-0.30992123,-0.6134555,0.9687793,-0.95223063,0.18019435,-0.98495746,-0.94340336,0.70512605,-1.6787286,-1.2415044,-1.1019064,-1.9646394,-0.3581009,0.04754084,0.084046185,-0.78659177,1.123666,-0.5613937,-1.3140069,-0.35899717,-0.7471443,-0.7255513,0.9657656,-2.0408125,1.3923918,-0.6062666
http://iot.uni-trier.de/FTOnto#TooLowPressureResult,0.7835694,1.1015651,-0.81066394,0.10831936,0.911513,-0.70349616,-0.5918088,0.6399642,-0.06923126,1.2205637,0.26565036,-3.3169248,1.1493537,0.50115734,-0.093586825,-0.35427257,0.54217345,0.2846524,-0.4771723,-0.2862747,-0.16458903,-0.13395175,1.8772888,-0.4295919,-0.07336197,0.8538081,-0.78592235,-0.07956573,1.0227206,-0.899982,1.1125268,0.5737284
http://iot.uni-trier.de/FTOnto#HRS_Position_Switch_8,-0.5141468,0.2646545,-1.0438169,0.20767176,0.97836417,0.7225363,0.15890259,0.34822196,0.4104416,0.5222317,-0.09612447,-0.9320644,-0.13104291,0.44723877,-2.236711,-1.2648069,-0.38537264,-1.1874471,-0.60493994,0.034521863,-0.9407954,-0.85108143,0.44090393,-0.06451545,-0.56417567,0.68124217,-0.09517344,-1.1238288,0.47500736,-2.4752843,0.99052954,-0.7036145
http://iot.uni-trier.de/FTOnto#AccSensor_ADXL345_3,0.027235938,1.0559375,-0.31141445,1.4695063,0.26574472,-0.07217049,-0.06541263,-1.8047556,-0.25960737,-0.26310632,0.87954694,-2.3066742,0.61075485,0.09512663,-1.0122048,-0.24691235,-1.1939327,-1.364521,-1.4325808,-0.25281122,-0.82642144,-0.32135588,0.53972304,0.13865946,0.7507881,-0.13627513,0.4969029,0.43440077,1.6206412,-1.1258395,-0.17695972,-0.5567135
http://iot.uni-trier.de/FTOnto#Actuator,-0.44882053,-0.15624423,-0.26801747,0.116656385,1.6620727,1.0509529,-0.24393414,-0.09308765,-0.046511803,1.8188498,1.0956198,-1.9055378,0.49638444,1.2829845,-0.26039103,-0.21923861,-2.901923,-0.20794976,1.3868405,0.13590495,0.31301582,-0.60174865,-0.12015782,-1.0378227,0.97196335,-0.43151906,-1.9211817,-0.5514935,1.0792819,0.29692507,-0.10473179,0.9358459
http://iot.uni-trier.de/FTOnto#MPS_Position_Switch_2,0.51512784,0.6692641,0.38116193,0.44191375,0.72939914,0.029010559,0.8834483,0.008011688,1.146335,0.13966425,-0.008406118,-1.2838757,-1.1077527,1.1141049,-1.7514014,-0.17313495,0.65230805,-2.0950868,-0.97874814,0.29678303,-0.14593759,-0.43330225,1.2016634,-1.3579872,-0.278182,-0.57560396,-0.99207395,0.58829165,0.18632168,-0.3230467,0.20673636,0.27210906
http://iot.uni-trier.de/FTOnto#HRS_Position_Switch_6,0.46247205,0.19483851,-0.27558118,0.30437976,1.0787884,0.15843686,0.49940842,0.095283575,0.44868344,-0.09755357,0.8771522,-0.6124258,-0.4684466,0.47843283,-1.7529856,-0.36690232,-0.11568883,-2.0346124,-0.8488307,0.39209625,-1.0276823,-1.4480603,0.47844163,-0.38826957,-1.3147397,0.3933352,-0.57324654,-0.6975793,0.666632,-2.210573,-0.16441108,0.46854955
http://iot.uni-trier.de/FTOnto#AccSensor_ADXL345_2,0.8951912,0.25413063,-0.045259193,1.0545468,0.61413896,-1.051414,-0.3571974,-1.2231884,0.17211762,0.56333506,0.8501581,-1.2738361,-0.76791036,0.29181162,-1.0157982,0.5180331,-1.2328022,-1.3563833,-0.87578887,-0.300083,-1.5097703,-0.102481775,0.11864362,0.37839755,1.416465,-0.09438422,-1.1685897,-0.53084666,0.9998446,-1.9250302,-0.41407317,0.5576578
http://iot.uni-trier.de/FTOnto#Encoder_Motor,0.3251639,0.34600583,-0.96532404,-0.3807907,0.84925866,1.4208152,-0.05578137,-0.9232317,0.26394868,0.1569514,1.6490226,-1.4357077,0.28333738,1.7946339,-1.7417495,-0.61369735,-0.4057282,-0.16580753,0.3430902,-0.14801547,-0.61993134,2.2778285,0.90823203,-0.90655625,-0.45550427,0.1635259,-0.71873546,-0.81494564,2.2212987,-0.2797832,0.9285432,-0.49918035
http://iot.uni-trier.de/FTOnto#VGR_Vacuum_Generating_Piston,0.60689926,0.79573876,-1.3043946,-0.2328101,1.4663206,-0.23045963,-0.70065475,0.42796186,0.44243482,-0.023686672,-0.81429696,-0.38283426,-1.261109,0.14412789,-0.8341514,0.29309922,-1.0123698,-0.23797986,-0.43389988,0.28876087,-1.4531245,0.7252793,1.389867,-0.10274678,0.6826422,0.6431187,-2.5075188,-0.82812506,-0.4357841,-0.9631118,2.3169165,-0.042064466
http://iot.uni-trier.de/FTOnto#BMX055_AccSensor_VGR,0.15211026,0.05540045,-0.28305677,1.6932076,-0.438767,-0.7129998,-1.5947312,-0.35518387,0.51672924,-0.9450434,0.53746694,-2.3256423,-0.85940784,-0.2717409,-1.7378701,0.074789226,-2.763237,-0.93050295,-0.03792168,0.84552175,-0.37914816,-0.49328098,-0.59515476,1.1117634,-0.9883254,-0.5546189,-0.3429428,0.4429564,0.6278782,-0.65921843,-0.45234346,0.63816285
http://iot.uni-trier.de/FTOnto#MPS_Motor_3,-0.5078005,1.002952,0.12888783,1.4737729,1.0279509,1.2188528,-0.09858973,-0.6073079,0.008200356,0.0064143576,-0.3054955,-1.917103,0.6209073,-0.5792411,0.32733107,-0.7143193,0.033434268,-1.1035256,-1.3515605,-0.26834077,-0.075896345,-0.40122357,1.6674708,-0.5941616,-1.6783395,-0.57585347,-1.1321324,1.0236248,-0.15920767,-0.52679914,0.6478989,-0.7835462
http://iot.uni-trier.de/FTOnto#BF_Crane_Suction_Head,0.5188992,0.64814717,-0.59020567,-0.2386067,2.9259534,0.73715645,-1.3124391,0.9384728,-0.42785156,0.524642,0.095397085,-0.3610505,0.14245069,0.15200901,-1.2234105,-0.03138088,-1.317062,0.8574001,-1.1003131,-0.32020995,-0.63690203,-0.25532967,0.8819042,0.9029083,-1.2105252,-0.11420563,-0.7144549,1.1186727,-0.6266209,-0.7199534,1.5445,0.47342396
http://iot.uni-trier.de/FTOnto#HRS_Bucket_White_2,-0.09035644,0.83582765,-0.3212371,0.4758068,1.1627979,-0.05131728,0.349743,-1.0089923,0.4274803,0.529147,0.7493268,0.19648649,-0.0013446581,-1.3111277,-1.491199,-0.6406045,-1.5777662,-0.63797504,-0.72295433,0.30782858,-0.9127014,1.2624515,1.9758207,0.4736065,-0.54109144,-0.549268,-0.38524815,0.750217,0.13141856,-1.3978773,0.5262963,-0.8714859
http://iot.uni-trier.de/FTOnto#HRS_Bucket_Blue_3,-0.060066883,1.5076976,-0.5001821,0.7895023,0.3338846,-0.5383088,0.05034223,-0.5802309,0.4596726,0.58815134,-0.33874047,-0.1535803,0.30777225,-0.713639,-1.2405525,-0.6741818,-1.2370219,-0.61354053,-1.1887966,0.53945297,-1.2678993,0.879089,1.8233654,0.5625068,-0.64455533,-0.62962127,-0.21994103,0.8644491,-0.2503548,-1.5636679,-0.22284856,-0.51259565
http://iot.uni-trier.de/FTOnto#AccSensor_ADXL345_1_x-Axis,1.0380309,1.2541909,0.43218118,1.124498,0.97334117,-0.32534736,-0.26589844,-1.1731908,1.2523633,-0.3191228,0.1771554,-1.2659642,-0.2511847,0.18556498,-1.5398449,-0.21914592,-0.31040567,-0.043229073,0.9246115,-0.762597,-1.160544,-0.082957126,0.86139905,0.16699918,-0.22839002,0.8854046,-0.7442888,0.60733885,1.7007666,-1.3505528,-0.10951109,0.966634
http://iot.uni-trier.de/FTOnto#TooHighPressureResult,0.2066706,0.33172107,-0.16767214,0.8553538,0.2683142,0.27924955,-0.34886137,0.7086803,-0.48209187,1.7439319,1.0407343,-3.1163037,2.5845473,0.8327997,-0.66937715,-0.025596933,0.63302916,-0.64122266,-0.2693545,-0.092725135,-0.33045176,0.07894869,2.1205666,0.29279304,0.30959868,-0.07388492,-0.16394734,-0.26846576,0.07798849,-1.2781566,0.12037352,0.49720323
http://iot.uni-trier.de/FTOnto#BF_Door_Simple_Piston,1.780466,0.86222,0.0995678,-0.9420041,2.5296175,1.0966346,-0.39355862,-1.0901663,-0.44844726,0.033395607,0.3325426,0.24834596,-0.034406554,0.79258484,-1.5570835,0.3414837,-1.2569352,-0.5367015,0.19803269,-0.8365324,0.21669352,-1.3401685,1.2369087,0.6919567,0.07351872,-0.23443477,-1.304799,-0.42711574,0.95114625,-1.2392114,0.3192877,-1.057378
http://iot.uni-trier.de/FTOnto#BMX055_AccSensor_HBW,0.062557295,1.3634176,-0.9466487,1.0965598,0.7800549,-0.90502745,-0.8398021,-0.48880213,0.61180234,-0.76926553,0.8047711,-1.3554338,-0.8512276,-0.29638195,-0.994117,-0.13243677,-2.5825636,-2.0548446,0.121246144,0.44234648,-0.80927706,0.11833619,-1.2559795,1.4805105,-1.2143996,0.918736,-0.5599798,-0.628556,0.7152482,-0.7427661,1.4017282,-0.05732807
http://iot.uni-trier.de/FTOnto#SM_Sink_Blue,0.92286754,0.52732396,-0.38945234,0.036640156,0.37494466,-0.79381424,-1.3742049,0.610192,-0.9234825,-1.5564077,1.3920103,-0.6372502,-0.14606945,-0.67290986,-1.3918378,1.4286232,-1.604526,-0.17415658,-0.86533767,0.31584916,-0.7162013,-0.18306255,1.7082919,-0.72782797,-0.66133755,-1.6224303,-0.9287172,1.33188,0.8842875,-1.0919244,0.80537206,-0.012429911
http://iot.uni-trier.de/FTOnto#HRS_Bucket_Red_3,-0.11409317,1.2906662,-0.6729339,0.4906896,0.85279834,0.12939575,0.6937417,-0.62387806,0.3563756,1.0321416,-0.23227768,-0.13669074,0.0034679943,-0.43875688,-1.3652855,0.13522042,-1.0454274,-0.87638915,-0.6536803,0.8359505,-0.87293816,0.57079655,1.6498017,1.103776,-0.6938184,0.10713807,-0.22527125,0.8736369,-0.27842125,-1.8396018,0.17721121,-0.38297728
http://iot.uni-trier.de/FTOnto#AccSensor_ADXL345_1_z-Axis,1.0242682,0.7212493,-0.28283602,1.7606833,0.5734365,-0.502789,-0.4218376,-1.45948,1.6997627,-0.38622707,0.09178379,-1.9866368,-0.3405547,0.10627939,-0.7567659,-1.1330054,-0.35309878,-0.1791421,-0.07681489,-0.15086372,-0.60246265,-0.13743664,0.96734375,0.015839018,0.17230181,0.5410692,-0.79509544,0.020365603,1.5307556,-0.943495,0.49092788,0.6924046
http://iot.uni-trier.de/FTOnto#MPS_Turntable,0.1299971,1.6868875,-0.7247975,0.06907802,1.1910552,0.48133558,0.6488707,-0.40320534,1.2736746,-0.5231829,0.4060419,-0.52356184,0.13483424,0.13114794,-0.95024353,0.1305213,0.7997584,-0.5353233,-0.5962714,0.13696292,-0.98845595,1.2252609,3.238144,-0.44572476,-0.6357691,0.18766549,-1.5329007,1.6018285,-0.29404265,0.031665992,0.7818482,0.81013393
http://iot.uni-trier.de/FTOnto#HRS_Motor_1,-0.39373496,-0.032667194,-0.2718051,0.6601559,1.2132393,0.3251391,-1.7894335,0.19408384,0.16829257,-0.5420832,0.35120147,-0.8672202,0.50211394,-1.5085007,-0.50440866,-1.2429916,-1.6138333,-0.39718366,-1.1044245,0.15293643,-0.51189256,-0.36378068,1.1983155,-0.15492997,-2.514347,0.17250603,-0.97207177,-0.007092556,-0.2942907,-1.7608973,-0.066509336,-0.56283903
http://iot.uni-trier.de/FTOnto#HRS_Bucket_Red_2,-0.61805195,1.2380809,-0.28724307,0.255538,0.72879636,-0.5429892,0.16895647,-0.26323652,0.284711,0.9168232,0.40576047,-0.16586319,0.07679116,-0.6111399,-1.5208957,-0.08601624,-0.9681716,-0.94600374,-1.2188133,0.17034857,-0.62301284,0.7421539,1.392157,0.21771313,-0.62866426,-0.50245374,-0.42458597,1.4787889,-0.47209585,-1.3023828,-0.5923954,-0.33195385
http://iot.uni-trier.de/FTOnto#AccSensor_ADXL345_4,1.094437,0.8394213,0.3886122,1.5808942,-0.28120026,-0.43595716,0.34257224,-1.0171595,0.5718507,0.5316709,0.58251655,-1.7697147,-0.09567567,0.06643069,-1.804161,0.082314655,-0.55455285,-1.4026647,-0.257732,0.6151568,-1.4801401,1.4528059,0.9997844,0.787756,0.32408682,-0.25327933,0.20450163,-0.614974,0.98586494,-0.6910962,0.45255408,0.28660846
http://iot.uni-trier.de/FTOnto#HRS_Bucket_Blue_2,-0.34905538,1.0119313,-0.51597184,0.3577598,0.9171285,-0.14848462,0.27034977,-0.59728366,0.09076038,1.0536858,0.34158424,-0.43145248,0.44879022,-0.87645227,-0.72946185,-0.15151496,-0.81236553,-0.76125616,-1.4166936,0.29223892,-0.94799584,0.9441288,2.1790168,0.69289,-0.22599849,-0.47629756,-0.24544534,0.91315484,-0.31879994,-1.6064821,0.1945774,-0.5404614
http://iot.uni-trier.de/FTOnto#HRS_Bucket_Blue_1,-0.31790268,0.93666524,-0.18459417,-0.29075715,1.0058298,-0.17071117,0.23682052,-0.93772584,0.074849404,0.7606066,0.84147036,0.01627193,-0.40187192,-0.6782389,-1.2594265,-0.5446021,-1.1522214,-1.0570326,-0.9669659,0.5003098,-0.73096806,0.8388977,1.6066452,1.0296208,-0.70995796,-0.5816917,-0.7846247,1.011253,0.21737354,-1.0362884,-0.24708612,-0.72864395
http://iot.uni-trier.de/FTOnto#HRS_Bucket_White_3,-0.11018273,1.0035497,-0.4274314,0.5017765,1.0213087,-0.22396176,0.47557455,-0.59207284,0.5382274,0.72348654,0.782738,0.43464938,-0.014923091,-0.56887394,-1.2104133,-0.4504052,-1.183815,-1.1989834,-1.2315028,0.4994273,-1.1198382,0.9910009,1.297075,0.9312459,-1.4240998,-0.70150054,-0.61513317,0.63215005,-0.6096416,-1.1467755,-0.021429483,0.22170126
http://iot.uni-trier.de/FTOnto#AccSensor_ADXL345_1_y-Axis,0.6092834,1.3786381,0.38463053,1.5387884,0.6783349,0.008568053,-0.34909132,-1.4107658,1.0727556,0.6151009,0.434306,-1.4449261,-0.3872141,0.790039,-1.9012738,-0.49237135,-0.1484013,-0.07840019,0.29161006,-0.8218274,-0.447058,0.08541311,0.29650718,0.23100723,-0.08759734,0.5631502,-0.41084868,0.3836394,1.4605191,-0.6576181,0.046889205,0.9439426
http://iot.uni-trier.de/FTOnto#HRS_Bucket_Red_1,0.048717584,1.2286242,0.018202707,0.21985589,0.40381444,-0.5256253,0.35641107,-0.6412369,0.45129493,0.7109144,0.61831915,-0.045882802,0.0018140035,-0.6182447,-0.98304784,0.5506294,-0.9403545,-0.94686973,-1.0289191,0.26214743,-0.9628925,1.2431023,1.8249819,0.509983,-0.86132354,-0.2795879,-0.67688864,1.1140406,-0.40685412,-1.8897966,0.38928786,0.05513814
http://iot.uni-trier.de/FTOnto#BF_Door,-0.17412326,1.1185541,-1.4269282,0.32728818,2.0983999,1.5408618,-1.1117771,0.22070658,-0.9876581,0.7025167,0.4653919,0.96571946,0.95143694,0.12802011,-2.4539742,-0.70969945,-1.5488521,-0.055728883,0.27997136,-0.7748884,-0.99239224,-0.54519075,1.5079415,1.596422,0.058255997,-0.625741,-0.5829032,-0.38934618,0.3064803,-0.19551446,0.48291212,-0.9140839
http://iot.uni-trier.de/FTOnto#actuatesHorizontallyForwardBackward,0.47931284,0.7285627,1.8865061,0.022033123,1.8345127,0.90734607,0.63281703,-0.77296674,2.070314,-0.03272838,-0.61604464,-0.35162586,-0.6446635,0.13719186,-0.6946554,-1.0090578,-1.4250482,0.05682129,-0.15151368,1.4298002,-1.6258473,1.0506955,2.1493392,0.027632346,-0.85355777,-0.04499,-0.8176157,-1.0167872,0.76848036,-1.5965749,-0.86652863,1.4416181
http://iot.uni-trier.de/FTOnto#Milling_Service,0.6344131,1.6267272,0.8505186,3.0100017,0.7540946,0.85937107,-1.8690242,-0.15732655,1.0408819,0.123538695,0.51875407,-0.5478597,0.4043117,0.86093587,-0.81869835,-0.12411346,-0.63826287,0.23190175,-0.85665345,1.0351939,0.14425933,0.099309,0.14080803,0.88270414,-1.6407241,-1.3942156,-0.9479605,1.9954737,-0.26756513,0.35266784,1.137578,1.2701577
http://iot.uni-trier.de/FTOnto#SM_Sink_Red,1.9306803,0.6155807,0.65187144,-0.26997015,-0.0655216,-0.25075027,-2.102584,1.4310524,-0.6081198,-1.4056098,0.05126649,-0.26961833,0.48150328,0.8938027,-1.3553288,1.3145903,-1.3358451,-0.23531848,-0.42926446,0.59747165,-0.9964076,0.1326216,1.4404563,-0.23892762,-1.0668235,-1.6174204,-0.95644206,-0.017880676,0.147007,-1.1970397,0.10261898,-0.16143775
http://iot.uni-trier.de/FTOnto#MachineController,-0.1967902,-1.132263,0.2654437,1.4944891,0.96373713,1.4260044,-0.46456885,-0.099619195,0.40204865,0.73180795,1.5141882,-0.65897536,0.11176644,0.53179175,-0.50583935,-1.0070888,-1.0719539,-1.5125096,-0.62708056,1.4453008,-0.3945256,0.76255596,0.5761637,-1.2215484,-0.38959864,0.018355269,-1.0587307,0.46414492,0.91704196,-0.7844658,0.7206079,-0.992668
http://iot.uni-trier.de/FTOnto#ColorSensor,-0.9451621,0.8688318,-0.2653371,-0.47743368,0.72228396,0.81944287,-0.64843655,1.0132666,0.5918523,0.6144488,0.5770342,-2.2971246,1.5953797,-0.073751725,-0.21974815,0.0433864,-0.863752,-1.0496186,0.43497175,-0.00021037199,-0.94362354,0.15279406,-0.37905833,-1.6479069,-0.4746942,-0.56778526,-0.98376936,1.8402419,0.9044484,-0.4355979,0.9437751,-0.33845285
http://iot.uni-trier.de/FTOnto#MPS_Ejector,2.281603,0.93456745,-0.03313807,0.7551206,1.6929932,0.137521,-0.051357348,-0.43264458,0.11346151,0.16404279,-1.0170771,-0.89381915,-0.5988057,0.33762166,0.5366331,1.1174233,-0.42126906,-1.2962075,-0.8714431,0.7558775,-0.22673617,-0.52606875,2.660378,-0.07377851,-0.6804601,-0.15173842,-1.8613275,-0.29035258,-0.15003443,-0.6532393,1.0424155,-0.055201884
http://iot.uni-trier.de/FTOnto#VGR_Compressor_7_SSCMRRN03PD2A3_Result_2019-02-26_14_53_45.12,0.45788133,0.77386695,-0.7976554,1.0568537,0.95938504,-0.47914287,-1.469022,-0.06450816,1.6233414,-1.5501069,0.25048843,-0.36315167,1.2790761,-0.6648128,-1.6449258,0.11868712,-0.46035972,-0.48127225,0.43339136,1.1536163,-2.0732589,-0.412834,0.2029184,-0.24389352,0.038520567,1.0421865,-1.4139012,-0.17598611,-0.70171195,-1.0192819,0.40779248,0.76304626
http://iot.uni-trier.de/FTOnto#NormalPressureResult,-0.47322878,0.60658395,-1.5395794,0.28896484,0.9299812,0.71430296,-0.5236459,0.22100352,0.014658935,0.27494025,1.7647544,-2.2129798,2.2105837,-0.44161186,-0.53847843,0.89948666,-1.1971697,-0.60434103,0.88616765,-0.45619875,-0.5024452,-1.1463022,0.78048736,0.62426054,-0.52253914,0.79590094,-0.29753283,-0.7063624,0.36855274,-1.4038849,0.215775,0.98711485
http://iot.uni-trier.de/FTOnto#NormalPressureObservation,0.24123268,0.90127194,0.14753774,0.7661625,1.0104674,-1.3817347,-0.14339904,0.37135664,-0.42243436,1.3690968,2.7047894,-0.80972457,0.7349279,0.2799627,-0.4798493,0.007777138,-1.0903773,-0.4240271,1.0062298,-0.84388196,0.55555815,0.46483988,0.483784,-0.024286035,0.47616118,-0.8999933,-1.3428173,1.3786656,1.4927615,-1.5536066,1.0563039,-0.34500903
http://iot.uni-trier.de/FTOnto#VGR_Compressor_7_SSCMRRN03PD2A3_Result_2019-02-26_14_55_06.02,-0.26893735,1.3394198,-1.8785746,0.64284766,1.1503555,0.024467457,-1.5160048,1.3628668,0.36930373,-1.0369353,0.7028738,-0.3482113,1.9084893,1.1351216,-0.64270234,0.086142346,0.5280482,-0.21434887,-0.8931182,0.89106125,-0.9312978,0.5324864,0.76424456,-0.64229435,-1.3144361,0.7156152,-0.5871943,-0.43818682,-0.22082126,-0.9437091,0.5874362,-0.23472653
http://iot.uni-trier.de/FTOnto#VGR_Compressor_7_SSCMRRN03PD2A3_Result_2019-02-26_14_54_24.18,0.2104093,1.6651427,-1.9821007,0.9981425,1.2362566,-0.8622408,-1.9185838,0.26155862,-0.4266951,-0.58781284,1.1796948,-0.53060436,2.0589886,0.16133648,-2.0273993,0.7149505,0.12885253,-0.4966674,-0.025267757,0.048239417,-1.4494702,-0.8153691,-0.3637651,-0.04176825,-0.5392894,0.6105095,-1.1732773,-0.098979115,-0.11702479,-0.22952102,0.43354207,0.43016717
http://iot.uni-trier.de/FTOnto#Compressor,1.1098818,0.06667808,0.2454873,0.010165542,1.1577468,-0.5456564,-1.1947209,-0.08240898,-0.018750092,0.88696194,1.4450191,-0.46076208,0.15879646,1.2779816,-0.13403384,-0.3461771,-1.20105,-1.4074779,-0.12607098,-1.2094065,-0.030590814,0.33908963,-0.42476076,-0.80566794,-1.2482452,0.10010098,-2.954955,0.53674823,0.5112431,-1.039855,0.7246672,0.08226673
http://iot.uni-trier.de/FTOnto#VGR_Compressor_7_SSCMRRN03PD2A3_Result_2019-02-26_14_54_13.76,1.1041769,1.1079681,-1.4309071,1.405304,1.2429192,-0.40322652,-0.7577876,0.00794433,1.2822949,-0.70182043,1.0144182,0.33610788,1.9152914,0.17064151,-0.73201364,0.70684206,-0.30077228,-0.7167628,-0.035076402,0.29517117,-0.6700183,-0.59748703,1.9795868,0.2793582,0.049098834,1.1122022,-0.34510723,0.54526764,0.2057091,-0.89294875,0.40800363,0.7349083
http://iot.uni-trier.de/FTOnto#VGR_Compressor_7_SSCMRRN03PD2A3_Result_2019-02-26_14_53_54.97,-0.08527444,1.6082052,-0.777637,1.561348,0.01590662,0.8594104,-2.9634783,-0.22222453,0.650895,-1.199272,0.090257406,-1.2569768,2.3924544,0.8952206,-0.5426017,0.7247464,-0.3491618,-0.29165542,0.6382558,0.27125627,-0.96820855,-0.4108699,0.8090647,0.30549175,-0.11699848,0.2905946,-1.0438411,-0.3176731,-0.148707,-0.120523736,-0.13429736,0.22185014
http://iot.uni-trier.de/FTOnto#VGR_Compressor_7_SSCMRRN03PD2A3,1.5372242,0.8965756,0.50581545,2.655852,0.14263189,-0.2821512,-0.4825694,0.6874434,0.21754539,0.8466735,0.7170957,-0.21710336,0.3830706,1.0714184,-1.4738784,-0.44228405,-0.5425011,-0.043993503,0.029477688,-0.8345526,-0.6657014,0.45777163,0.17228967,0.6266305,-1.0814016,-0.92032015,-0.9808109,-0.71115154,0.824341,-1.8641573,-0.7828322,0.20869368
http://iot.uni-trier.de/FTOnto#AbnormalYAccelerationResult,-0.61434895,-0.046538472,0.17888747,0.008182132,0.35280615,1.0831615,-1.0417446,0.23582931,-0.4997849,1.2348953,1.4933807,-2.1983988,0.34801435,0.45227695,-1.099724,1.1527601,-1.0788323,-0.55973256,-0.21324798,1.1130011,0.42130634,-0.005824805,2.362012,-0.7175677,0.31161675,0.037479535,-0.62288475,0.56602263,-0.087720774,0.5673616,-0.09908701,1.4563903
http://iot.uni-trier.de/FTOnto#VGR_Compressor_7_SSCMRRN03PD2A3_Result_2019-02-26_14_54_55.58,-0.46763885,1.3547184,-1.3854743,1.6085963,0.12068264,0.93473893,-1.9390597,0.023531314,0.96474063,-0.23467514,-0.012697921,-0.018840326,1.5233744,0.6773828,-1.3213532,-0.3383211,-0.42736205,0.5086801,0.3245282,0.08953697,-0.74119556,-0.2348332,1.6691716,-0.22265115,-0.2730002,1.4997463,-1.4060794,-0.2863064,-0.43191424,-1.7451736,0.6349769,0.13647774
http://iot.uni-trier.de/FTOnto#VGR_Compressor_7_SSCMRRN03PD2A3_Result_2019-02-26_14_54_45.25,-0.06981767,0.6222748,-1.1209967,0.61176604,1.3077928,0.11114493,-2.1179872,0.4458954,2.0499747,-1.4150031,0.6796135,-0.7374451,2.487427,0.46327347,-1.0979582,0.097059675,-1.0869976,-0.14569241,-0.22931188,0.16957025,-0.46217987,0.11739453,0.5900957,-0.3953266,-0.32992494,0.33448792,0.41812032,0.4241612,-0.49382278,-1.4412149,-0.54979783,-0.011905599
http://iot.uni-trier.de/FTOnto#BMX055AccelerationSensor,-0.18473452,0.2217287,-0.59279597,0.85968286,-0.1441841,1.0802811,-0.85968965,0.84038454,-0.60047144,-0.008518354,0.7661879,-2.922321,0.4065345,0.27135283,-0.79528326,1.2483082,-0.4859977,-1.6103354,0.53144354,2.2816465,-1.4434463,0.13748643,0.09813541,0.19098431,-0.53568065,0.26077628,-0.8592328,0.57006806,0.79558575,0.08470521,1.8867699,0.46450534
http://iot.uni-trier.de/FTOnto#VGR_Compressor_7_SSCMRRN03PD2A3_Result_2019-02-26_14_54_03.56,-0.22686401,1.3888205,-0.9991572,1.1878378,0.6810435,1.0085709,-0.47600436,0.5061783,0.9282919,-1.7290835,0.35489014,-0.44785252,1.732909,0.5408995,-0.7270155,0.8591706,0.7244808,-1.1066043,0.9515702,1.1042088,-1.5892358,-0.16376258,0.4274733,-0.09452202,-0.3668546,0.62760323,-1.5062753,-0.044523757,-0.16022275,-0.7041643,0.76420397,-0.18812867
http://iot.uni-trier.de/FTOnto#hasOperationPosition,1.0172021,0.9233649,0.71201414,0.8777825,0.8800601,-1.0389096,-1.4941632,-1.5124758,1.0635227,0.51726073,-0.49998882,-0.79183114,0.9145725,-0.6473831,-0.3893857,0.4064346,-0.6786707,-1.1826264,-1.0750571,1.2048864,0.36332515,1.0212777,0.9497421,2.5485342,-0.7552826,-0.06023101,-1.5904876,-0.8073468,1.1018813,0.42924652,-0.038903795,0.7752048
http://iot.uni-trier.de/FTOnto#VGR_Compressor_7_SSCMRRN03PD2A3_Result_2019-02-26_14_55_16.45,1.3314267,1.1591654,-1.4842007,0.29199323,0.50652426,-0.37986258,-2.279198,-0.028287172,0.7824571,-0.6959246,0.72589433,-0.16647108,2.2384586,1.1105839,-1.832528,0.36504197,-0.9008514,-0.29052013,0.29200578,-0.34199712,-0.85630643,0.17114794,0.23427372,0.49496046,0.27983168,0.6195559,-1.4479309,-1.6175557,-0.500947,-1.0360516,-0.03390129,-0.117685586
http://iot.uni-trier.de/FTOnto#VGR_Compressor_7_SSCMRRN03PD2A3_Result_2019-02-26_14_54_34.67,0.6549616,0.8293679,-0.6795618,1.0010228,1.0252078,-0.08406262,-1.8998007,0.8011754,-0.41905606,-1.0565718,0.46094,-0.8713204,1.894992,0.45088682,-1.442377,0.7211942,0.21669182,0.29613605,-0.3415622,0.71105427,-1.8886685,-0.9702286,1.4390769,-0.24388066,0.17694028,1.2276083,-0.30251348,0.6319618,0.80677104,-1.2710915,-0.4445433,0.29713586
http://iot.uni-trier.de/FTOnto#VGR_Compressor_7_SSCMRRN03PD2A3_Result_2019-02-26_14_55_26.44,0.7003642,0.829006,-0.57224256,0.19708994,1.3459029,0.4006189,-2.0699055,0.5219893,0.9205443,-1.4455867,0.68726707,-0.36341375,2.5900297,0.8925246,-1.2196577,0.85808176,0.60899466,-0.42949745,0.5129849,0.62842876,-1.7990788,0.05120888,0.66004986,-0.12078592,-0.053617828,-0.9832288,-0.2231937,-0.5664907,0.061159704,-0.08258748,-0.5215385,0.47193623
http://iot.uni-trier.de/FTOnto#AbnormalXAccelerationResult,-0.90382177,0.046477705,0.2566108,-0.058230694,1.2038516,1.0868248,0.3546178,1.0081681,-0.62640494,1.951796,1.7110956,-1.6850702,0.88085824,-0.012990234,-0.6668904,0.21700196,-0.6181689,-0.07696961,-0.042291302,-0.01768635,0.24802835,-0.30373907,1.9216204,-1.1761596,-0.24405746,0.38354892,-1.6778541,1.3457717,0.116796635,-1.1906141,0.064962886,0.5575257
http://iot.uni-trier.de/FTOnto#AbnormalZAccelerationResult,-0.52158743,-0.19966182,-0.693602,1.3747934,0.66577244,0.001830442,-1.373653,1.6930478,-0.39945513,2.013996,1.0408105,-2.1287003,0.072972834,-0.33446154,-0.6611641,0.6101905,-1.1666874,-0.13983104,-0.07753044,0.5873507,0.79679614,-0.530653,2.1696444,-0.6621218,-0.49718365,-0.89640105,-0.58461803,0.40063396,-0.0096496,-0.59332895,-0.21625696,0.78506577
http://iot.uni-trier.de/FTOnto#Ejector,1.1194822,-0.4240365,-0.031269524,0.02594123,0.97820693,0.19116417,-1.9601965,-0.2896785,0.5312778,-0.32882282,0.8610721,-0.41239658,0.66848,0.80610317,-0.098347425,0.8540346,-2.9702764,-0.7450161,-0.43552646,0.85100573,-0.4640735,1.9884062,1.0741303,-0.2656659,-0.21123554,0.08373943,-1.1339043,0.7797273,-0.15902331,0.22768576,0.5909264,-0.18496636
http://iot.uni-trier.de/FTOnto#isActuatedVerticallyBy,-0.96959174,0.8887441,0.15706046,0.7936833,1.2489593,1.3134445,1.6624475,-0.041929733,-1.1398429,0.7350279,0.08254494,0.20310842,0.7353137,0.7225295,-2.3891308,-0.31196845,-1.1358436,0.71541876,-1.1346444,-0.8050196,0.5436461,0.95968133,1.3082812,0.6476283,0.13288912,0.21486883,-0.8203963,0.89682,1.697887,-1.365487,0.7604359,0.055526678
http://iot.uni-trier.de/FTOnto#NormalAccelerationResult,-0.6466756,-0.12298488,-1.4094515,-1.0409868,0.42188746,-0.6490105,-0.4197604,-0.077601306,0.102649644,0.359284,2.1394522,-1.8970962,0.91254354,0.14973797,-0.33643252,-0.25485814,0.27009693,-1.2393466,1.2007153,-0.25385886,-0.22484231,-0.03817241,1.9797484,0.015074162,0.7064068,-0.5586013,-2.8020477,-0.6090875,0.76292956,-1.5331714,-0.5987647,0.114496455
http://iot.uni-trier.de/FTOnto#NormalAccelerationObservation,0.024898607,1.5436674,-0.7301568,-0.12404149,2.180067,-0.361977,-0.6325217,-0.50192434,0.43255967,0.7916725,1.3770983,-1.6053853,0.64203227,0.94180304,-0.59877217,0.07888443,-1.3831339,0.33550122,1.6858597,-1.0384618,0.5356922,0.50763565,-0.0041919504,0.4908041,0.950717,0.72818035,-1.1872845,0.5000657,1.1070693,0.117818855,1.5836676,0.2855085
http://iot.uni-trier.de/FTOnto#SM_Compressor_8_SSCMRRN03PD2A3,1.8587862,0.91802925,0.5411765,1.9025948,0.47804642,-0.81741065,-0.25464392,0.14630093,0.7172347,0.40942073,0.15654294,-0.5939416,-0.41874665,0.62896717,-0.6776728,0.36623505,-1.2290838,-1.147022,0.53069335,0.0062314384,-1.4667054,0.7764795,-0.45900267,1.4814214,-0.19678012,-1.2143714,-1.5757006,-1.1718181,0.516818,-2.0300355,-0.626283,0.059024718
http://iot.uni-trier.de/FTOnto#VGR_Compressor_7_SSCMRRN03PD2A3_Result_2019-02-26_14_55_36.51,-0.094672896,0.83169544,-1.2425724,0.5634474,1.0195894,0.9968366,-1.2622586,-0.30326635,1.8369284,-0.82923436,0.8562559,0.040772025,2.0902991,1.2203381,-1.8236996,-0.5014398,-0.32975933,-1.6219573,-0.15047221,0.70737195,-0.7052255,-0.3968363,0.32139105,0.4079351,-0.5028303,1.1322972,-0.095279016,-0.8168761,-0.62347806,0.030496536,0.5745026,0.34011763
http://iot.uni-trier.de/FTOnto#MPS_Compressor_8_SSCMRRN03PD2A3,1.3503677,1.4099321,0.43152058,2.2944405,1.0834024,0.21837114,0.16003744,0.116138764,0.36175144,0.60167783,1.8405385,-0.24555773,-0.1469962,0.43883437,-2.1938183,0.65619236,-0.81529427,-1.134233,0.72298384,-0.3385891,-1.0473709,0.6528352,-1.0479796,1.0857472,-0.8634885,-0.194775,-0.9141856,-1.3151283,0.7088013,-0.49756175,-0.36628598,0.75266063
http://iot.uni-trier.de/FTOnto#BF_Lamp_8,-0.18819518,0.20710784,0.20846596,0.15889347,2.314229,1.7642381,-1.5430707,1.0172338,-0.9667865,0.24416414,1.5419259,-0.039114088,0.14409196,0.18963957,-1.7777859,-0.6051437,-0.5031361,-0.6087984,-0.99982387,-0.5547896,-0.33339965,0.095742665,0.50800604,-0.3798037,-1.1666877,-0.4005738,-2.132399,-0.7906297,-0.55940497,0.638432,0.089697756,-0.94970727
http://iot.uni-trier.de/FTOnto#Piston,1.2060047,0.18239132,-0.26072392,0.0991225,0.8257559,0.34655732,-0.9629397,-0.48847857,-0.051410437,0.91198075,0.02067785,-1.7356058,0.40746424,1.1621102,-0.57540864,-0.2720325,-2.5080373,-0.44763377,-0.20256765,1.5259553,0.715664,-0.091406755,1.13034,0.012173099,-0.39237496,1.3469381,0.17066704,-0.6102033,0.7335791,-1.2453521,1.302343,-0.16693969
http://iot.uni-trier.de/FTOnto#CraneJib,1.0065494,0.044949114,-0.18244952,0.30479357,1.3765,0.7036202,-0.8812744,-1.0947186,0.48249882,1.687262,-0.7573049,-1.8465441,-0.03438844,1.2311833,-0.82600164,-0.9655509,-1.9755899,0.88076013,0.036468875,-0.009931128,-0.007125629,1.2074542,1.5354536,0.649664,-0.95387965,-0.21810287,-0.43956304,0.90211403,0.82808536,-1.0656646,0.13846654,-0.09040355
