http://www.w3.org/1999/02/22-rdf-syntax-ns#type,-0.2667991,0.055891443,-1.0168396,0.020838596,0.48347422,0.5456438,0.13632601,-0.558758,0.5410332,0.51509863,-0.069516845,0.019182239,-0.1739712,0.41586265,0.09085437,-0.40002757
http://www.w3.org/2000/01/rdf-schema#comment,-0.37425396,0.25771698,-0.7495897,-0.22902112,0.29276845,0.42443162,-0.13416988,-0.64582056,0.6674893,0.41310322,-0.3601472,-0.051941592,-0.41290274,0.27287763,0.1828496,-0.33858714
http://www.w3.org/2000/01/rdf-schema#subClassOf,-0.30891705,0.6082637,-1.9221255,-0.42779016,0.70243347,0.9745601,0.113483235,0.30067152,0.8574094,1.0757891,0.20703968,-0.4147459,-0.17389981,0.33379346,0.07020106,-0.34584185
http://iot.uni-trier.de/FTOnto#hasComponent,0.12404678,-0.35299265,-0.8066742,-0.046343792,0.39299884,0.3201909,-0.9571519,-2.0645087,1.0241195,0.3379926,0.13295783,0.19367635,-0.5053053,0.8991273,-0.046108726,-0.8550201
http://www.w3.org/2000/01/rdf-schema#label,-0.32812575,0.35216498,-1.5071504,-0.25992727,0.6777144,0.790033,0.15192057,0.028683666,0.8585517,0.9446904,0.0054908595,-0.25514627,-0.29291975,0.30119145,0.13695097,-0.39515996
http://www.w3.org/ns/sosa/observes,-0.731359,1.4114709,0.13110144,-0.90155405,0.7080223,0.7426846,1.8503627,-2.825732,1.4723679,-0.12314493,0.36835608,1.08071,-1.3223274,0.96902305,1.0219086,-1.3297428
http://www.w3.org/ns/sosa/madeBySensor,0.91932166,-0.02918622,-0.58222115,-0.5515701,2.2090065,0.6201642,1.8545845,-1.1884093,0.7905749,-0.75570065,-0.0031406349,1.194594,-1.6400912,0.8684178,-2.63648,-0.64802426
http://www.w3.org/ns/sosa/hasFeatureOfInterest,-0.17468828,-0.7105832,-0.6610093,-1.0663308,1.7455198,1.0710974,0.44106978,-1.8688718,0.3825247,-1.2770505,0.8827346,1.0572394,-2.8149757,-1.5017023,-2.4178708,-0.3570795
http://iot.uni-trier.de/FTOnto#getsInputFrom,1.1152605,0.715655,-1.1686958,-0.9538061,-0.41938773,0.14047916,0.051456727,-2.8176646,1.9457471,0.9082141,1.5319895,1.334939,-0.76896423,1.0166904,0.18405724,-0.49878103
http://iot.uni-trier.de/FTOnto#FT_HighRackStorage,0.5264482,2.010865,-0.36520553,-2.0178046,-0.6921079,0.7635398,-0.89156854,-1.3848372,1.6161366,1.0317602,0.58201474,-0.149824,-1.835602,-0.2088461,-1.858978,-2.2801187
http://iot.uni-trier.de/FTOnto#controls,0.20411882,-1.046886,-0.87721413,-1.7531147,-0.084049225,0.92391634,-0.3130076,-2.6752346,0.9459444,0.96362495,0.15939368,-0.22946925,-1.1309818,-1.2948215,1.2159169,-1.2191311
http://iot.uni-trier.de/FTOnto#FT_SortingMachine,0.24333161,0.94734055,-1.1876593,-1.877232,-1.1420374,-0.061184525,-1.2169827,-1.8235502,1.3031988,1.844612,-0.3680413,-0.6761222,-2.5732865,0.7208081,-1.4614416,0.7085163
http://www.w3.org/ns/sosa/isHostedBy,-0.25808582,1.5370053,-0.38773245,-1.3790585,1.9541447,-0.12260877,-0.84557277,-1.854951,0.46547902,1.6579695,-0.06270129,1.4221435,-2.4604397,-0.058076356,0.11865864,0.04995169
http://iot.uni-trier.de/FTOnto#FT_BlastFurnace,0.47023332,0.13102624,0.37977618,-0.4787997,-0.3881558,2.4914005,-2.787003,-1.3136505,2.2248945,0.86919075,0.74088264,-0.36221027,-1.4871415,-0.4362613,-0.6989384,0.6603515
http://www.w3.org/ns/sosa/isResultOf,-0.5090114,-0.9057311,-1.0357893,-0.59562254,2.4748344,2.776871,-0.50071156,-0.3413562,-0.46368018,-0.664729,-0.26946548,-0.091856144,-3.5717785,0.15117288,-0.989467,1.2861077
http://iot.uni-trier.de/FTOnto#isComponentOf,1.1945754,-0.5975347,-1.9810876,0.26065475,1.8066673,0.25092873,-0.48726106,-1.9531271,1.9476265,0.65933853,1.332375,-0.54661876,0.19894718,1.9219431,1.1313517,-1.1211814
http://iot.uni-trier.de/FTOnto#FT_MultiProcessingStation,-0.20007227,1.158761,-0.2911064,-1.8361131,-0.56319916,1.9267021,-2.8956835,-0.9728886,0.640761,1.7262379,0.721092,1.303369,-2.5872586,1.2289176,0.7686945,-0.5390884
http://www.w3.org/ns/sosa/observedProperty,-0.45606038,0.20213285,-1.4221929,-0.47263983,1.5161744,1.0877911,0.9201674,-1.1465436,-0.13735208,-0.9169362,1.2761204,0.786736,-2.2241647,0.21185616,-2.6127775,-0.3759295
http://www.w3.org/2002/07/owl#equivalentClass,0.052610494,3.0645452,-3.0350544,-0.898729,0.035743933,1.761187,-2.264419,0.10923928,0.057502363,0.06639139,0.37000588,-1.5323732,-0.8757122,-0.3649545,0.47772357,0.0794926
http://iot.uni-trier.de/FTOnto#isCalibratedBy,1.7274694,-0.77858496,-2.1198485,0.54927933,1.0233451,0.5586549,-0.4145275,-2.668027,0.607615,-0.06292985,1.3624012,1.0731444,-1.2889419,-1.0020689,0.85071963,-1.5960833
http://iot.uni-trier.de/FTOnto#isConnectedTo,0.63355887,-2.6329944,-1.2328148,-1.8993945,1.6903892,0.71234107,0.0017682243,-2.486401,0.5984565,0.8885336,0.79634833,0.33923897,-0.89056224,-0.19406849,0.44548428,-0.4854562
http://iot.uni-trier.de/FTOnto#SM_Machine_Controller,0.8032944,-0.689503,-1.8428922,-0.023917565,-1.5843221,0.70765126,-0.3197173,-2.833117,0.014389299,1.6911888,0.31197578,-0.20985158,-2.1469457,0.4383868,-1.4152691,0.6031996
http://iot.uni-trier.de/FTOnto#FT_VacuumSuctionGripper,-1.3354957,1.0852717,-1.3199456,-2.0912874,-0.00777608,0.8687761,-2.2869334,-1.6643016,0.7961474,-0.50013125,1.4335191,-0.00153225,-1.7190778,-0.83973664,-1.7289255,-0.68850154
http://iot.uni-trier.de/FTOnto#transports,2.9729576,0.24993108,-0.3595499,-0.7015055,2.3862274,-0.03058275,-1.9500695,-2.0355017,0.97307545,-0.2520369,0.63878155,-0.39780453,-1.5934156,1.5323802,-0.8902075,-2.3186007
http://iot.uni-trier.de/FTOnto#BF_Machine_Controller,1.3241017,-1.422831,-0.49832243,0.86568195,-1.2400428,2.7564492,-1.384536,-2.3069544,1.0292108,0.9243719,1.0845268,0.72747666,-1.3702654,-0.23014535,-0.7635602,0.65300673
http://iot.uni-trier.de/FTOnto#MPS_Machine_Controller,0.45262876,-0.52691907,-1.0349348,-0.2846303,-1.1194118,2.7865844,-1.9506918,-2.0179865,-0.3068913,1.9984783,1.707916,1.7631586,-2.1610162,0.4920898,0.2155234,-0.6585085
http://iot.uni-trier.de/FTOnto#HRS_Machine_Controller,1.1798872,0.559803,-1.4252887,0.17327365,-1.4359188,2.0182726,-1.2440338,-2.6110692,0.19016261,1.5613631,1.628289,0.14314234,-1.5964657,-1.0179037,-2.3246732,-2.3263636
http://iot.uni-trier.de/FTOnto#HRS_Conveyor_Belt,0.6321757,1.5640416,-0.62729317,-1.8422666,0.042734917,1.2493417,-0.16571687,-2.0568273,-0.3275867,1.7223047,-0.24385338,-0.94205093,-0.6566765,1.896609,-2.6607533,-2.7594984
http://iot.uni-trier.de/FTOnto#regulates,0.7781961,-1.4822987,-0.74340653,-2.1326115,1.503153,0.40860802,-2.3062537,-2.2599196,1.386849,0.20995232,0.6994606,-0.4257937,-0.9011726,0.8845133,0.50865954,0.8569627
http://iot.uni-trier.de/FTOnto#VGR_Machine_Controller,-0.759519,-0.37232515,-2.064909,-0.2962901,-0.42063963,1.7282434,-1.7349027,-2.4636843,-0.4783357,-0.07426526,2.274978,0.66655236,-1.1410094,-0.96710086,-1.6762414,-0.54150516
http://iot.uni-trier.de/FTOnto#HRS_Crane_Jib,0.62505025,0.9461186,0.31503212,-2.4703836,0.48194528,2.3451388,-0.5868303,-1.2809618,0.52004766,1.2290142,-0.30720016,-0.44409153,0.21253648,0.60052943,-1.245435,-3.0917203
http://iot.uni-trier.de/FTOnto#FT_Workpiece_White_1,0.5428324,1.2267832,-1.1278957,-1.1318079,1.3170675,1.336793,-3.8966162,-0.69396996,0.3941077,0.31631193,-1.4207518,0.20896128,-1.6435677,1.7340685,-1.9200405,-0.61728317
http://iot.uni-trier.de/FTOnto#isTransportedBy,1.751061,1.9429716,-0.5296087,-0.87806314,1.6225603,0.6404346,-1.913102,-1.4126225,1.8953229,-0.43040925,-0.21949995,0.9859469,-0.16242506,2.02798,-0.42739192,-0.8210767
http://iot.uni-trier.de/FTOnto#monitores,1.8831189,1.4514402,-0.39545402,-0.08252029,0.09054719,0.55264056,-1.6967999,-3.4087827,1.2532991,0.6234021,1.8990014,-0.86344683,-0.83082354,2.3403254,0.6432852,0.7100711
http://iot.uni-trier.de/FTOnto#actuatesHorizontallyLeftRight,3.149667,0.61703247,-0.31138834,-0.11160785,1.4017533,0.4144219,-1.9979035,-2.501609,0.8108899,1.1384692,-0.5409376,0.110109664,-0.7032733,-0.35121945,1.387753,-0.8259923
http://iot.uni-trier.de/FTOnto#calibrates,0.2095424,1.2091246,0.9434986,-0.34755898,0.84629864,2.5689244,-0.73759395,-2.8667953,1.7134813,0.5826564,1.3091958,0.8073195,-1.0615737,0.019565525,0.989738,-1.5704207
http://iot.uni-trier.de/FTOnto#MPS_Motor_1,1.4268018,0.93657595,-1.8454047,-1.1985626,-1.5881699,2.2286777,-1.7365699,-1.432934,0.4758363,-1.0537008,0.22123493,3.633721,-0.24134576,0.77988774,0.6043457,-0.43003348
http://iot.uni-trier.de/FTOnto#BF_Crane_Jib,0.22531103,0.3550175,1.2158313,-1.4575124,0.86583525,3.9782355,-1.949032,-1.5765717,-0.02231543,-0.5338134,-0.6176987,-0.6074814,1.1960971,-0.32558116,-0.016928883,-0.74839354
http://iot.uni-trier.de/FTOnto#hasPeakPressure,0.57505864,-1.6307317,-1.503023,-1.5197433,1.8393921,3.0274389,-0.9905249,-1.2730126,0.45657432,-3.150073,-0.07437733,-1.7347733,-0.91298586,-2.6129415,-2.2917564,0.3243167
http://www.w3.org/2002/07/owl#disjointWith,1.6071006,3.1772583,-2.6639981,-0.31039846,0.52943146,2.2807236,-0.7708217,-0.34352675,0.3753851,1.0079423,-1.9602603,0.32175314,0.37197053,-1.1985637,-1.5188226,0.52987313
http://iot.uni-trier.de/FTOnto#hasPeakYAcceleration,0.46600652,0.18066747,1.1218324,-2.1514323,2.1020684,2.8217757,0.87323684,-0.69608426,2.1843526,-0.8396643,-1.0726563,-0.36585674,-3.4425511,-2.3618548,-0.13393185,0.31928265
http://iot.uni-trier.de/FTOnto#hasPeakXAcceleration,-0.8296993,0.53748137,-0.20938544,-0.6105081,0.38270566,3.6832395,1.0606962,-1.4553876,0.26293483,-0.91153616,0.8942967,-1.2825011,-1.988822,-2.4148355,-0.79413366,0.4730148
http://iot.uni-trier.de/FTOnto#actuatesRotationallyAroundVerticalAxis,2.3917894,0.0034273958,-1.1898797,-1.228869,2.355462,-0.13996173,-2.5113618,-2.1843128,0.5339255,-1.8249562,-0.008321641,1.2159779,-2.214351,-0.4160459,1.9431397,-0.6773738
http://iot.uni-trier.de/FTOnto#hasPeakZAcceleration,-0.8256904,0.36970666,-0.16672291,-0.6473214,0.48278567,3.5291827,0.95099634,-1.6435044,0.6082527,-1.0060092,0.78977126,-1.0433444,-2.283672,-2.601689,-0.55256635,0.50541
http://iot.uni-trier.de/FTOnto#PositionSwitch,2.2360086,2.8058372,-1.533525,-0.40251276,-1.3846331,2.8696413,3.14682,-0.36906916,1.4290588,-0.8821583,3.0797055,1.0606853,-0.95492345,-0.71698475,-0.4376235,-0.16903344
http://iot.uni-trier.de/FTOnto#HRS_Motor_3,2.6438258,2.5420942,-2.0076938,-1.6950527,-1.7688049,1.7507778,-1.4721749,-1.6855426,0.57868886,0.7547702,-0.2639689,2.4168432,0.35717332,-0.4904753,-0.5234163,-2.842959
http://iot.uni-trier.de/FTOnto#SM_Compressor_8,1.1083205,-1.4805931,-1.9322689,-2.6179757,-2.0033715,1.3855108,-0.34768024,-2.3033044,-0.57093495,0.9277504,-1.8453512,-0.26799288,-1.0625901,0.26008165,0.26549837,1.6495093
http://iot.uni-trier.de/FTOnto#VGR_Motor_1,0.14922592,1.017565,-2.0876935,-1.8031178,0.12339802,1.4524467,-1.6248584,-1.8017012,0.98964775,-1.3431227,0.6148795,3.0842004,1.3364872,-0.6450311,-0.8979804,0.7741065
http://iot.uni-trier.de/FTOnto#Transport_From_Milling,1.7013183,1.8862243,-0.98114634,-1.1475474,0.3871119,1.9919935,-2.2139754,-3.0428455,-2.78466,0.3461926,-1.3160812,-1.4321301,-0.2803991,3.2326708,0.19310741,0.11240828
http://iot.uni-trier.de/FTOnto#ADXL345AccelerationSensor,1.6754911,1.4977161,-1.5344138,-4.216893,0.27557582,1.5420957,2.4282002,-0.3791349,-0.3493609,-0.82030493,-0.8251374,0.83318895,-0.17736442,-0.97372997,0.67091745,-2.3342478
http://iot.uni-trier.de/FTOnto#Milling_Operation,-0.5614208,0.29710394,-0.43390498,-1.255304,0.59675664,3.111207,0.05659676,-2.4579134,-2.411341,0.17242934,0.19680749,-2.7097359,-0.08700551,0.60196173,-0.89192444,0.13576414
http://iot.uni-trier.de/FTOnto#isControlledBy,1.1201174,-1.3479284,-1.7361032,-1.6078756,1.186639,1.0987141,0.095698774,-2.293017,1.2710545,1.223919,1.3448191,-1.2453486,-0.3776944,-0.6111309,2.1764178,-1.1689395
http://iot.uni-trier.de/FTOnto#isInputFor,2.2124007,1.2081789,-1.3775247,-0.7767038,0.51641524,0.67344576,0.9788695,-2.1121056,2.253473,0.60561,3.1286716,0.10269729,-0.33327696,1.2521611,1.2195417,-0.098982565
http://iot.uni-trier.de/FTOnto#Milling_Operation_Sequence,-0.30238777,2.349171,-0.068518214,-1.1425632,1.8702999,2.283119,-1.1393172,-2.4797444,-1.9520484,-0.91143245,-0.6570166,-1.2626417,-1.8135341,0.47065422,0.6654792,0.0190243
http://iot.uni-trier.de/FTOnto#Transport_To_Milling,0.23411234,0.11067566,-1.7078544,-1.6447341,1.2626929,1.2464432,-2.528598,-2.111561,-2.311723,0.11144794,-1.0629885,-1.2342614,-1.0675437,2.090467,-0.16190594,-0.3895239
http://iot.uni-trier.de/FTOnto#BF_Motor_2,2.6930637,0.45502645,-0.057483573,-0.52729064,-0.7138294,2.6066062,-1.5662718,-1.2617643,2.1056294,0.7552659,-1.3601353,2.1326733,0.6058892,-0.53845096,-0.23219535,0.32286754
http://iot.uni-trier.de/FTOnto#MPS_Compressor_8,1.1226474,-1.9490821,-1.192417,-2.523246,-1.6491495,3.5541985,-1.9250394,-1.2031392,-0.20891708,0.21263184,-0.845071,1.5298434,-0.8018691,0.59222,1.2656169,0.8767963
http://iot.uni-trier.de/FTOnto#VGR_Crane_Jib,-0.85724247,1.5905536,0.4340156,-2.7196696,1.4540228,2.73315,-1.4352359,-2.2251575,-0.75095206,-1.3414212,0.19627273,0.16814296,1.5192003,0.32153088,-1.0120921,-1.9932616
http://iot.uni-trier.de/FTOnto#HRS_Motor_2,3.2393613,2.2161121,-0.8687339,-1.1100739,-0.7253207,1.4750267,-0.7287977,-2.775179,1.8443995,1.4510494,-0.93565446,1.2053381,1.7673272,-1.9402725,-2.1956356,-1.354268
http://iot.uni-trier.de/FTOnto#VGR_Motor_2,1.1537396,1.4463024,-1.2665366,-1.9339225,0.06869821,1.7894275,-1.8034343,-2.958182,1.4058917,-0.9745763,0.9672284,1.5516324,2.487953,-1.674538,-2.2444828,-0.9628565
http://iot.uni-trier.de/FTOnto#SM_Light_Barrier_1,1.4629353,1.5372277,-0.8684327,0.00665105,-0.2992862,1.056565,0.03862257,-2.9771636,0.5106024,0.850397,-0.63285726,1.356585,0.5225323,1.2410933,-1.4668366,3.675641
http://iot.uni-trier.de/FTOnto#HRS_Motor_4,2.219253,1.0350105,-1.1784275,-1.523564,-1.2879828,2.0968156,-1.214423,-1.6526437,2.035256,0.054498192,-0.17877252,0.8930154,1.1472604,-1.9238749,-1.3792183,-1.9082526
http://iot.uni-trier.de/FTOnto#VGR_Position_Switch_1,-0.050050464,2.071397,-1.6831586,-0.83705264,0.62462837,1.0837461,-0.96857965,-3.573222,-1.236195,-0.4926528,0.28599706,1.1450845,1.7295258,-1.1660684,-0.61530364,2.084716
http://iot.uni-trier.de/FTOnto#LightBarrier,1.2412195,2.8999064,-1.2218148,-0.3335095,-1.7695735,2.643868,2.6684473,-1.2049031,0.517364,-0.9251894,2.840339,-1.417567,-0.8701249,0.9480611,-1.5727731,0.23265307
http://iot.uni-trier.de/FTOnto#BF_Valve_5,0.40981087,-1.4817494,-0.62551975,-2.22578,-0.25000674,2.5154562,-0.95183885,-1.7661924,1.9349827,0.13101843,1.0109184,1.915554,0.44104144,0.037507374,-1.2951572,1.832484
http://iot.uni-trier.de/FTOnto#VGR_Motor_3,0.76961774,2.166028,-2.6823564,-2.2339253,-1.0624218,1.1923913,-1.6378527,-2.000235,0.2898635,-0.8424837,0.8241033,2.0545902,1.2335968,-0.5898572,-0.9549972,-1.6337376
http://iot.uni-trier.de/FTOnto#BF_Valve_6,-0.1777922,-1.2327776,-0.36810744,-2.5651627,0.43249232,2.807498,-1.6091764,-2.4974742,0.17675945,1.1668919,0.8357571,0.41969925,1.4460994,-0.34612805,-0.37816134,0.69863945
http://iot.uni-trier.de/FTOnto#hasOperation,-0.32055923,1.7361686,-1.0034664,0.9620185,0.636323,3.3522944,-0.93808794,-2.320083,-1.3602455,0.26955995,-1.2500494,-1.7475183,-2.6087027,0.8189305,-0.084229276,-0.24168901
http://iot.uni-trier.de/FTOnto#defaultSpeed,2.3782625,-0.781989,-2.8543599,-0.99709517,2.5933597,0.37485084,-0.97063863,-2.3497438,0.031357735,-1.5718578,1.1387243,1.65742,-1.3435416,-1.8745891,0.6371609,-1.0667455
http://www.w3.org/ns/sosa/madeObservation,0.27302587,1.4363497,-0.5449096,-0.13207325,1.5175734,0.06961191,-0.06334851,-3.949501,0.9127119,-1.1597285,0.5268612,0.3901481,-2.3367677,0.076300584,1.5095762,1.3442893
http://iot.uni-trier.de/FTOnto#BF_Valve_7,0.41192904,-1.3865412,-0.3370858,-3.1035638,0.57292175,2.4857457,-1.0674744,-2.038832,1.6252736,1.2836747,0.6886695,0.8109729,1.2982047,-0.7178597,-1.8396518,0.635608
http://iot.uni-trier.de/FTOnto#MPS_MillingMachine,1.0195684,0.27389452,1.0748186,-2.5189116,0.14434403,4.062022,-0.9591626,-2.4680858,-1.8420035,1.8374606,-1.257759,-1.409552,0.98460096,1.0683918,1.41975,-0.12485193
http://iot.uni-trier.de/FTOnto#SM_Color_Sensor_2,0.16131718,1.5084684,-1.9778974,-1.6998193,-0.32908896,0.20305246,0.06418762,-3.9017713,-1.4516965,0.68083817,-0.5127781,0.37708098,0.72085625,0.5219195,-0.8571292,3.197407
http://iot.uni-trier.de/FTOnto#PressureObservation,1.0983914,1.2603182,-2.0365696,-3.4674606,2.9388142,1.2182329,3.0966384,-0.5973898,-0.85708547,-1.1958423,-1.018919,-0.7215344,0.5529708,1.0078492,-2.6449504,-0.9228222
http://iot.uni-trier.de/FTOnto#MPS_Conveyor_Belt,0.61270964,1.2123307,1.3428339,-2.070421,0.51187724,3.2833257,-0.32091096,-2.0604696,-0.73051894,2.0790274,0.17104286,-0.49439308,0.4593926,2.240999,0.028306412,-1.9188248
http://iot.uni-trier.de/FTOnto#AbnormalPressureObservation,3.144876,0.663146,-3.17799,-1.0090042,-0.1018378,1.3457146,-0.58068365,0.06916891,-1.3881949,-1.0428379,-3.1310782,-0.87620974,-2.3589091,-0.059700724,-0.8992926,0.1197829
http://iot.uni-trier.de/FTOnto#AccelerationResult,0.74370176,1.6022458,0.48753002,-1.0987977,2.1862688,4.3482637,3.207021,-0.1455035,-0.46026742,-0.03979599,0.27154627,-1.2736917,-0.39544272,0.52862734,-1.5914354,-0.3302105
http://iot.uni-trier.de/FTOnto#AccelerationObservation,2.7918112,0.84458613,-2.3616452,-1.2145352,1.2287879,2.556712,2.5389872,1.0393302,0.92828465,-1.5846899,0.15511917,2.2800126,-0.93616146,0.020113314,-1.2194902,-1.8456053
http://iot.uni-trier.de/FTOnto#PressureResult,1.4818388,-0.7329911,-1.5844406,-1.1053632,1.7951174,4.7067394,0.82240015,0.9859087,-0.7159328,-1.927849,-0.35712534,-0.023492793,-0.31045237,-0.26168412,-0.586497,-1.9423462
http://www.w3.org/2000/01/rdf-schema#seeAlso,-0.84482557,2.5918295,-1.7616147,-0.59662634,1.2618605,1.0394459,1.7679678,-2.6106148,2.066202,1.3850931,-1.280401,0.49313718,-2.1513054,2.1879723,1.7985884,1.4297613
http://iot.uni-trier.de/FTOnto#IndirectlyAddressable,2.8332024,1.4998736,0.12553225,-2.5464013,1.1258663,3.4644485,0.4394745,0.7056053,1.6835977,1.4115319,0.5521472,-3.0735786,0.25839117,0.39487013,0.35920858,-0.61671567
http://iot.uni-trier.de/FTOnto#SM_Valve_5,1.0814683,-1.2391802,-1.0705414,-2.8827782,-0.6337709,1.3677247,-0.6512861,-2.6262033,1.1423192,1.6313138,-0.83125216,-0.45818838,0.83405966,0.65964997,-1.8696349,2.0268192
http://iot.uni-trier.de/FTOnto#SM_Valve_7,0.24876663,-0.88067895,-1.905708,-3.675588,-0.8487394,0.7146617,-0.1535464,-3.5334072,-0.06816072,0.964859,0.06283754,-0.33655143,0.8001605,0.65744966,-1.5858955,2.3808765
http://iot.uni-trier.de/FTOnto#SM_Valve_6,0.8580953,-1.1787049,-1.6830782,-2.740004,-1.4028412,1.1021909,-0.24208103,-2.5229833,1.1982421,0.22364824,-0.11265961,0.99885577,0.09940081,1.337766,-1.3093232,2.9189725
http://iot.uni-trier.de/FTOnto#VGR_Motor_1_ADXL365_Observation_2019-02-26_14_54_45.25,0.5808923,1.0825202,-1.0206945,-0.51204675,1.0692871,1.8660262,0.034161508,-1.4011708,-1.9480551,-0.5378699,-1.024806,1.567356,-0.6867198,-0.769296,-0.023752375,-0.4462106
http://iot.uni-trier.de/FTOnto#SM_Conveyor_Belt,1.689254,1.9648141,0.86302245,-1.1467296,0.61608046,1.1086577,0.23856285,-2.6551688,0.2248399,2.404644,-1.3230972,-2.5021377,-0.58082193,0.77982414,-2.5142205,0.04057185
http://iot.uni-trier.de/FTOnto#VGR_Motor_1_ADXL365_Observation_2019-02-26_14_54_55.58,0.56130767,1.0381435,-1.027604,-0.57964593,1.0422299,1.8051476,0.022279229,-1.3440795,-1.9057719,-0.5204749,-1.0651658,1.5451641,-0.6242372,-0.74551153,-0.0033843254,-0.45888558
http://iot.uni-trier.de/FTOnto#BF_Light_Barrier_5,1.2363505,1.5610486,-0.081166334,0.024209993,0.10891745,2.1307507,-0.47955623,-2.7779725,1.410919,1.5111952,1.0316818,0.5021773,1.5841786,0.450611,-1.9525353,1.9555032
http://iot.uni-trier.de/FTOnto#BF_Transport_Platform,1.7486695,1.0943747,1.6909897,0.122916326,0.079831585,3.947596,-0.28986073,-2.213766,0.7473664,1.7907449,0.28367904,-1.7317103,0.7849848,0.550667,-1.8018321,-0.5191808
http://iot.uni-trier.de/FTOnto#VGR_Motor_1_ADXL365_Observation_2019-02-26_14_53_45.12,0.5457318,1.006488,-1.0484953,-0.53481543,1.0633991,1.8074378,0.044114202,-1.3739109,-1.8476486,-0.5172785,-1.0575833,1.49894,-0.6228197,-0.7609687,-0.020687712,-0.39185864
http://iot.uni-trier.de/FTOnto#isActuatedHorizontallyLeftRightBy,1.3542527,0.09984411,-0.5822389,1.8319473,2.4859579,2.254584,-1.7406125,-3.1670964,0.8240208,2.3314755,0.42163733,0.19874355,-0.61019397,2.3692105,-0.38840276,-1.7904776
http://iot.uni-trier.de/FTOnto#VGR_Motor_1_ADXL365_Observation_2019-02-26_14_55_06.02,0.5077508,0.96690917,-1.0556195,-0.52608633,1.0729332,1.7904865,0.03857394,-1.3241768,-1.8275993,-0.5446889,-1.0332552,1.4599274,-0.61842203,-0.700499,-0.032638367,-0.43081692
http://iot.uni-trier.de/FTOnto#VGR_Motor_1_ADXL365_Observation_2019-02-26_14_54_03.56,0.58761287,1.0519885,-1.0892792,-0.55214757,0.9942695,1.7908937,0.0145181995,-1.3346573,-1.9326801,-0.56904167,-1.0796603,1.5657837,-0.6700427,-0.7290537,-0.017798016,-0.37779444
http://iot.uni-trier.de/FTOnto#VGR_Motor_1_ADXL365_Observation_2019-02-26_14_54_24.18,0.53810865,0.9836001,-1.0124524,-0.5867482,1.0634081,1.8000188,0.07554135,-1.3026454,-1.8757368,-0.5226235,-1.0376382,1.4626787,-0.7019723,-0.78410554,-0.049794536,-0.40948334
http://iot.uni-trier.de/FTOnto#Bucket,2.369575,0.35383782,-1.2863735,-2.6047955,1.1188836,1.8629589,1.8100262,0.5366929,1.3469601,-0.2815245,0.4080606,0.1371024,0.00612747,2.4773433,-2.081168,-2.1502244
http://iot.uni-trier.de/FTOnto#VGR_Motor_1_ADXL365_Observation_2019-02-26_14_55_36.51,0.54055345,0.9892341,-0.97961456,-0.5144437,1.0339167,1.8671662,0.03890883,-1.3487445,-1.8728114,-0.55664563,-1.0558939,1.5333186,-0.6656077,-0.70866627,-0.026497925,-0.4588744
http://iot.uni-trier.de/FTOnto#VGR_Motor_1_ADXL365_Observation_2019-02-26_14_55_16.45,0.54441875,1.0390533,-1.0429044,-0.58226776,1.0696762,1.8405995,0.046850387,-1.3789881,-1.9717163,-0.54195136,-1.0697203,1.5361354,-0.6766167,-0.7706537,-0.05235792,-0.39643714
http://iot.uni-trier.de/FTOnto#AccSensor_ADXL345_1,0.33141354,2.3230836,-1.0557966,-1.4794663,2.453491,1.651922,-0.1163889,-2.2756832,-1.4736544,0.3567324,-0.21895312,2.046985,1.1043843,-1.7977781,-1.9479603,-0.8058877
http://iot.uni-trier.de/FTOnto#VGR_Motor_1_ADXL365_Observation_2019-02-26_14_53_54.97,0.5422685,1.0270442,-1.0730101,-0.54612535,1.0156858,1.7797704,0.00522495,-1.329954,-1.9347982,-0.5538535,-1.0827357,1.4915503,-0.7043856,-0.7311617,-0.057321504,-0.39218765
http://iot.uni-trier.de/FTOnto#VGR_Motor_1_ADXL365_Observation_2019-02-26_14_55_26.44,0.57919353,1.0248471,-1.0628567,-0.61316025,1.0264379,1.7811992,0.032722186,-1.3432124,-1.926285,-0.5465033,-1.0673163,1.579274,-0.74998295,-0.71778226,-0.004210883,-0.41412088
http://iot.uni-trier.de/FTOnto#MPS_Valve_7,0.15165244,-1.1707096,-1.1507427,-3.5946069,-0.7986462,2.4808784,-1.5226492,-2.947328,-0.80013806,1.1735703,0.8576358,0.89123636,1.0359341,1.5286264,0.7460974,1.625571
http://iot.uni-trier.de/FTOnto#VGR_Motor_1_ADXL365_Observation_2019-02-26_14_54_34.67,0.5115772,1.0353696,-1.023665,-0.60036534,1.0674211,1.7999713,0.07565787,-1.3933774,-1.9141077,-0.46009552,-1.0372256,1.5261991,-0.6896621,-0.74971926,0.007335536,-0.40411505
http://iot.uni-trier.de/FTOnto#MPS_Position_Switch_5,2.1150985,0.8518702,0.020114772,-0.15234965,-1.3340452,3.550273,-0.8786968,-2.4083755,-0.9569642,0.82001984,-0.14611964,1.0228083,0.2896845,-0.696177,1.7259558,0.14403798
http://iot.uni-trier.de/FTOnto#VGR_Valve_8,-0.38190216,-0.8087011,-1.8723881,-3.3442094,-0.20487455,1.2846664,-0.7926802,-2.6312428,0.6024776,-0.23375851,0.80353147,0.23186022,1.2883811,-0.94978356,-1.7418648,1.2282661
http://iot.uni-trier.de/FTOnto#AbnormalAccelerationObservation,2.597122,2.9449425,-2.4946482,-0.24813983,1.1986005,1.7617406,1.1482382,-1.0381682,-2.407781,0.3007761,-0.40686384,-0.91488445,-1.526294,-2.7366555,-0.49523336,-0.32009763
http://iot.uni-trier.de/FTOnto#Valve,2.2514927,-2.1782897,-3.2021027,-2.0574582,-1.9714196,2.8822489,-0.1835629,-0.29295325,0.089692265,-0.86945015,0.6666622,-0.60773367,-0.34022477,0.8290187,0.50862664,-0.40354043
http://iot.uni-trier.de/FTOnto#nextOperation,-0.0860873,2.0373974,-0.82425904,-0.635277,0.5275832,2.2818441,-0.31138662,-1.9837306,-1.9427037,0.18080173,-0.37336364,-1.371016,-1.908913,1.018894,0.7946241,-0.25207677
http://iot.uni-trier.de/FTOnto#AbnormalAccelerationResult,3.0882764,0.8685853,-2.1965325,-0.5655264,-0.41880625,2.039713,0.73583853,0.24048737,0.25887752,1.0886047,-1.9918575,0.1763194,-2.6714633,-2.0749857,-0.38288802,0.63485634
http://iot.uni-trier.de/FTOnto#BF_Position_Switch_3,1.7125777,0.44669574,0.19251406,0.04400469,-0.76259905,3.050682,-0.69211435,-2.604633,-0.09002997,0.66011524,0.036780886,0.59403133,0.8595272,-1.1068258,0.88055074,0.79011583
http://iot.uni-trier.de/FTOnto#MPS_Light_Barrier_4,2.0852003,1.9473267,-0.09145755,-0.6480952,-1.6839229,2.9230773,-0.60657793,-2.1526945,-0.093116984,1.580387,0.096525334,1.5918124,0.028387213,2.9627845,1.0252305,1.2764179
http://iot.uni-trier.de/FTOnto#VGR_Motor_1_ADXL365_Observation_2019-02-26_14_54_13.76,0.5347544,0.98678446,-0.98592925,-0.48217654,0.9747964,1.7480567,-0.013552754,-1.2586172,-1.7714202,-0.515727,-1.0095292,1.4408821,-0.65197957,-0.69201106,0.0037087803,-0.4103026
http://iot.uni-trier.de/FTOnto#BF_Motor_1,2.3221645,1.0609419,-0.3143564,-0.6188884,-0.12668492,2.462973,-1.4886013,-1.602677,2.5246322,0.9999193,-0.45126486,3.2757986,1.2847176,-0.4918734,-1.3870668,0.6574545
http://iot.uni-trier.de/FTOnto#SM_Light_Barrier_7,1.6957564,1.1737761,-0.7477294,-1.3980795,-1.9808874,1.7415804,0.31711686,-3.1633387,-0.6198736,2.2199085,0.20580482,-0.9992183,0.25540242,2.4447913,-0.105953634,1.2448473
http://iot.uni-trier.de/FTOnto#SM_Light_Barrier_3,2.4513698,1.8557779,-0.47022158,0.03273644,-1.0704446,1.303356,0.3820924,-2.8255029,0.042649936,1.8289,-1.3662614,0.4528284,-0.067906186,1.0266838,-1.0347338,2.4566312
http://iot.uni-trier.de/FTOnto#BF_Position_Switch_2,1.3138193,1.2514064,0.54301137,0.050000068,0.17658678,3.3603318,-0.66403794,-2.8751202,0.14477098,0.7565898,1.2057685,0.5176069,1.5505149,-2.0169718,-0.493578,0.5475631
http://iot.uni-trier.de/FTOnto#VGR_Motor_1_ADXL365_Result_2019-02-26_14_55_16.45,2.1863089,0.05262846,-0.71229357,1.915754,-0.18036376,3.854449,-0.702817,-0.83435124,-0.3112095,-0.58530575,-1.26934,2.249781,-2.1197796,-0.24207833,-1.6332706,0.9059194
http://iot.uni-trier.de/FTOnto#Sensor,1.7405453,2.3107543,-1.7632486,-1.6044292,-0.1365897,2.066457,2.957111,-1.7720805,-1.3203294,1.1266118,1.0690522,-2.580219,-0.7633287,0.12708543,0.21655133,3.4389062
http://iot.uni-trier.de/FTOnto#VGR_Motor_1_ADXL365_Result_2019-02-26_14_54_55.58,2.6973045,-1.4137275,-0.21007575,1.2367936,-0.7803296,4.0427656,0.5590036,-1.357382,-0.92580396,0.67235136,-1.2952275,0.72578907,-3.0522676,0.3240718,-1.0789998,1.5422513
http://iot.uni-trier.de/FTOnto#VGR_Motor_1_ADXL365_Result_2019-02-26_14_54_45.25,1.7274016,-0.39112806,-1.1012241,0.47333476,1.008194,3.5165188,0.94448644,-0.37716013,-0.5681855,0.41076726,-1.887546,1.5678355,-2.0888433,-1.1059422,-1.8907411,1.5925993
http://iot.uni-trier.de/FTOnto#SM_Color_Sensor_2_Observation_2019-02-26_14_55_23.69,1.0353745,0.32183418,-2.2693596,-1.5428708,-0.5847151,0.6468164,0.774483,-1.7484709,-0.5028399,-1.296133,-0.9908034,2.3035965,-1.3477333,1.4474256,-0.9702762,2.268175
http://iot.uni-trier.de/FTOnto#VGR_Motor_1_ADXL365_Result_2019-02-26_14_55_26.44,1.4937307,-0.834031,-1.1131551,-0.23117295,-0.32120252,2.5763292,1.9026388,-1.5427512,-0.17630826,1.4965379,-1.0008599,0.85073,-2.1201687,-0.68757606,-1.1357045,2.957539
http://iot.uni-trier.de/FTOnto#VGR_Motor_1_ADXL365_Result_2019-02-26_14_54_34.67,1.1318759,-1.5055346,-1.5485276,0.49482056,-0.5660624,3.4745636,2.334066,-1.6801823,0.018214932,0.008062075,-1.0335652,0.30530053,-2.1762996,1.2217351,0.9030595,0.70786387
http://iot.uni-trier.de/FTOnto#BF_Position_Switch_1,1.3770306,1.0982318,0.37719673,0.07012608,-0.061808467,3.0620723,-0.513885,-2.8570783,0.21697237,0.6343382,1.0852855,0.22433843,1.449651,-1.9193625,-0.40547413,0.51789933
http://iot.uni-trier.de/FTOnto#SM_Light_Barrier_6,1.5609537,0.66044605,-0.09814783,-0.17975047,-1.1973646,2.239707,-0.006407152,-2.6402304,-0.18711098,1.1964823,-0.276988,-0.38432407,0.078663394,2.4976645,-0.3057937,2.916804
http://iot.uni-trier.de/FTOnto#VGR_Motor_1_ADXL365_Result_2019-02-26_14_53_54.97,-0.07347948,-1.0420877,-1.8282322,1.5793638,-0.09138955,3.3880825,0.6902141,-2.6537778,1.2516958,0.22176422,-2.1937668,0.8554298,-2.3321326,0.13458385,-0.5060856,0.81874996
http://iot.uni-trier.de/FTOnto#MPS_Motor_2,2.6503413,0.005401126,-0.9018782,-1.8355863,-1.5966016,2.4388208,-1.8539568,-1.6925584,-0.049339335,1.3720155,-2.6064417,1.3300457,0.35459504,0.90699804,1.2674329,0.12903422
http://iot.uni-trier.de/FTOnto#Normal_Motor,2.4016767,-0.7613341,-1.1641492,-1.0093322,-0.42131314,4.4213696,0.8442298,-0.48492733,-1.2034991,2.5029497,0.8324677,-0.8525718,-0.33972502,-0.71179414,1.492356,-1.7429488
http://iot.uni-trier.de/FTOnto#VGR_Compressor_7,-0.43078583,-0.77282816,-2.5030117,-3.9035993,-1.2566054,1.7500714,-1.0821187,-2.7963033,-1.609687,-0.48307136,0.26240775,0.086598255,0.40637892,-1.1956067,0.45680347,0.9536174
http://iot.uni-trier.de/FTOnto#VGR_Motor_1_ADXL365_Result_2019-02-26_14_54_24.18,2.5713015,0.10593457,-0.96583325,0.4455673,-0.1502886,3.3570952,1.7518289,-0.6286568,-0.5891577,-0.58936304,0.43624657,2.194602,-3.3982222,-0.8062831,-0.63291395,1.7942417
http://iot.uni-trier.de/FTOnto#VGR_Motor_1_ADXL365_Result_2019-02-26_14_54_13.76,1.1224525,-0.42119008,-0.25444752,0.75933784,0.18530522,4.4736347,-0.007169081,-0.81491923,0.12220448,1.2084409,0.0738431,2.2801418,-1.9781526,-0.60745054,-1.3184677,2.3026528
http://iot.uni-trier.de/FTOnto#VGR_Motor_1_ADXL365_Result_2019-02-26_14_54_03.56,0.9810056,-0.47256646,-1.7403163,0.7634902,-0.75001186,3.834028,1.2170548,-0.96323913,0.06471056,-1.8002993,-0.3963111,1.8170104,-2.0280352,1.0809013,0.9336884,0.168489
http://iot.uni-trier.de/FTOnto#VGR_Motor_1_ADXL365_Result_2019-02-26_14_55_36.51,1.1806583,-0.19559371,-0.7173831,0.8304519,0.03822454,5.1489334,-0.19884193,0.11861259,-0.57024,-0.9507098,0.30691853,2.3809555,-2.0173259,0.26688868,-0.087853886,1.0588677
http://iot.uni-trier.de/FTOnto#VGR_Motor_1_ADXL365_Result_2019-02-26_14_55_06.02,0.5151362,0.35796484,-1.6048126,-0.6206104,-0.26144186,3.6253433,1.2253091,-0.544688,0.15639447,-0.51010936,0.23954469,3.0287123,-1.9383783,-0.7959595,-0.6721585,2.849763
http://iot.uni-trier.de/FTOnto#AbnormalPressureResult,2.3172734,0.08000941,-2.6104298,-1.2002711,1.1492273,0.8531356,0.07027276,9.634689e-05,0.99901307,0.12733473,-1.3731017,-1.3409466,-1.6417962,-1.5119292,-2.9683106,1.1234472
http://iot.uni-trier.de/FTOnto#VGR_Motor_1_ADXL365_Result_2019-02-26_14_53_45.12,1.162457,-1.0286855,-0.49826515,-0.23819065,-1.0140195,3.6941533,1.4582522,-1.0872822,-0.11996725,0.5758616,0.8353209,1.2944151,-2.2314696,0.32972446,0.5211703,2.3147848
http://iot.uni-trier.de/FTOnto#isMonitoredBy,2.3524873,0.6459987,-2.2419863,0.81869835,-0.13556878,0.87559605,-0.66803706,-2.217382,0.5152186,0.63611954,1.8560392,-0.4862628,-1.3640214,2.8123865,-2.2126052,-1.2685143
http://iot.uni-trier.de/FTOnto#SM_Light_Barrier_8,2.205426,1.5112053,-0.9410869,-0.8638088,-2.5063057,1.7921824,0.36599967,-2.8746052,0.33513898,0.74653774,0.069080524,0.8936524,-0.2519004,3.1512976,-0.09092447,2.8130593
http://iot.uni-trier.de/FTOnto#SM_Color_Sensor_2_Observation_2019-02-26_14_54_14.17,0.9822935,0.31854218,-2.2608435,-1.4933124,-0.61146295,0.6519099,0.7416865,-1.7577091,-0.42918387,-1.2532021,-0.89064467,2.325779,-1.3688586,1.4862809,-0.9673498,2.259484
http://iot.uni-trier.de/FTOnto#Component_Vibration,1.6108615,1.2178229,-2.4382768,-1.9248925,1.9673377,2.2591577,0.45995292,-0.7932188,-0.29423577,-1.06732,1.5627131,-2.9087856,1.8908473,-1.664454,0.0037926696,0.77696395
http://iot.uni-trier.de/FTOnto#SM_Sink_White,1.1627467,1.0664486,0.32598448,-1.5914413,0.2741643,1.2638547,0.8757225,-2.2701473,1.725603,0.29503608,-0.6623408,-1.3541551,0.49291787,1.667536,-4.011995,1.0595003
http://iot.uni-trier.de/FTOnto#VGR_Compressor_7_SSCMRRN03PD2A3_Observation_2019-02-26_14_53_45.12,0.7451897,-1.1073525,-1.7549045,-1.4795371,0.6286798,1.1492049,0.11174288,-0.9815327,-1.475381,0.19062845,-1.2462244,1.1909974,-1.3676275,0.9581107,-0.53184825,-0.08381138
http://iot.uni-trier.de/FTOnto#BF_Crane_Simple_Piston,2.017428,-1.4723904,0.27448794,-2.23714,-0.77898145,3.642052,-1.9253734,-1.1057174,1.8144577,-0.75188875,-1.7421467,-0.13907374,0.6736365,0.27258208,-1.5750514,-0.55614096
http://iot.uni-trier.de/FTOnto#VGR_Compressor_7_SSCMRRN03PD2A3_Observation_2019-02-26_14_55_16.45,0.81449854,-1.1642365,-1.7720983,-1.4465611,0.62204677,1.1457891,0.086832725,-1.0588611,-1.4439377,0.27576488,-1.2415493,1.2089077,-1.4055626,1.01944,-0.56446296,-0.07620737
http://iot.uni-trier.de/FTOnto#SM_Motor_1,3.3572311,0.92726797,-1.1821221,-1.6260386,-1.5817422,1.2037249,-0.8935914,-2.2257512,0.8484312,2.0261233,-3.0473087,1.214947,0.6090861,0.70389235,-0.40397036,1.3005198
http://iot.uni-trier.de/FTOnto#VGR_Compressor_7_SSCMRRN03PD2A3_Observation_2019-02-26_14_55_26.44,0.7222419,-1.013549,-1.7754027,-1.5161636,0.59862185,1.0979965,0.048592526,-1.0839394,-1.492147,0.29288447,-1.3365484,1.1719168,-1.3279902,0.93818164,-0.5285539,-0.057547685
http://iot.uni-trier.de/FTOnto#VGR_Compressor_7_SSCMRRN03PD2A3_Observation_2019-02-26_14_54_24.18,0.75361466,-1.1199018,-1.7437273,-1.5210125,0.58293486,1.1626557,0.06577688,-1.0097861,-1.5234349,0.23100424,-1.2819,1.155586,-1.3861248,0.9051127,-0.5174915,-0.1013776
http://iot.uni-trier.de/FTOnto#SM_Ejector_White,1.4905194,-1.1246656,-0.37715256,-2.4491534,-1.2191314,2.2877588,-0.5701554,-1.4403629,0.112434,0.74802953,-2.2062619,-1.3030868,-0.9607087,2.9574716,-1.5108566,0.71180224
http://iot.uni-trier.de/FTOnto#VGR_Compressor_7_SSCMRRN03PD2A3_Observation_2019-02-26_14_53_54.97,0.87085164,-1.3186913,-1.7603089,-1.5748018,0.6269013,1.2379278,0.062157165,-1.0837431,-1.5279559,0.15265502,-1.3255076,1.2260313,-1.4099433,1.0718583,-0.57458895,-0.12511604
http://iot.uni-trier.de/FTOnto#VGR_Compressor_7_SSCMRRN03PD2A3_Observation_2019-02-26_14_54_03.56,0.72676325,-1.1018965,-1.6998438,-1.4800832,0.6472,1.1448863,0.042717,-1.0667839,-1.4497017,0.2107803,-1.326945,1.132394,-1.2618362,1.0168856,-0.5520244,-0.101472
http://iot.uni-trier.de/FTOnto#VGR_Compressor_7_SSCMRRN03PD2A3_Observation_2019-02-26_14_54_45.25,0.72297674,-1.0928679,-1.707479,-1.4554932,0.64336866,1.1337095,0.057303634,-0.9971759,-1.4094473,0.2623657,-1.2496341,1.1597269,-1.3030142,0.97159594,-0.50382954,-0.10546301
http://iot.uni-trier.de/FTOnto#VGR_Compressor_7_SSCMRRN03PD2A3_Observation_2019-02-26_14_54_34.67,0.7502937,-1.1754276,-1.7521862,-1.4808604,0.58082914,1.1833518,0.06519183,-1.0214106,-1.417323,0.2401724,-1.2927811,1.2329409,-1.3756965,0.9831175,-0.5417549,-0.13050492
http://iot.uni-trier.de/FTOnto#HRS_Bucket_White_1,1.0418826,1.306127,0.23922016,-0.5683135,-0.458862,2.8226213,-0.66837406,-0.77640253,0.73491347,-1.7002465,-0.745227,-0.6866321,-0.2432348,1.9500297,-2.0777912,-1.2245686
http://iot.uni-trier.de/FTOnto#VGR_Compressor_7_SSCMRRN03PD2A3_Observation_2019-02-26_14_55_36.51,0.77140284,-1.1207182,-1.7035025,-1.4582379,0.662484,1.1839496,0.10621511,-1.0508528,-1.4883965,0.24080785,-1.2633181,1.1917204,-1.3140978,0.92685944,-0.46553797,-0.18104516
http://iot.uni-trier.de/FTOnto#VGR_Suction_Head,0.39857706,0.1586656,-1.6746373,-3.0963824,-0.76373136,1.2327037,-1.2087861,-2.1827917,0.9715565,-1.2519306,-0.33764595,-1.0722765,1.635834,-0.031011794,-2.314286,-0.17227219
http://iot.uni-trier.de/FTOnto#VGR_Compressor_7_SSCMRRN03PD2A3_Observation_2019-02-26_14_54_13.76,0.72096723,-1.0757904,-1.7171155,-1.3993567,0.6080265,1.1000614,0.011098774,-1.0222402,-1.3967779,0.22423673,-1.2671243,1.1441885,-1.2987883,1.0148177,-0.52327096,-0.09678683
http://iot.uni-trier.de/FTOnto#SM_Ejector_Blue,1.0575157,-0.6431681,-1.298049,-3.21884,-2.2188065,1.6261009,0.09461806,-1.7329096,-0.27766863,-0.17532386,-1.3322482,0.40350747,-1.5690598,3.4299932,-0.31964564,1.5882796
http://iot.uni-trier.de/FTOnto#Component_Acceleration,2.3319893,2.6165714,-2.273397,-1.6677042,1.6524644,1.156597,1.1187296,-0.6984596,1.0265555,-1.5103544,2.2187133,-2.7070992,1.302697,-0.058142688,-1.7360483,0.92757446
http://iot.uni-trier.de/FTOnto#VGR_Compressor_7_SSCMRRN03PD2A3_Observation_2019-02-26_14_54_55.58,0.72814035,-1.0930479,-1.6906927,-1.4113268,0.6603843,1.1394951,0.031826045,-1.0047708,-1.3779794,0.30004126,-1.2317271,1.1473693,-1.3454984,1.0084163,-0.52915937,-0.10417623
http://iot.uni-trier.de/FTOnto#SM_Ejector_Red,0.81437093,0.05590201,-1.744472,-3.9420464,-1.7816454,0.8761427,-0.30801404,-2.4713492,-0.46976206,0.6644102,-0.7953434,-1.0034839,0.1196168,2.591874,-0.72354823,-0.16881706
http://iot.uni-trier.de/FTOnto#ejectsWorkpieceTowards,0.97434163,-0.5037446,-1.755589,-1.5189028,-1.6600114,1.1751597,-1.7589712,-2.9895318,0.4882955,-0.46828675,0.041142005,-2.5463722,-0.9975839,1.7350638,-1.3276865,2.104104
http://iot.uni-trier.de/FTOnto#VGR_Compressor_7_SSCMRRN03PD2A3_Observation_2019-02-26_14_55_06.02,0.78915405,-1.1435091,-1.7071606,-1.5326675,0.596051,1.1125034,0.02830234,-1.0707121,-1.5055945,0.27427858,-1.3285084,1.1523772,-1.3918052,1.0082396,-0.5262626,-0.092840366
http://iot.uni-trier.de/FTOnto#BF_Vacuum_Generating_Piston,-0.01782616,-1.1054256,0.8826869,-1.6816399,-0.22121216,4.204929,-0.79913074,-1.2373877,0.7939423,-0.97536343,0.9187624,-0.33021906,0.21013218,1.5085223,-0.50010073,1.2639253
http://iot.uni-trier.de/FTOnto#MPS_Position_Switch_3,0.78412545,1.8050456,-0.880815,-1.1193843,-1.4085089,2.9695714,-0.801065,-2.1217132,-1.7384018,0.09891997,0.7598189,1.6354139,0.025036152,0.12962037,1.904415,-0.21396652
http://iot.uni-trier.de/FTOnto#actuatesVertically,2.216294,0.76248324,-1.4596018,-0.96517915,0.49834004,0.17359482,-2.3568225,-3.4313638,1.5031254,-0.45711604,0.26084405,-2.3116891,0.31781566,-1.5903425,-1.6625522,-1.069736
http://iot.uni-trier.de/FTOnto#VGR_Position_Switch_2,0.57046974,2.0867662,-1.0926836,-1.0530027,-0.49483916,1.7127069,-0.35331985,-3.7100413,-0.7517086,-0.2897097,1.2500396,-0.38920248,2.0369794,-1.7701827,-0.75535667,0.17165437
http://iot.uni-trier.de/FTOnto#isregulatedBy,0.5241619,-2.2846053,-2.4228222,-1.3025919,1.30897,1.4806783,-1.5778557,-2.0395777,1.2328203,-0.24391578,0.93753344,-1.1455333,-0.16596204,2.229659,-0.5533881,-0.74664205
http://iot.uni-trier.de/FTOnto#TooLowPressureObservation,3.0199206,1.1765097,-3.0853884,-2.2222302,-0.13418812,0.24600898,-0.6996906,-1.0704346,0.23783374,0.66057414,-1.3748562,-2.3894525,-0.3179565,-1.5243905,-1.0881652,0.32343036
http://iot.uni-trier.de/FTOnto#AccSensor_ADXL345_3,2.0966523,1.4277898,-0.4654756,-0.7097228,1.1289965,1.0590979,1.1104709,-2.76584,-1.4075474,2.2431254,-1.4932669,-0.19750458,0.38055384,-1.2058746,-1.26036,0.071748555
http://iot.uni-trier.de/FTOnto#AccSensor_ADXL345_2,1.0864269,0.1173849,-0.77495986,-2.0556326,1.5435302,1.4591718,1.3730015,-2.4922605,-0.20993784,2.3842237,-0.11082951,1.7752725,0.20260525,-1.910834,-1.6945189,1.5083652
http://iot.uni-trier.de/FTOnto#MPS_Position_Switch_2,0.56909734,1.1186367,-0.46491164,-1.0784615,-1.0550413,3.3811371,-0.75742453,-2.1594045,-1.3601696,0.11510507,1.3726171,1.5314549,0.22054504,-0.29530162,1.7660837,0.17575859
http://iot.uni-trier.de/FTOnto#MPS_Position_Switch_1,0.5983713,1.6123592,-0.7827891,-1.052111,-1.2644389,2.9564161,-0.77228266,-1.9868141,-1.479305,0.19172834,0.80064625,1.5975025,-0.017192526,0.095108815,1.866762,-0.12205778
http://iot.uni-trier.de/FTOnto#VGR_Position_Switch_3,0.2625024,2.1331916,-1.6765922,-1.6274369,-1.57129,1.9661182,-0.3942469,-2.8624449,-1.4218422,-0.66069186,1.7290441,0.28203446,0.8045412,-0.7048872,0.7449964,-0.4168282
http://iot.uni-trier.de/FTOnto#HRS_Light_Barrier_4,2.8461156,2.2178855,-0.4606095,0.008583473,-2.3448422,1.8608735,0.6085919,-2.187081,0.7761985,1.4963332,-0.088348314,0.041243885,-0.32542986,1.076657,-0.61144304,0.07152699
http://iot.uni-trier.de/FTOnto#HRS_Light_Barrier_1,2.702197,2.1069348,-0.46892762,0.015027149,-2.280271,1.7561907,0.5337477,-2.1365662,1.0096935,1.2510028,0.01624289,0.0900018,-0.16351421,0.9766466,-0.8041494,0.1664127
http://iot.uni-trier.de/FTOnto#TooHighPressureObservation,1.8382341,1.1798067,-3.4050252,-2.0274081,0.5628031,0.76943886,-0.39746293,-0.83085793,-0.17302245,0.21210776,0.19783092,-2.5715725,-0.2590277,-2.2906783,-1.7334815,-0.39237165
http://iot.uni-trier.de/FTOnto#HRS_Position_Switch_7,1.5102997,2.445031,-0.911464,-0.68075895,-1.9183052,2.3835564,-0.0974305,-2.1829057,-1.0145261,0.40672243,0.5544319,0.26024377,-0.0030568826,-0.6506679,0.91373026,-1.3727336
http://iot.uni-trier.de/FTOnto#HRS_Position_Switch_8,1.6584544,2.3164964,-0.47121727,-0.28012216,-1.1249285,2.267587,0.18421246,-2.9695024,-0.100863926,0.32158867,0.9112842,-0.5405528,1.1906241,-1.9893519,-0.6235085,-0.7581518
http://iot.uni-trier.de/FTOnto#TooLowPressureResult,1.9434668,1.3677648,-2.1227536,-0.28741455,0.54333,2.217159,-0.19830558,-0.8586875,-1.2860426,-1.2982318,-2.3110147,-2.2141569,-0.43464354,-0.18819493,-2.5539613,0.17102072
http://iot.uni-trier.de/FTOnto#Actuator,1.3925878,-0.84266645,-2.7248874,-2.683934,0.34772825,2.170497,0.7191782,-1.201344,-0.9152151,0.57066935,-0.06965994,-2.9286807,-0.17098366,-1.4690528,0.3750046,3.054455
http://iot.uni-trier.de/FTOnto#HRS_Position_Switch_5,1.5885398,2.322238,-0.8505399,-1.0351124,-1.1588628,1.9239458,-0.33327422,-3.1339486,-1.3455768,0.9964699,0.21720639,-0.3105089,0.96887904,-1.3955896,0.31323972,-1.2491904
http://www.w3.org/2002/07/owl#onProperty,1.2690473,2.6030629,-5.0172563,0.3859116,1.150847,1.1826832,-1.0889981,-0.9598825,1.5182171,-0.92500985,-0.67278886,-2.2506392,-0.58814514,0.33981144,1.169673,-0.2102049
http://iot.uni-trier.de/FTOnto#Color_Sensor_Observation,2.5161872,2.214822,-2.1486757,-1.5443066,1.2325652,1.7783293,4.025225,-0.4577279,-0.7367714,-2.1792462,-0.34288335,1.500881,-2.0966258,-0.5922056,-1.2645266,1.1702923
http://www.w3.org/2002/07/owl#someValuesFrom,1.3305739,2.6770341,-5.1448593,0.3818691,1.1759747,1.2134562,-1.0911443,-0.95076513,1.5852895,-0.90515894,-0.7383467,-2.281257,-0.59165096,0.32543027,1.1889521,-0.27834463
http://iot.uni-trier.de/FTOnto#HRS_Position_Switch_6,1.4178685,2.4079068,-1.1040311,-0.7041366,-1.9243579,2.1843092,-0.1329223,-2.1284392,-1.1002182,0.39652056,0.48179287,0.31771836,-0.07369989,-0.59688985,0.97934896,-1.3567193
http://iot.uni-trier.de/FTOnto#ColorSensor,2.1325352,2.7172964,-1.4912006,-0.51449263,-1.4398702,2.1200507,2.68486,-0.79218924,0.6309498,0.22563773,1.9134868,-0.11649479,-1.5012754,-0.98617476,-0.18471768,0.6580774
http://iot.uni-trier.de/FTOnto#HRS_Bucket_Red_2,1.3947167,1.1412066,0.28361312,-0.2064431,-0.9192316,3.1066182,-0.669587,-0.5102542,0.2610256,-0.8976681,-0.8617844,0.04189052,-1.0882964,1.2967014,-1.1993525,-1.6768563
http://iot.uni-trier.de/FTOnto#HRS_Bucket_Blue_1,1.376665,0.91828537,0.12698871,0.0036733234,-0.96044844,3.071139,-0.9259256,-0.5439452,0.08442763,-0.8018313,-0.8996511,0.12160984,-1.2204276,1.2761494,-1.0553062,-1.6904056
http://iot.uni-trier.de/FTOnto#MPS_Motor_3,2.705947,0.42713723,-0.89221185,-2.2823937,-1.8424574,2.2757916,-1.6953065,-1.6162804,0.185924,1.8455492,-1.4554287,2.0237164,-0.020879231,1.7325563,0.6731235,-0.8598534
http://iot.uni-trier.de/FTOnto#BF_Door,0.9064871,0.059280127,0.50771147,-2.3950393,1.3316233,3.7539418,-1.8035868,-1.301861,2.2112095,-0.102449276,0.36411768,1.5391206,2.0635965,-1.0282737,-2.5734246,-0.35111105
http://iot.uni-trier.de/FTOnto#BF_Door_Simple_Piston,1.6208879,-1.1319555,0.6597168,-2.5962155,-0.31536204,3.2871847,-0.80088276,-0.599674,2.8635004,-0.08275505,-0.4772748,0.8667596,0.23859036,0.28387898,-1.9945773,-0.87980086
http://iot.uni-trier.de/FTOnto#MPS_Ejector,-0.18412888,-0.6200651,0.033012897,-3.2144504,-1.0865357,3.582666,-0.46456534,-1.3233185,-1.4927973,-0.22530593,-0.35234594,-0.68084073,-1.0166774,2.447075,0.9153554,-0.22278127
http://iot.uni-trier.de/FTOnto#HRS_Bucket_Blue_3,1.5323482,0.9482998,0.2728335,-0.16358525,-0.9886676,3.0379026,-0.6156635,-0.48083785,0.487491,-0.5854022,-1.0593407,-0.12545097,-1.127753,1.123424,-1.3277943,-1.5691885
http://iot.uni-trier.de/FTOnto#Milling_Service,1.8566312,-0.766587,-1.053579,-1.5265465,0.8775863,3.9666123,1.1459813,-1.6956252,-1.7909114,0.4357037,-3.8870928,-0.8913089,-0.111110315,1.5812584,1.8312838,-0.8537036
http://iot.uni-trier.de/FTOnto#AccSensor_ADXL345_1_x-Axis,1.156805,0.7869866,-0.7913847,-1.2088223,1.9908855,1.6809527,-0.05524261,-1.4370707,-0.2757295,0.30289495,-0.6573788,1.7818834,0.85995024,-2.128725,-1.3696957,-0.84529096
http://iot.uni-trier.de/FTOnto#AccSensor_ADXL345_1_z-Axis,1.102242,0.75129193,-0.78856695,-1.5838795,1.8479328,1.6223909,-0.036169652,-1.6825622,-0.75992227,0.30890536,-0.8592869,1.5037755,0.9529191,-2.004116,-0.90363973,-1.0921912
http://iot.uni-trier.de/FTOnto#BMX055_AccSensor_VGR,2.1742203,2.8928857,-1.1799924,-1.1043463,0.27816474,0.8248686,1.4514899,-1.8561332,0.02231941,1.6237876,-1.2669507,2.2410216,-0.22992057,-0.2453553,-1.6635085,0.7608047
http://iot.uni-trier.de/FTOnto#VGR_Vacuum_Generating_Piston,-1.1826589,-0.19711173,-1.1440881,-2.9809947,-0.8451208,2.7034566,-0.4238996,-1.7606409,-0.40853548,-1.8978719,1.7820331,-0.24648821,0.0555994,0.8122498,-0.60004675,0.47886908
http://iot.uni-trier.de/FTOnto#MachineController,1.7564616,-0.19330266,-0.95077115,-3.9001129,-0.6453644,2.451392,2.3578603,-1.469925,0.2020457,1.2165858,1.8160418,-0.7567193,0.43439385,-1.8166642,1.3149354,-0.17748486
http://iot.uni-trier.de/FTOnto#BMX055_AccSensor_HBW,1.0227796,2.8993614,-1.3951727,-1.9065104,0.9437736,1.1571436,0.8787297,-1.2847408,0.45888248,1.0458213,0.04010578,3.5245914,0.3747618,0.95518655,-1.5385509,0.95854014
http://iot.uni-trier.de/FTOnto#MPS_Turntable,0.5965096,2.65658,1.3475199,-1.5641721,1.0308678,4.34019,-1.3152533,-1.3039858,-1.2777107,-1.0647601,-0.38404664,1.7137007,0.81459236,0.9571985,0.6358649,-2.0952966
http://iot.uni-trier.de/FTOnto#AccSensor_ADXL345_1_y-Axis,0.90838116,0.9152956,-0.84807324,-1.4605224,1.9567702,1.550364,0.05247916,-1.6853529,-0.54717815,0.16481912,-0.6849019,1.6051496,0.9267666,-2.0328689,-1.3460269,-0.995627
http://iot.uni-trier.de/FTOnto#TooHighPressureResult,1.8543013,0.5806188,-1.7473644,-0.24530353,-0.36068204,2.8908634,-0.34796393,-0.54322994,-0.14460373,-0.43557203,-2.5788004,-1.8892884,-0.6171046,-0.749882,-2.183265,0.5063996
http://iot.uni-trier.de/FTOnto#HRS_Bucket_White_3,1.2061967,1.2186661,0.2290226,-0.1997742,-0.8967911,3.0985239,-0.70086634,-0.50735825,0.17461695,-0.9063874,-0.5785054,0.092455804,-1.1295084,1.2386856,-1.2008225,-1.8935112
http://iot.uni-trier.de/FTOnto#HRS_Bucket_Red_1,1.5205069,0.8749137,0.14447458,-0.44472483,-0.9989185,3.0298634,-0.8606087,-0.43089405,0.32752854,-0.9975413,-1.2747669,0.22771144,-1.1157315,1.317305,-1.1270666,-1.7825323
http://iot.uni-trier.de/FTOnto#AccSensor_ADXL345_4,0.9531371,0.9850989,-0.1668609,-1.3219826,2.4695988,2.301821,0.14046043,-1.5455363,-0.90805626,2.3020008,-0.046787832,1.6084023,1.1638837,-0.22898628,-0.57398707,-0.43299478
http://iot.uni-trier.de/FTOnto#HRS_Bucket_White_2,1.5685741,0.83600897,0.23649085,0.063370794,-1.1208048,3.182818,-0.8697951,-0.58265257,0.3670458,-0.49440134,-0.8220502,-0.09595371,-1.166265,1.1767193,-1.2560396,-1.562414
http://iot.uni-trier.de/FTOnto#actuatesHorizontallyForwardBackward,2.3024907,1.711446,-2.362494,-1.2620643,-0.41512358,0.05335704,-3.5075784,-2.8462174,0.556694,-0.97819155,0.9494873,-1.5162612,-1.4874232,-0.24201234,0.25260907,-2.1214194
http://iot.uni-trier.de/FTOnto#SM_Sink_Blue,0.26629514,1.2299435,-0.003584822,-2.926884,0.20793712,1.2240096,1.2683916,-3.243556,-0.024296472,1.2745379,0.17415562,-1.5185305,0.7171485,2.1325536,-2.8239245,1.7549012
http://iot.uni-trier.de/FTOnto#HRS_Motor_1,2.5531766,1.4466419,-2.5960376,-2.685987,-2.8934302,0.7058151,-1.0460318,-1.5865864,0.6710685,-0.027376898,-1.1062168,1.6676807,-0.21932305,1.42889,-0.6564206,-1.8221525
http://iot.uni-trier.de/FTOnto#SM_Sink_Red,0.72286713,1.0844685,-0.020374257,-1.8798691,-0.6873786,1.4962938,1.1479164,-2.2135017,1.1456356,-0.31064922,0.23772624,-0.18640876,0.006077045,2.9636033,-2.1474774,2.2742305
http://iot.uni-trier.de/FTOnto#BF_Crane_Suction_Head,1.5539092,-0.41780186,-0.7531769,-2.0421388,-1.3067485,2.318865,-1.471608,-1.9888642,2.0225155,-1.0193541,-0.5823848,-0.9396649,1.7828151,0.9341858,-1.9261895,1.2794242
http://iot.uni-trier.de/FTOnto#HRS_Bucket_Red_3,1.4596263,1.2337705,0.37805372,-0.34825796,-0.92788947,2.9617367,-0.20947446,-0.48382998,0.60315716,-0.33922145,-0.8599735,-0.20084058,-1.2064695,1.0670019,-1.3933023,-1.8386321
http://iot.uni-trier.de/FTOnto#HRS_Bucket_Blue_2,1.37078,1.0049962,0.06439514,-0.42577916,-0.9033024,2.8816345,-0.80781484,-0.41783783,0.18048692,-0.9452756,-1.1664417,0.31710827,-1.078463,1.3456056,-1.0741023,-1.7943662
http://iot.uni-trier.de/FTOnto#Encoder_Motor,1.5579653,-0.36088118,-1.9346828,-2.3518696,1.4694182,2.9583032,0.84162647,-1.6012632,-2.3879173,0.590972,1.3946913,-1.4111332,1.3714379,-2.9882991,0.9481412,-1.4676276
http://iot.uni-trier.de/FTOnto#VGR_Compressor_7_SSCMRRN03PD2A3_Result_2019-02-26_14_54_03.56,0.31803265,0.10404028,-2.192896,-1.0721503,2.148713,2.307899,0.13674754,-0.98299944,-0.6290863,-1.0909764,-0.8777653,1.9640361,0.26648337,-0.2367603,-2.3576305,2.5329373
http://iot.uni-trier.de/FTOnto#VGR_Compressor_7_SSCMRRN03PD2A3_Result_2019-02-26_14_55_26.44,1.5567427,-1.5709164,-2.2167633,-0.12254432,0.25442293,2.3088007,-1.0704672,-0.8833898,-0.13668412,-1.5934014,-0.8755197,2.0331557,-1.0095246,1.82294,-2.2546554,1.8001764
http://iot.uni-trier.de/FTOnto#AbnormalXAccelerationResult,2.0602508,1.682945,-1.1645192,0.34138706,0.25607026,2.2945764,0.50492936,-0.57245904,1.1717796,0.28028837,-0.2613735,-2.1971738,-0.82418406,-0.74011725,-2.9376738,1.630098
http://iot.uni-trier.de/FTOnto#hasOperationPosition,0.32050022,2.9166045,-2.1834652,-0.3157188,1.5998675,2.6374002,-1.7803022,-2.297373,-2.731777,-0.08413051,0.66427565,-2.0419385,-0.6459081,1.1124772,1.1481651,1.1533723
http://iot.uni-trier.de/FTOnto#NormalAccelerationObservation,1.1046525,1.370739,-3.0673258,-1.2902615,0.8424163,1.9488816,0.9261052,-0.8556126,-2.772943,-1.166224,0.032922603,-1.0479596,-0.7963962,-2.0155997,-0.05795177,-0.4241935
http://iot.uni-trier.de/FTOnto#NormalAccelerationResult,2.4562173,-0.43548557,-2.5445108,-0.25405976,-1.473448,2.3167572,0.35898936,0.19593084,0.8608822,-0.9074417,-0.90416926,0.5821288,-3.0822198,-1.4672292,-1.625269,1.0853221
http://iot.uni-trier.de/FTOnto#VGR_Compressor_7_SSCMRRN03PD2A3_Result_2019-02-26_14_54_24.18,0.81409544,-0.18625984,-0.96944517,0.42333823,1.7793386,3.0200887,-1.2104467,-1.4416946,-0.121567845,-0.054599058,-0.91152847,1.4541838,0.43872255,-0.09567007,-2.5144904,2.678106
http://iot.uni-trier.de/FTOnto#isActuatedVerticallyBy,0.026369425,-0.24116711,-0.94150347,0.08091094,3.0522938,2.5695276,-2.058667,-3.5376296,3.006372,0.44516808,-1.5103679,0.19055434,0.06646705,-0.24992193,-0.71292436,-2.6947303
http://iot.uni-trier.de/FTOnto#VGR_Compressor_7_SSCMRRN03PD2A3_Result_2019-02-26_14_55_36.51,1.6292292,-2.2692065,-0.91551036,0.28146073,1.8305433,3.6965406,-0.78843296,-1.121443,-1.1984115,1.0504756,-1.4744709,-0.081036694,-0.49930274,1.2593961,-2.3244967,1.9874691
http://iot.uni-trier.de/FTOnto#VGR_Compressor_7_SSCMRRN03PD2A3_Result_2019-02-26_14_53_54.97,1.062953,-1.5697207,-1.3495524,-1.0517308,2.2663584,2.7046194,1.0102254,-1.1902462,-1.0155731,1.0352067,-1.6141075,0.033075016,-0.18746051,-0.07036774,-1.9082303,2.577144
http://iot.uni-trier.de/FTOnto#VGR_Compressor_7_SSCMRRN03PD2A3_Result_2019-02-26_14_55_16.45,1.896578,-1.0676919,-1.4426785,0.19798546,0.46849725,2.0228348,0.06727858,-1.9848971,-1.303444,-0.6990508,-2.1918287,0.03665036,-1.5310464,1.009791,-3.0684845,2.402079
http://iot.uni-trier.de/FTOnto#AbnormalZAccelerationResult,1.9034271,2.214555,-0.9998585,0.7197683,-0.64352953,2.6277008,0.97999275,-0.7444774,0.34601074,0.39590678,-0.44813603,-1.8802556,-1.4285445,-0.32768252,-2.4241264,1.2313229
http://iot.uni-trier.de/FTOnto#VGR_Compressor_7_SSCMRRN03PD2A3_Result_2019-02-26_14_54_55.58,0.54388833,-1.0244955,-1.9894396,-1.3441432,1.1577195,1.6268672,0.8932942,-1.8852062,-1.6100863,-1.0841191,-1.3972297,-0.38559836,-0.54534304,1.0912068,-2.2643075,2.5341468
http://iot.uni-trier.de/FTOnto#NormalPressureObservation,2.5173461,-0.5638925,-3.9053953,-2.3987525,-0.13815206,1.093416,-0.56007147,-0.32265073,-1.504648,-1.9653693,-1.968787,-0.52651584,-1.1011554,-0.9569562,-0.41058192,-0.418083
http://iot.uni-trier.de/FTOnto#VGR_Compressor_7_SSCMRRN03PD2A3_Result_2019-02-26_14_54_13.76,0.13225429,-1.4038241,-2.1290305,-1.4430463,0.55159473,2.6951334,-0.5274978,-1.1819595,-0.50927323,-1.6907275,-0.23493488,0.9757464,-0.15587422,1.6610383,-1.6980661,3.2516408
http://iot.uni-trier.de/FTOnto#VGR_Compressor_7_SSCMRRN03PD2A3_Result_2019-02-26_14_55_06.02,-0.3069892,-1.2746868,-1.6199882,-1.4009179,2.1625881,3.1328526,-0.577291,-1.5548877,-1.493939,-0.83597934,-0.26657298,-0.07824963,0.76262975,1.3918543,-1.9405694,2.8849087
http://iot.uni-trier.de/FTOnto#VGR_Compressor_7_SSCMRRN03PD2A3_Result_2019-02-26_14_53_45.12,0.8425842,-1.579379,-1.9542572,-0.53632206,1.5280156,2.2513003,-0.9386882,-1.623885,-1.5310175,-1.5192909,-0.88617206,0.48520154,-0.26042,2.28822,-2.6854055,1.2380595
http://iot.uni-trier.de/FTOnto#VGR_Compressor_7_SSCMRRN03PD2A3_Result_2019-02-26_14_54_34.67,1.6135201,-2.678103,-1.5394435,-0.6152245,0.8008045,2.391758,0.2532996,-1.2004011,-0.75053614,0.15842845,-1.3191812,-0.09560066,-1.0055149,1.6631995,-1.7380615,2.0056436
http://iot.uni-trier.de/FTOnto#VGR_Compressor_7_SSCMRRN03PD2A3_Result_2019-02-26_14_54_45.25,0.6744251,0.13526686,-1.3523504,-0.1891118,2.211402,2.137858,0.19517736,-2.0011933,-1.8200964,-0.33784547,-1.7436678,-0.14762507,-0.019023059,-0.105522715,-2.9708076,2.2732081
http://iot.uni-trier.de/FTOnto#MPS_Compressor_8_SSCMRRN03PD2A3,1.8376701,-1.2142062,-0.34054017,-2.493669,1.2542367,2.0175579,0.13246,-0.9088728,1.1806486,1.4852144,-0.5733451,3.1594892,-0.23843598,0.75873935,-1.3150114,-0.06819777
http://iot.uni-trier.de/FTOnto#Compressor,1.8025937,-1.2491838,-2.9088557,-2.1107461,-1.5140359,2.3718371,1.6242651,-0.40281656,1.7359751,0.31127074,2.6955237,0.0805079,-0.253167,-0.8944456,-0.20469575,0.5684882
http://iot.uni-trier.de/FTOnto#VGR_Compressor_7_SSCMRRN03PD2A3,0.7860279,-1.0309963,-2.348187,-3.3162305,0.72814953,0.7122959,0.13221122,-1.2336415,0.10480108,-0.33975634,-0.32097012,3.1547666,-0.7458911,1.5807858,-2.1798348,0.42837265
http://iot.uni-trier.de/FTOnto#SM_Compressor_8_SSCMRRN03PD2A3,2.022948,-0.78726506,-1.1084192,-1.9808416,0.4731795,0.88902885,1.1536723,-1.2626506,1.1867105,1.3802114,-1.1542438,2.4134173,-0.9762182,-0.2104535,-2.1070285,0.714821
http://iot.uni-trier.de/FTOnto#AbnormalYAccelerationResult,2.1959624,2.5358245,-0.585322,1.0821747,0.06403995,3.325617,1.2034242,-1.4098446,-0.8204016,0.76509196,-0.19281034,-1.9182154,-0.5947525,-1.7317688,-1.5791324,0.89645123
http://iot.uni-trier.de/FTOnto#Ejector,1.2719926,-1.9886252,-1.9921608,-1.5611122,0.6395907,3.534175,0.7266974,-1.0310845,-0.56105644,0.38881683,2.019658,-3.3147554,0.9241227,2.633948,-1.6360235,1.6890186
http://iot.uni-trier.de/FTOnto#BMX055AccelerationSensor,2.8762488,2.7416766,-2.411438,-2.895551,-1.0469801,0.44250694,2.4331973,-0.730258,-0.34224495,-0.9175038,-1.3333278,0.3365596,-1.0733612,0.893011,-0.15789026,-0.56031746
http://iot.uni-trier.de/FTOnto#NormalPressureResult,0.7499085,0.24175307,-2.4504626,-0.93134254,0.2346019,1.7367052,0.3346731,-0.2894384,0.6456068,-1.6722792,-0.2918971,-1.7873706,-0.84581435,-0.14019756,-3.0950036,1.3019848
http://iot.uni-trier.de/FTOnto#ConveyorBelt,4.2923183,0.74266964,-1.4894593,-0.6578223,-0.3599289,1.9273764,1.2022784,0.007629621,0.8404898,1.5336581,-1.3329905,0.040962983,-0.4050005,2.7771797,-1.1256214,-0.28336805
http://iot.uni-trier.de/FTOnto#AccSensor_ADXL345_2_z-Axis,1.3752998,-0.4020091,-1.1426866,-1.9031804,1.1854665,1.0341401,1.0705105,-2.200153,-0.2571048,1.8765891,-0.8721245,0.88048565,0.30482695,-1.8665016,-1.5304437,1.1372102
http://iot.uni-trier.de/FTOnto#hasEndLocation,1.2525172,3.234143,-0.62076706,-0.88875085,0.3296232,2.6244707,-3.2628832,-2.012208,-1.2477387,1.3646547,0.8022409,-1.8528802,-1.3520021,1.7445774,1.5119497,0.2551492
http://iot.uni-trier.de/FTOnto#Workstation,1.8947089,1.3891038,-1.1925479,-2.8203416,1.5445427,2.111375,0.9105799,1.5137222,0.49939126,0.31845024,1.1717135,-2.6745813,-3.4910653,1.1560661,-1.6343958,-0.87233925
http://iot.uni-trier.de/FTOnto#CraneJib,3.965925,-0.6278478,-2.3365583,-1.7479069,0.069515906,1.8697315,-0.5222752,0.27066624,1.833367,-0.8892113,-1.4359486,0.011188791,0.6465905,0.47776496,-2.6522727,-1.7807044
http://iot.uni-trier.de/FTOnto#BF_Lamp_8,2.1443563,-0.36568972,-0.4879875,-1.6564232,-0.6245962,2.502166,-0.9838719,-3.4019775,0.8389683,1.2819488,-0.36545908,-1.0993255,2.3606882,-2.261072,-1.5768789,1.4432147
http://iot.uni-trier.de/FTOnto#Component_Vibration_y-Axis,2.2172637,0.9780338,-3.104146,-0.8960416,0.16637877,2.8011932,0.870773,0.66345924,0.45629817,-2.2249138,2.2028344,-0.5564053,0.24342033,2.084498,-1.7028714,-1.6190816
http://iot.uni-trier.de/FTOnto#AccSensor_ADXL345_3_z-Axis,1.6377026,1.254811,-0.7720441,-1.7789949,1.0772728,0.92634517,0.5348045,-2.921308,-1.819396,2.0511627,-1.9871013,-0.24781996,0.7070887,-1.0835837,-1.283483,-0.06893492
http://iot.uni-trier.de/FTOnto#Color_Sensor_Observation_White,1.3717085,-0.2161153,-2.8042738,-1.6954031,-1.0107437,1.5089369,1.1372597,-0.7402191,-1.2151037,-1.4393696,-0.68701416,-1.02969,-2.048623,0.7819973,-0.14954485,2.5729096
http://iot.uni-trier.de/FTOnto#MachineComponent,2.763138,-0.14035727,-2.550595,-1.3649801,0.8551482,2.1920197,0.041353446,1.6329577,1.2884768,-0.13213776,2.1634889,-1.9574991,-3.32781,0.55801857,-0.6465194,1.4648342
http://iot.uni-trier.de/FTOnto#Piston,1.5212362,-0.6946138,-1.1425593,-4.1854825,0.6307622,2.228032,1.3291041,0.81937414,1.6088263,0.4142318,0.08328548,-1.6119093,-1.0902183,1.2788339,-1.5955147,-0.7160891
http://iot.uni-trier.de/FTOnto#Color_Sensor_Observation_Red,2.0891578,-0.16478845,-3.1624718,-2.0091841,-1.3438948,1.2169482,1.206411,-0.5173253,-0.8384636,-1.5873746,-0.015932502,0.025234452,-2.2084663,0.11658393,0.6704598,1.569353
http://iot.uni-trier.de/FTOnto#AccSensor_ADXL345_3_y-Axis,2.216894,0.9584925,-0.9227229,-0.84136564,0.8843096,1.1728281,0.3815788,-2.223318,-1.3231676,2.1477156,-2.1331005,0.17123713,0.5562574,-1.1490123,-0.6638073,0.06486238
http://iot.uni-trier.de/FTOnto#AccSensor_ADXL345_2_x-Axis,1.1777809,-0.21871425,-1.0685352,-2.0444043,1.1509368,0.7863833,0.91695625,-2.1035948,0.13516013,1.4399571,-1.0060313,0.85762274,0.42448488,-1.6304566,-1.9711137,0.7528135
http://iot.uni-trier.de/FTOnto#AccSensor_ADXL345_2_y-Axis,1.3699775,-0.20869103,-0.9278043,-1.6674515,1.584262,1.4961404,0.9055497,-1.7744339,0.1889059,2.0270832,-0.7278816,1.9328406,0.18967575,-1.7944305,-1.7608663,1.318933
http://iot.uni-trier.de/FTOnto#Component_Vibration_x-Axis,1.1799495,0.8328603,-2.8323953,-1.1290216,-0.032200526,3.4149354,1.5573577,0.4697932,-0.22013824,-1.2813684,2.8050396,-0.7527855,0.17367882,1.013121,0.28268564,-0.8003532
http://www.w3.org/ns/sosa/hasSimpleResult,1.3975261,1.5857642,-2.1089003,-0.8024441,1.2075491,0.34061787,0.59107184,-2.075544,1.3083115,-3.684274,1.6133865,-0.9253437,-2.4666073,-0.76344043,-1.1638764,1.707112
http://iot.uni-trier.de/FTOnto#Sink,2.068277,-0.113374844,-1.9773659,-0.7446588,-1.6747236,3.3410318,0.89133793,-0.1285986,-0.6377546,-0.6772364,0.63854617,-1.8855834,-1.7542583,3.8639877,-1.2909461,0.45066974
http://iot.uni-trier.de/FTOnto#AccSensor_ADXL345_3_x-Axis,2.2630494,0.70221174,-0.8902479,-1.089656,0.7819268,1.2219427,0.51666814,-2.418309,-1.2959441,2.1512544,-2.014716,0.07954212,0.6466346,-1.3888452,-0.5672637,0.15165722
http://iot.uni-trier.de/FTOnto#AccSensor_ADXL345_4_y-Axis,1.1378194,-0.047302824,-0.14940937,-1.4386494,2.579761,2.4020362,0.028099617,-1.5469868,-0.9770098,2.2178972,-0.34739187,0.9629376,1.4249526,-0.24653134,-0.3381367,-0.4476833
http://iot.uni-trier.de/FTOnto#AccSensor_ADXL345_4_z-Axis,1.2299287,0.28388837,-0.3338982,-1.4930776,2.2613015,2.0949535,0.06907085,-1.5329014,-0.80069953,2.5785239,-0.40929434,1.0572456,1.3071406,0.07087751,-0.46617106,-0.20588984
http://iot.uni-trier.de/FTOnto#Color_Sensor_Observation_Blue,2.6368856,0.13169296,-3.245584,-1.9259202,-1.4809833,1.089302,1.1000948,-0.32160556,-0.7951035,-1.7521164,-0.622934,0.27953368,-2.5472744,0.5800342,0.45625472,1.4244357
http://iot.uni-trier.de/FTOnto#Motor,3.383563,-0.1463119,-3.1211684,-2.1988776,-0.052886773,1.7917069,-0.14948003,0.7328957,1.5257646,0.28136602,1.0889928,-0.30978736,-0.055401873,-1.375678,0.7199245,-0.91337097
http://iot.uni-trier.de/FTOnto#AccSensor_ADXL345_4_x-Axis,0.78784245,0.4826931,-0.86192155,-2.4939587,1.9916797,2.0891948,-0.10630777,-2.272325,-1.9318237,2.2543447,-0.31868643,1.1273206,1.4681094,-0.9198088,0.2194575,-0.26924095
http://iot.uni-trier.de/FTOnto#Component_Vibration_z-Axis,1.7843909,0.12839805,-3.455567,-2.0360448,0.93193215,2.4172773,0.7472508,0.24118312,0.4575547,-1.1143938,2.2650466,-0.7788395,1.6758965,0.3685755,-0.7251305,-1.7777145
http://iot.uni-trier.de/FTOnto#SuctionHead,2.5087748,-0.5821899,-1.3618112,-3.0631745,-1.380324,3.1678023,0.16226521,0.28129932,2.2018669,-1.3761295,1.8762801,-2.002136,0.11739987,2.33976,-1.7538873,-1.5744617
http://iot.uni-trier.de/FTOnto#hasStartLocation,0.17918964,1.6646209,-0.95107657,-1.4089007,1.310027,1.7450416,-3.0164828,-1.8391855,-1.0943298,1.5491055,0.6104847,-1.6648692,-2.184218,1.0761503,1.2465081,1.274881
http://iot.uni-trier.de/FTOnto#BMX055_Gyroscope_VGR,1.3990418,1.7601199,-1.927158,-2.030104,0.7643199,0.51465267,1.1529614,-2.0758083,-1.891749,1.6764088,-1.9166936,0.56421053,0.07226836,1.6783206,-1.1840127,1.1334732
http://iot.uni-trier.de/FTOnto#Acceleration,2.6080523,0.73019546,-3.0939717,-2.8087227,-0.6481056,1.3737359,0.27036035,-0.88629466,-0.32747492,-2.0039556,-0.30366987,-2.4715123,0.5179794,1.1469721,1.0050544,0.8171764
http://iot.uni-trier.de/FTOnto#BMX055_Gyroscope_HBW,0.86181635,1.9535911,-1.913374,-2.0067847,1.444295,0.7169542,0.97977823,-1.9932559,-1.8645868,1.5448911,-1.1484736,0.7500017,0.5770012,2.0047832,-1.4582323,1.2936448
http://iot.uni-trier.de/FTOnto#Lamp,2.3076746,-0.62445164,-2.0012937,-0.6455299,-2.1017222,3.4254255,-0.14111009,-0.27370644,0.999103,0.110017225,1.4412539,-1.0005102,-0.77316236,-1.1751759,-0.33417267,-0.5712989
http://iot.uni-trier.de/FTOnto#Workpiece,2.667438,1.4431638,-0.2568342,-0.29478338,2.133306,3.0493257,1.6012338,0.007023724,1.3511579,-0.24084972,0.62085485,-1.2074995,0.7649613,1.2925655,-3.7350876,-0.6788383
http://iot.uni-trier.de/FTOnto#BMX055_Magnetometer_HBW,0.94388795,1.1282538,-2.478143,-2.8985937,-0.24225675,0.7128784,0.63539845,-2.047889,-1.519674,1.4987774,-0.78083575,2.076329,-0.045471337,0.45632473,0.3286028,1.3640409
http://iot.uni-trier.de/FTOnto#SM_Color_Sensor_2_Observation_2019-02-26_14_53_45.12,0.41989842,0.5731527,-3.167326,-2.1098728,-0.5425134,1.1794353,0.026803065,-1.7815621,-1.7006692,-2.1678133,-0.8294839,1.6508465,-0.54112816,0.9587958,-0.8644862,2.7100334
http://iot.uni-trier.de/FTOnto#DirectlyAddressable,1.7969369,0.4380627,-0.39036995,-2.1402779,-1.0518131,3.6151562,1.2918711,0.35174003,0.9315502,1.1718446,1.4124923,-1.7186751,-1.5584196,-0.17478575,0.6765618,-0.20007236
http://iot.uni-trier.de/FTOnto#SimplePiston,1.8197068,-1.475992,-1.1013911,-2.0120807,0.9056796,3.5536742,-0.24632117,-0.6249995,0.36663336,0.9116621,0.616119,-2.9752147,1.4530636,0.36865106,-1.9285254,-1.0178318
http://iot.uni-trier.de/FTOnto#VacuumGeneratingPiston,1.4484109,-1.673813,-2.3408926,-2.6625571,-0.16756257,2.8564882,-0.1846955,-0.4711296,1.2032611,-1.27625,0.83241963,-2.5967944,1.1731569,0.84469175,-2.3028128,0.45977023
http://iot.uni-trier.de/FTOnto#BMX055_Magnetometer_VGR,1.4401929,1.020975,-2.3334181,-2.779426,-0.6818871,0.5159223,0.88481456,-2.0526006,-1.5512136,1.2319586,-1.3652848,1.8115371,-0.46038604,0.3240388,0.5583439,1.0855631
http://iot.uni-trier.de/FTOnto#MillingMachine,3.2887733,-0.42662615,-0.85479826,-1.1885762,-0.9268111,2.7840557,0.5509674,0.43871933,0.37056392,1.2734793,-2.2299752,-0.31006166,-1.8629245,2.1768756,-0.73174375,-0.2505031
http://iot.uni-trier.de/FTOnto#VGR_Position_Switch_1_Observation_2019-02-26_15_07_29.11,0.32360384,1.571517,-2.9748816,-1.4192247,0.8694266,2.4549272,-0.13444705,-1.6953318,-0.66059685,-0.70169604,0.4158596,3.460786,1.1528206,-1.310428,-0.86437863,3.7119946
http://iot.uni-trier.de/FTOnto#Oven,2.3772826,0.12787692,-0.9874794,-1.5379729,-0.77948797,1.9191105,1.8143022,0.21139893,1.8650298,1.0059118,0.21591593,0.18826714,-1.8004475,0.6861025,-2.0391514,-0.23552738
http://www.owl-ontologies.com/mason.owl#previousOperation,-0.48806494,2.4216905,-1.5341711,-0.4259778,2.2995985,2.0008266,-0.33550787,-2.7822263,-1.4910145,0.6785581,0.111682385,-2.2181103,-1.6242375,1.6224803,0.47159216,-0.053277563
http://iot.uni-trier.de/FTOnto#VacuumGripperRobot,2.4538329,-0.0022674666,-2.0486133,-3.0865095,-0.21176736,1.6258678,0.7134629,-0.6852593,-1.1475465,1.3383629,-1.1444088,-1.3327149,0.16062842,0.7757232,0.7757404,-1.2191266
http://iot.uni-trier.de/FTOnto#Component_Acceleration_x-Axis,2.3441439,2.1355617,-1.7931341,0.5562342,0.29516074,3.379307,1.4010416,0.19193561,-1.2423617,0.33192158,0.4515887,-0.87036395,-0.31606862,1.6867691,0.009722149,-0.6916258
http://iot.uni-trier.de/FTOnto#Turntable,3.4511027,-0.66449314,-2.3190236,-1.726086,-0.55707294,2.3673139,0.43502128,1.1950475,0.839254,0.03134964,-0.07326908,0.82703245,-1.7312753,1.34902,-0.8131188,-2.3013117
http://iot.uni-trier.de/FTOnto#SortingMachine,2.8372712,0.3227535,-1.9424117,-3.0024047,-0.22014451,0.90365505,0.89261717,-1.3668613,-0.91376454,1.7304399,-2.0860367,-1.6974853,0.53605133,1.210875,-0.10260263,0.07487322
http://iot.uni-trier.de/FTOnto#FurnaceDoor,2.757633,-0.25269064,-1.2491741,-1.8592904,-0.14090881,1.5623837,1.11679,-0.11331448,2.7215598,0.6981136,-0.03772693,-0.075664856,-0.0115219345,-0.3829561,-2.478012,-0.088962615
http://iot.uni-trier.de/FTOnto#HighRackStorage,3.06472,0.32885322,-1.9547354,-2.654088,-1.2060816,1.8047535,-0.13854672,-0.6845776,-0.86388046,0.6188306,-2.0106478,-1.3976127,0.072624445,0.85039777,0.49068272,-1.6577682
http://iot.uni-trier.de/FTOnto#Passive,1.8471425,0.86521953,-0.2730377,-2.7191374,0.54421556,2.2641354,1.8268381,-0.23187654,1.3667287,1.894412,1.8409855,-2.0389042,-0.4230189,-0.3257878,-0.383984,0.470982
http://iot.uni-trier.de/FTOnto#Component_Acceleration_z-Axis,2.5940502,1.8923817,-2.7439265,-0.69833666,1.0748655,2.3444936,0.96106964,0.17174108,-1.4047676,0.22560626,-0.24018107,-0.7268344,0.5549713,1.2816852,-0.42686757,-1.9899997
http://iot.uni-trier.de/FTOnto#ProcessingStation,2.4750986,0.15646867,-2.3146307,-2.8743603,-0.6129293,1.704972,0.959125,-0.5971841,-1.4187738,1.3461716,-1.0374707,-1.1010249,-0.49506658,1.0662078,0.7137379,-1.102561
http://iot.uni-trier.de/FTOnto#hasService,1.7042602,-0.89685977,0.35813114,-0.5746111,-0.105450295,3.6113942,-1.8477509,-3.9477994,-1.7084749,1.8380529,-1.2074295,-1.3206612,-0.3309269,1.2729965,1.0571598,1.6286596
http://iot.uni-trier.de/FTOnto#Component_Acceleration_y-Axis,2.161166,0.73538417,-2.607573,-0.5316604,0.12086718,3.2452316,0.50750643,0.17130661,-1.5698344,0.06983511,0.53900677,-1.5011237,0.23651785,2.3237484,0.4828521,-0.9540023
http://iot.uni-trier.de/FTOnto#TransportPlatform,3.9379692,-0.06237081,-1.400548,-0.70299345,0.1137783,2.1440794,0.80873716,-0.05090487,2.3741148,1.8043869,0.56958663,-0.6754378,0.46021923,1.4878732,-2.3493803,0.00065081374
http://iot.uni-trier.de/FTOnto#PositionSwitchPressed,2.3466005,0.837673,-2.0502012,-1.3498597,-0.8284557,2.3979309,0.69701105,-1.5430982,-0.7016816,-1.2336739,1.9421169,-2.4764388,0.13770483,-0.57476336,2.0263338,1.2930129
http://iot.uni-trier.de/FTOnto#BMX055Magnetometer,1.4643556,1.8089374,-1.261822,-2.536094,-0.030184468,1.9177549,3.315668,-0.5350871,-1.380098,-0.67566067,0.4665206,-0.96672004,-1.8255546,3.1510658,-0.39470953,0.014645291
http://iot.uni-trier.de/FTOnto#SSCMRRN03PD2A3PressureSensor,0.8770364,-0.25483543,-0.8010479,-4.1944394,0.09698566,2.3609285,3.0088203,-0.75511086,-1.9299843,-0.11548033,-0.062459983,-1.0053792,-1.7965605,1.2378234,1.0291067,-0.20621169
http://iot.uni-trier.de/FTOnto#AccelerationSensor,2.0749717,2.3334188,-1.0739152,-3.2495255,1.5509406,0.9398547,1.7868997,-0.61040235,0.2148769,-0.31209764,0.6665712,-2.306638,0.124295175,-0.43383867,0.60164213,-0.15684563
http://iot.uni-trier.de/FTOnto#SM_Light_Barrier_1_Observation_2019-02-26_15_07_29.11,1.5994893,2.6136708,-2.2525191,0.3151132,-0.13844977,2.66234,-0.8037675,-1.0801588,-1.0456082,-2.0234845,-0.6269417,3.0713625,0.18548696,1.4380018,-0.69008654,2.2809582
http://iot.uni-trier.de/FTOnto#isRealizedBy,1.2136178,1.1804942,-1.6904906,-0.6247498,0.7179721,1.6972823,0.044177815,-3.3004694,-2.4946842,0.9252549,-0.39224923,-2.7270484,-0.46728018,0.047255155,1.2060357,1.0348738
http://iot.uni-trier.de/FTOnto#Milling,1.576038,0.9433434,-0.2640365,-2.2687676,1.2718323,3.09704,1.592783,-0.5815124,-2.7602096,1.55966,-1.5903913,-1.4671158,-1.4579833,-0.6144158,-0.095670365,-1.761978
http://iot.uni-trier.de/FTOnto#Production_Process_1,2.7968428,0.85980296,-0.74200016,0.72615147,1.0922621,1.6041532,-2.9179842,-3.587604,-0.056254312,-2.126724,-0.67195326,-2.615872,-1.3479387,0.6223076,-0.081694216,1.0841488
http://iot.uni-trier.de/FTOnto#BMX055Gyroscope,1.4858408,1.9879124,-0.018482534,-2.7411525,0.1294578,2.3414905,4.036039,-1.1300989,-0.97249496,1.3108584,0.17187129,-1.25273,-1.5361658,1.631678,-0.27163196,0.3831153
http://iot.uni-trier.de/FTOnto#LightBarrierInterruption,2.0219266,1.3102083,-1.6026077,-1.2273306,-0.73921424,2.2344685,0.48771766,-1.9162706,0.05087857,-1.5240866,1.5251637,-3.6592653,1.1615956,0.7748164,0.13138017,1.4584616
http://iot.uni-trier.de/FTOnto#Milling_Service_Desc,0.20120148,0.08553692,-0.87137574,-1.5005053,0.3744749,3.6520946,-0.80324036,-2.8804114,-1.8672332,-2.105861,-0.53051007,-1.0481228,1.6627282,2.0427525,0.30666456,2.1806448
http://iot.uni-trier.de/FTOnto#RedLightReflection,2.1700015,1.4826528,-2.752745,-1.9509884,-0.38819718,0.83550495,0.7126061,-1.3725958,-0.14652473,-0.9675525,1.0292201,-3.1302612,-0.46957406,0.40856102,0.65567636,1.7876818
http://iot.uni-trier.de/FTOnto#hasProcess,1.7698803,-0.5027927,1.2125247,0.23157811,2.2001255,2.368187,-1.753604,-3.0311296,1.4525317,-0.54656565,-1.9213833,-1.0381722,-1.7503457,-0.19983931,-0.39609647,0.16322933
http://www.w3.org/ns/sosa/isObservedBy,3.2015698,3.4983258,-0.94061744,-2.4881797,0.12101262,1.9706645,0.9290771,-0.78379315,1.9509147,-0.51742816,-1.8496616,-1.4102094,0.37684765,-0.35719317,1.1548121,0.41679177
http://iot.uni-trier.de/FTOnto#FT_Workpiece_Blue_1,1.2155299,-0.51917607,-1.1583738,-1.1898563,1.6134363,3.1981635,-1.6276463,-0.20347051,-0.98788625,0.98328334,-1.0095274,1.3398185,0.70672,0.7044856,-0.69747657,-1.0910453
http://www.w3.org/ns/sosa/hasResult,1.4081864,2.5056252,-2.786877,-2.2442272,1.2025714,2.7884312,-0.7222054,0.82304657,1.7371414,-1.4271051,-2.2089896,-3.2271328,-2.1201806,-0.52860045,-0.8555669,0.5555589
http://iot.uni-trier.de/FTOnto#Light_Barrier_Observation,1.2778035,1.1962786,-2.1796846,-2.4707756,0.7332075,1.5596644,2.4934003,-0.13770172,-0.89865416,-2.7899876,1.9272796,-0.67626286,-1.2631545,1.8581548,-1.3562007,-0.9050815
http://iot.uni-trier.de/FTOnto#isStoredBy,1.9608599,0.72779435,0.6603614,-2.0268826,2.6927838,1.4769278,-2.2354167,-1.1750069,1.1809179,-0.3997323,0.3933221,-2.0097883,-2.101774,3.6357791,-1.5011847,-0.22178738
http://iot.uni-trier.de/FTOnto#hasDescription,0.35245764,0.07590703,-1.9114426,-0.22420923,2.2141466,2.8223412,-0.26105514,-2.9053833,0.20060393,0.41867185,-2.945233,-2.1580336,-0.21585257,1.701238,2.06748,-0.4758669
http://iot.uni-trier.de/FTOnto#FT_Workpiece_Red_1,1.2554573,-0.54658604,-1.157879,-1.2954917,1.4904106,3.1959949,-1.5822196,-0.18080196,-0.91739523,1.1634479,-1.1069982,1.3112127,0.6143782,0.48862875,-0.7544089,-1.0952046
http://iot.uni-trier.de/FTOnto#isActuatedHorizontallyForwardBackwardBy,1.515749,1.0577313,-1.910369,-1.0118397,-0.69713044,1.049523,-2.1790185,-1.5707386,0.6580599,-2.4167137,1.243222,-1.9487854,-2.1880238,0.7146197,-1.5661962,-2.4572055
http://iot.uni-trier.de/FTOnto#Process,3.5127196,1.6730996,-1.5653235,0.09572262,-1.0230656,1.364196,-0.48869324,-1.9892704,-0.4754642,0.353827,-1.916442,-2.6700895,-1.2020918,-0.4863741,-0.07789635,1.2632153
http://iot.uni-trier.de/FTOnto#hasArray,2.6845582,1.889842,0.041209627,-0.4540464,0.9533685,2.5975695,-2.2758327,-1.669744,0.84164435,-1.1107593,-1.6643461,-4.5408278,-2.0456333,-0.41421524,-0.22480704,0.96809214
http://iot.uni-trier.de/FTOnto#Position_Switch_Observation,1.8678312,-0.03942734,-3.4849992,-3.0303235,1.2318773,1.1285963,2.4033911,-0.25892657,-0.17141186,-2.5890305,2.3338513,0.09997981,-0.4419934,-0.18848729,-1.7761129,-0.6210557
http://www.w3.org/ns/sosa/Observation,3.8371315,0.17895445,-3.2100706,-2.1487086,2.812723,2.438523,0.935747,0.9392502,-0.670818,-0.96933985,-0.6917998,-0.7964435,-1.0479112,-0.3921396,1.8336759,1.7795987
http://www.owl-ontologies.com/mason.owl#Machine_resource,2.962328,-0.04707519,-0.80044246,-2.7855182,0.793597,1.9820095,0.469046,0.2060482,-0.24034655,0.8703194,-0.4788992,-2.058395,-2.0593822,-0.24893314,1.687732,0.3624951
http://www.w3.org/2002/07/owl#unionOf,0.42108864,1.5179224,-3.6752136,0.5054773,-0.89093316,5.1533194,-1.439758,-0.692846,0.8940144,-0.609424,-0.047268663,-1.669561,-0.077147245,-2.1577153,-0.92418927,1.1527808
http://www.w3.org/ns/sosa/Sensor,2.9707305,1.2073891,-2.1284297,-3.979474,-0.4118764,3.0647476,3.382003,0.18539487,1.3120055,0.25856078,-1.64057,-0.43572465,-1.3800287,0.20791909,0.80487734,3.0930088
http://www.w3.org/ns/sosa/ObservableProperty,4.9582524,2.9193864,-1.5147194,-1.3817464,1.7596219,2.2862756,0.89123094,1.0860816,2.0742426,-0.5062879,1.6167454,-2.056679,-0.8668552,0.6813086,1.5881197,0.970233
http://iot.uni-trier.de/FTOnto#MPS_Motor_3_Vibration_y-Axis,1.3335835,0.36681592,-1.5778519,-0.7276164,1.2731043,2.2998216,-0.7015095,-1.3942659,-1.1034887,1.1077716,-0.8124232,-0.5015336,2.0603764,1.0733949,-0.7088109,0.24281779
http://iot.uni-trier.de/FTOnto#MPS_Motor_3_Vibration_x-Axis,0.69107395,0.88979435,-1.3655283,0.38877147,1.5427874,3.4730139,-0.3769809,-0.755471,-0.769179,1.008382,0.8877671,0.69020075,1.2940571,0.4787924,-1.1008229,0.6944941
http://iot.uni-trier.de/FTOnto#SM_Compressor_8_Vibration_x-Axis,0.7322778,0.9283876,-1.2796823,0.44995522,1.588427,3.4976165,-0.40816784,-0.67589366,-0.803288,1.112343,0.71086776,0.86307573,1.1802125,0.42018592,-0.9983217,0.7527372
http://iot.uni-trier.de/FTOnto#HBW_1_Crane_Jib_Acceleration_x-Axis,-0.4947363,1.0634387,-1.9260851,-1.6180149,1.1019036,2.1300569,-0.3564068,-1.4761392,-1.2879707,-0.36249432,1.0476986,-0.8559037,1.3846226,1.6990585,-2.3253067,-0.1748041
http://iot.uni-trier.de/FTOnto#VGR_1_Crane_Jib_Acceleration_z-Axis,-0.30291787,2.197999,-1.886612,-1.9635986,-0.10799148,2.2050884,0.037079643,-1.2666905,-0.7953154,-0.47323027,1.4184953,0.82843673,1.0628731,2.2876458,-0.73975146,0.353648
http://www.owl-ontologies.com/mason.owl#Handling,1.8392028,0.6163987,0.2974431,-0.11111357,0.3474231,3.5356083,2.1185496,-1.8327885,-1.587859,1.0479451,1.0798101,-1.9414623,-0.10171608,1.1617613,0.3879245,-0.12107756
http://iot.uni-trier.de/FTOnto#MPS_Motor_3_Vibration_z-Axis,0.1766725,0.10630736,-2.5457485,-1.7124158,0.715213,2.4753678,-0.75793576,-0.9328605,-1.4481848,0.2704381,0.7143006,1.0232391,1.4332069,0.826363,0.29623318,0.18788739
http://iot.uni-trier.de/FTOnto#HBW_1_Crane_Jib_Acceleration_y-Axis,0.59800255,2.003033,-2.3073199,-1.0537187,0.83531284,1.5994108,-0.54193974,-0.9783292,0.22901161,-0.70268846,0.2089039,1.2649812,1.6739008,1.1539036,-2.541971,0.15055795
http://www.owl-ontologies.com/mason.owl#Mechanical_Loss_of_volume,1.2558877,-0.041487753,-0.6189697,-2.6162202,1.8070365,2.1369765,0.48570848,-0.57213515,-0.9497985,0.7261265,-0.44573826,-3.6751647,-0.73137975,0.41106585,-1.5985839,-0.27437606
http://iot.uni-trier.de/FTOnto#SM_Motor_1_Vibration_y-Axis,1.2385995,0.31455365,-1.5659325,-0.8030668,1.1843896,2.372692,-0.6997619,-1.2859079,-1.1251866,1.0057708,-0.8346381,-0.53227884,2.0238278,1.0979029,-0.6873183,0.36775085
http://www.owl-ontologies.com/mason.owl#Wood,3.1899989,-0.71186537,-0.16475798,-1.3285828,2.120187,2.3743522,0.01635941,0.03988055,-0.5319998,0.7855963,-2.0227175,-1.1219507,-0.77771294,-0.5643534,-0.46993387,-1.0678229
http://iot.uni-trier.de/FTOnto#SM_Motor_1_Vibration_x-Axis,0.7394219,0.692672,-1.1940247,0.5156756,1.5633662,3.687489,-0.4318961,-0.6036008,-0.79210895,1.0309968,0.74635506,0.7054304,1.1517106,0.68256867,-1.0025991,0.67286295
http://iot.uni-trier.de/FTOnto#DifferentialPressure,2.426588,0.19612008,-1.1671785,-1.3834056,-0.33220747,1.990232,0.50347257,-0.5053516,0.43794686,-0.63045573,1.7360983,-2.7341907,-0.38238293,1.4615742,1.0156679,0.9170664
http://iot.uni-trier.de/FTOnto#SM_Compressor_8_Vibration_z-Axis,0.31196028,0.065828905,-2.48968,-1.6038605,0.7127065,2.494011,-0.7126277,-0.8990067,-1.3051023,0.2285526,0.78872633,0.94117,1.4741077,0.942904,0.3284588,0.14555879
http://iot.uni-trier.de/FTOnto#SM_Motor_1_Vibration_z-Axis,0.09819755,0.10114521,-2.5788944,-1.5278703,0.7621205,2.3575528,-0.6458575,-1.0186765,-1.3917593,0.22656842,0.71269655,0.874813,1.4137918,0.8289556,0.24868834,0.1943583
http://www.w3.org/2002/07/owl#intersectionOf,1.0490278,2.4664814,-4.6162734,-0.115895994,0.28170833,3.3262486,0.62237024,0.18637842,-1.0041139,-1.4759164,0.43714496,-0.89268345,-2.651839,-0.38036793,0.51576054,1.6803964
http://iot.uni-trier.de/FTOnto#HBW_1_Crane_Jib_Acceleration_z-Axis,-0.37106162,2.0725858,-1.822334,-1.8938855,-0.035930295,2.164343,-0.041649476,-1.1842563,-0.7812276,-0.53813726,1.3133368,0.86273205,0.9606257,2.3660293,-0.69975424,0.40638563
http://www.w3.org/2000/01/rdf-schema#isDefinedBy,0.17960298,3.7587533,-1.7997835,-1.9358757,-0.8933075,3.0813768,0.74711305,-0.9477141,-0.012001141,0.76784396,1.7623527,-0.8816052,-0.46133754,0.7117054,0.011333357,1.7068133
http://iot.uni-trier.de/FTOnto#hasURI,1.3096796,-0.22168541,-1.2878625,-1.044784,2.6737468,2.2778888,-0.2873704,-2.2442484,-0.31622452,1.8831881,-3.3100739,-2.396576,-0.6771809,1.0359474,0.9897467,0.4666293
http://iot.uni-trier.de/FTOnto#SM_Compressor_8_Vibration_y-Axis,1.3425057,0.3251698,-1.5112742,-0.8223322,1.277901,2.369692,-0.6893172,-1.2904477,-1.1641747,1.0706277,-0.8832836,-0.4511905,2.0189414,1.0105773,-0.61728656,0.24182427
http://iot.uni-trier.de/FTOnto#VGR_Motor_1_Vibration_y-Axis,1.3041523,0.26478183,-1.5811651,-0.7590625,1.1463923,2.2989354,-0.74015814,-1.2985091,-1.0601618,1.1185693,-0.8516212,-0.50003946,2.0108888,1.0390472,-0.63076365,0.18308246
http://iot.uni-trier.de/FTOnto#FT_Factory,0.55769837,1.3319719,-0.32768127,-2.0125813,0.5530933,2.4874053,-0.38806847,-0.8272507,0.43123165,-1.3386459,-0.36228925,2.1683216,1.101321,2.3658688,-0.2108562,0.5499014
http://iot.uni-trier.de/FTOnto#VGR_Motor_1_Vibration_z-Axis,0.13101475,0.1548903,-2.524598,-1.6913127,0.6747793,2.350915,-0.81582534,-1.045905,-1.4657613,0.22436118,0.7268808,0.97737455,1.4560202,0.8074798,0.3369267,0.22570962
http://iot.uni-trier.de/FTOnto#VGR_1_Crane_Jib_Acceleration_y-Axis,0.6763043,1.9543791,-2.1275408,-1.02426,0.85066694,1.4964463,-0.54887956,-1.0428189,0.32627395,-0.84584105,0.2154087,1.2435595,1.6977195,1.208068,-2.434804,0.31773314
http://iot.uni-trier.de/FTOnto#VGR_1_Crane_Jib_Acceleration_x-Axis,-0.49770242,1.1315849,-1.9624081,-1.6027346,1.057488,2.1329036,-0.3725626,-1.4676338,-1.3298246,-0.33944577,1.0352774,-0.8469086,1.2981101,1.7562928,-2.3293183,-0.15195201
http://iot.uni-trier.de/FTOnto#VGR_Motor_1_Vibration_x-Axis,0.6672169,0.9364802,-1.2356418,0.43345353,1.6179938,3.632414,-0.4026792,-0.6420255,-0.8990766,0.9254038,0.71320176,0.8476854,1.2540457,0.5494681,-1.0074975,0.7586158
http://www.owl-ontologies.com/mason.owl#Manufacturing_concept,2.2539244,-0.7176152,-0.860616,-2.2526193,1.1879091,0.88054913,-0.14636981,-1.0112547,-0.71052134,-1.2876078,-0.778087,-2.5558825,-1.5245776,1.3677834,-1.2282397,-1.0236336
http://iot.uni-trier.de/FTOnto#Service,1.6473061,-0.94432247,-0.30339876,-1.5225037,1.4588512,1.9581711,0.93849385,-2.0741546,-0.87501264,-0.54200006,0.08717444,-2.5445094,1.2258661,1.0792704,-1.2179949,-0.29417
http://iot.uni-trier.de/FTOnto#serviceID,1.3570375,-0.087984666,-1.7200645,-1.0646573,2.5275977,2.542253,-0.7526464,-2.5803323,-1.6193218,-1.8062184,-1.3503084,-2.540441,-0.11061445,-0.18456441,1.2788798,0.46937498
http://iot.uni-trier.de/FTOnto#serviceDesc,0.11270614,-1.102409,-1.4100047,-1.2733848,1.5305439,2.6577592,0.6041357,-3.4868095,-0.29136467,-2.0000484,-1.1493669,-1.9720895,-0.35584784,0.59434235,1.3169844,0.16308232
http://iot.uni-trier.de/FTOnto#hasArrayPosition,0.7635971,0.4461605,-1.6741647,0.802471,1.1416831,2.9059641,-2.3482394,-2.0261571,-0.47139788,-1.5566946,-1.0579137,-2.5807397,-2.2355216,-0.03539665,0.021536736,0.8073239
http://iot.uni-trier.de/FTOnto#recievesWorkpieceFrom,1.0314627,0.48023763,-3.0672429,-1.4927137,0.14251496,1.0568552,-0.99210554,-1.7101032,0.98381066,0.723399,0.702575,-1.6763715,-0.13546269,3.0401251,-1.6645647,1.15492
http://iot.uni-trier.de/FTOnto#WorkpieceColor,0.42431736,0.51312006,-0.7312391,-1.0427377,1.0903041,2.6477795,0.50163615,-0.81418943,0.34699827,-0.8024119,0.38736728,1.204188,1.422232,1.7418808,0.089677565,0.3052338
http://iot.uni-trier.de/FTOnto#VGR_Motor_1_Full_Retraction,0.4026032,0.5489914,-0.67020583,-1.0657904,1.1919016,2.6129677,0.34666777,-0.82142127,0.2901909,-0.70359004,0.38395834,1.1783922,1.5522928,1.6361828,0.016398884,0.26743072
http://iot.uni-trier.de/FTOnto#hasProcessID,1.6437659,0.13335143,-0.96096903,-0.5270614,3.0912585,2.4218302,-3.392703,-1.4600596,0.20888747,-1.5964336,-1.1994547,-2.0117815,-0.85105926,0.29296964,0.15441748,0.7163824
http://iot.uni-trier.de/FTOnto#VGR_Motor_1_Vibration,0.39793494,0.24478449,-1.0390365,-0.5294628,-0.0937466,1.4080893,-0.9156418,-2.1065707,-0.9473345,-1.0152768,-1.712512,0.034134995,0.2371981,0.3356316,-1.2302215,0.2663062
http://iot.uni-trier.de/FTOnto#isStartLocationOf,0.47804123,-0.0005562125,-1.1550341,-0.524112,1.3497875,3.0871778,-1.4611187,-1.4874455,-0.54530257,1.7541144,0.6264221,-1.1116539,-0.7351197,2.5414195,1.2150488,1.2489154
http://iot.uni-trier.de/FTOnto#isActuatedRotationallyAroundVerticalAxisBy,1.5201725,0.50298387,-2.3703253,-1.2392629,2.5180357,2.177263,-2.8866642,-0.9250611,0.5074618,-1.2929652,0.5797453,1.1634136,0.16189367,-0.012459322,1.9164732,-1.4733734
http://iot.uni-trier.de/FTOnto#stores,1.3586414,0.74524426,-0.41170147,-0.9767826,2.6644695,2.0295115,-1.0806806,-0.93462306,1.5526332,-0.31176385,0.56216955,-0.68243384,-0.72607636,4.2332196,-2.0783165,-0.24195808
http://iot.uni-trier.de/FTOnto#isEndLocationOf,1.9886367,2.0032914,-0.6748554,-0.11148532,1.0228195,3.2438023,-1.0742997,-1.0898612,-0.8414627,1.8364124,0.886429,-0.6446966,-0.87233114,3.030289,1.6969519,0.45841178
http://iot.uni-trier.de/FTOnto#MPS_Compressor_8_Output_Pressure,0.41467372,0.28984722,-0.9472941,-0.095820375,-0.3264846,1.7535064,-1.2606636,-1.7801142,-0.69478905,-0.8734509,-1.4213884,0.3651755,0.14047152,1.0568402,-0.8546911,0.63958955
http://www.w3.org/ns/sosa/Result,3.2455451,-0.8135445,-2.115687,-1.0383531,2.6364553,2.1654875,0.9973548,0.8468341,1.0477008,0.62495345,0.036774617,-1.1850414,-0.8786455,0.48905447,0.027822057,2.023516
http://iot.uni-trier.de/FTOnto#Operation_Sequence,2.6915028,1.9744772,-0.43172127,-0.26066577,0.18946566,1.8929228,0.20065244,-1.2095686,-0.10961377,-0.051481884,-1.7627083,-2.8188772,-0.52729,-0.055476326,-0.034460694,0.35909072
http://iot.uni-trier.de/FTOnto#VGR_Compressor_7_Output_Pressure,0.3430266,0.27029893,-1.2055887,-0.51623636,-0.18541747,1.5333513,-1.2583218,-1.8478072,-0.9848951,-0.85407984,-1.6746083,0.10339689,0.37359372,0.26905325,-0.86766887,0.3196811
http://www.owl-ontologies.com/mason.owl#Building,2.1744795,-0.17637065,-0.4631095,-0.79550666,1.3107362,2.0932796,2.0600536,-1.3338041,-0.49412644,-0.44193834,0.90796137,-0.9440194,0.77563864,1.0165641,0.4976714,-0.5688681
http://www.owl-ontologies.com/mason.owl#Operation,2.89999,0.9629851,-1.2101223,0.76831436,0.73840153,1.255578,0.60184646,-1.3748603,-0.477501,1.0758599,-1.9338042,-1.4252663,-1.238339,-0.5042919,-1.4988619,-0.49836576
http://www.w3.org/ns/sosa/FeatureOfInterest,1.2250799,-0.07329438,-0.10080339,-2.060991,1.416291,3.3524084,2.1916482,-0.7165536,0.4895376,-0.92912173,1.3382214,0.42358157,0.86032563,1.1499928,0.6713262,-1.0058898
http://iot.uni-trier.de/FTOnto#FT_Workpiece_Red_Light_Reflection,0.29386556,0.43243176,-0.9752525,-0.5498428,0.015302426,1.4278088,-0.9837207,-1.9236431,-0.9434745,-0.84907836,-1.7539265,0.17604758,0.28464258,0.5937946,-1.0592061,0.36933595
http://iot.uni-trier.de/FTOnto#SM_Compressor_8_Output_Pressure,0.45205295,0.27298504,-0.9653181,-0.037161548,-0.08123135,1.7675903,-1.2755997,-1.8824542,-0.9323603,-0.63055533,-1.5481651,0.042032618,0.22916973,0.24592489,-1.1650791,0.47766462
http://iot.uni-trier.de/FTOnto#Description,1.5734472,-0.64965725,-1.2913266,-0.4790418,0.8038126,2.47363,1.4552784,-1.2152331,-1.3496035,-1.0037298,0.46134064,-1.1324112,0.18461524,1.0814081,0.46025574,-0.56443757
http://iot.uni-trier.de/FTOnto#SM_Compressor_8_Vibration,0.10724995,0.16617247,-0.7743643,-0.46706742,0.0064352313,1.7371297,-0.25660622,-1.1875762,-0.32271975,0.16736162,-0.53468144,0.67972875,0.4405722,0.39333853,-0.90495753,0.17660208
http://iot.uni-trier.de/FTOnto#HRS_Position_Switch_6_Pressed,0.16453107,0.24221823,-0.76564664,-0.48994452,-0.0011195997,1.7500814,-0.25213364,-1.2000262,-0.3531181,0.13105449,-0.55554086,0.6634781,0.3917664,0.36070713,-0.8649581,0.19146152
http://iot.uni-trier.de/FTOnto#BF_Position_Switch_1_Pressed,0.0851242,0.241341,-0.7830634,-0.49349773,0.05024055,1.6991167,-0.25659522,-1.169806,-0.26907417,0.19007993,-0.61409247,0.63212645,0.35919762,0.4169046,-0.877819,0.1277714
http://iot.uni-trier.de/FTOnto#MPS_Position_Switch_2_Pressed,0.16215323,0.22409593,-0.77027303,-0.483587,0.058278594,1.7128059,-0.3181701,-1.1328305,-0.36051023,0.24759084,-0.6552334,0.64884824,0.35005677,0.4613748,-0.8211062,0.16021073
http://www.owl-ontologies.com/mason.owl#Entity,1.752776,-0.41221657,-1.0867555,-0.35298505,0.482276,1.0095137,0.95972687,-0.8212933,-0.28971508,0.13781704,0.21899141,-1.1388454,-0.71357137,0.3108492,-0.45962638,-0.512424
http://iot.uni-trier.de/FTOnto#SM_Light_Barrier_6_Interruption,0.2330597,0.23590964,-0.77186877,-0.49960944,0.06089362,1.760716,-0.3657344,-1.1496853,-0.42796886,0.20616315,-0.67473954,0.6849331,0.42368957,0.45136717,-0.8836266,0.20849584
http://www.w3.org/ns/sosa/Actuator,1.0193682,0.7512785,-1.466881,-2.7278004,-1.1556278,2.516128,-0.47490504,-0.6513236,1.1765171,-1.1891797,-0.34722444,-1.284684,-1.1208502,-0.9288216,0.3955921,1.3498048
http://iot.uni-trier.de/FTOnto#HRS_Light_Barrier_1_Interruption,0.10085022,0.22892542,-0.73393637,-0.43978038,0.05532971,1.7855778,-0.30952808,-1.1366853,-0.36563855,0.18690619,-0.63114643,0.7307833,0.3003055,0.46069065,-0.9249375,0.16702335
http://www.owl-ontologies.com/mason.owl#Material_resource,1.7267414,-0.35552424,-0.98784727,-0.33651996,0.4185934,1.0100594,0.9667388,-0.82721627,-0.26518452,0.056437846,0.28419268,-1.1620945,-0.7435558,0.27421635,-0.37028784,-0.4830743
http://iot.uni-trier.de/FTOnto#SM_Light_Barrier_3_Interruption,0.20920186,0.20888428,-0.6834003,-0.44201854,-0.038830787,1.6865875,-0.17929119,-1.0936462,-0.27157784,0.15393002,-0.61418,0.65384126,0.31978703,0.4834694,-0.8000833,0.13949509
http://iot.uni-trier.de/FTOnto#HBW_1_Crane_Jib,0.09783544,0.21439654,-0.7778812,-0.37794486,-0.009979785,1.7858483,-0.2498968,-1.1584649,-0.27842882,0.15682128,-0.65658593,0.6849391,0.3489831,0.5270146,-0.8134294,0.1449702
http://iot.uni-trier.de/FTOnto#BF_Position_Switch_2_Pressed,0.19705926,0.22088009,-0.7517812,-0.40838504,0.038060162,1.831971,-0.26647916,-1.1028104,-0.374047,0.13630146,-0.6808025,0.67132807,0.33575282,0.47626075,-0.86205506,0.19384696
http://iot.uni-trier.de/ftonto/milling_service,1.10095,-0.24105383,-0.22672856,-0.7571125,1.2050756,2.1186614,0.8297188,-2.5622048,-0.73654395,0.56937784,-1.1291223,-1.874425,0.20240468,-0.098409496,0.19850782,0.9153501
http://iot.uni-trier.de/FTOnto#VGR_Position_Switch_3_Pressed,0.09973328,0.19103456,-0.7847022,-0.35469854,0.03256275,1.7931622,-0.25731012,-1.1097809,-0.32239482,0.20981298,-0.65283424,0.7528517,0.3073872,0.47733128,-0.9268719,0.110835835
http://iot.uni-trier.de/FTOnto#HRS_Position_Switch_8_Pressed,0.11355105,0.16122465,-0.73409307,-0.35802722,-0.0067139156,1.7848288,-0.23376237,-1.0880225,-0.25919563,0.16574907,-0.62473166,0.72669977,0.2827524,0.44651577,-0.88531387,0.1248257
http://iot.uni-trier.de/FTOnto#SM_Light_Barrier_8_Interruption,0.16483678,0.20735253,-0.6923815,-0.3852893,0.08920426,1.6785045,-0.36996335,-1.0570537,-0.33874956,0.19921112,-0.617507,0.6758534,0.2987096,0.46361983,-0.87717026,0.21012828
http://iot.uni-trier.de/FTOnto#BF_Light_Barrier_5_Interruption,0.12267571,0.18025476,-0.7850549,-0.43128756,0.040445317,1.8131133,-0.23383418,-1.2000958,-0.2656545,0.19778529,-0.7448751,0.72498626,0.4349961,0.48287526,-0.86898756,0.09633952
http://iot.uni-trier.de/FTOnto#HBW_1_Crane_Jib_Acceleration,0.11671609,0.14181587,-0.7520548,-0.37382165,0.12669836,1.7936109,-0.3882536,-1.1437731,-0.36721006,0.17310946,-0.63836026,0.69625294,0.3442535,0.4802735,-0.9136674,0.111208804
http://iot.uni-trier.de/FTOnto#SM_Motor_1_Vibration,0.13103047,0.13980222,-0.6927467,-0.4373127,0.057142768,1.7566159,-0.32736045,-1.121389,-0.31993595,0.1766147,-0.6687765,0.6911349,0.35610843,0.43073383,-0.88233143,0.12630136
http://www.owl-ontologies.com/mason.owl#Logistic_operation,1.7688823,-0.43589503,-1.0468934,-0.26787496,0.48991144,1.0266936,1.023728,-0.8114142,-0.29712462,0.21273448,0.22524264,-1.1905621,-0.71517175,0.32342696,-0.42814904,-0.56252664
http://iot.uni-trier.de/FTOnto#MPS_Motor_3_Vibration,0.20865601,0.16842031,-0.7006473,-0.43188733,0.05066694,1.761211,-0.2606265,-1.1159012,-0.35341886,0.15657394,-0.65317065,0.6715174,0.35228652,0.43310893,-0.8003269,0.1108206
http://iot.uni-trier.de/FTOnto#VGR_1_Crane_Jib_Acceleration,0.10478745,0.18191206,-0.7083664,-0.4512711,0.022665434,1.7661467,-0.23011641,-1.129457,-0.34080127,0.14987478,-0.59921163,0.6940662,0.3281448,0.46379164,-0.78352714,0.11307022
http://iot.uni-trier.de/FTOnto#MPS_Position_Switch_1_Pressed,0.1518542,0.16951539,-0.74411184,-0.4138183,0.026367368,1.7974634,-0.32412788,-1.1276281,-0.40286195,0.20691457,-0.63257754,0.7204373,0.3129334,0.43451506,-0.8143447,0.13869601
http://iot.uni-trier.de/FTOnto#HRS_Light_Barrier_4_Interruption,0.18242644,0.187393,-0.73565507,-0.45361608,-0.019986883,1.7732152,-0.19346339,-1.1172779,-0.31527376,0.19893469,-0.56279695,0.7310687,0.31920016,0.43473926,-0.8030629,0.12582822
http://iot.uni-trier.de/FTOnto#HBW_1_Crane_Jib_Magnetic_Field_Strength,0.15980192,0.16387306,-0.7503423,-0.46478212,0.0005969791,1.7548766,-0.17234121,-1.080895,-0.27845383,0.20464936,-0.5453684,0.6241706,0.3394887,0.3786823,-0.7436339,0.096904464
http://iot.uni-trier.de/FTOnto#MPS_Position_Switch_3_Pressed,0.051379345,0.1736117,-0.81612027,-0.44358474,0.07776072,1.8042707,-0.24080013,-1.1405874,-0.30168745,0.22834595,-0.6188841,0.65251315,0.34201995,0.43039548,-0.8009066,0.070195064
http://iot.uni-trier.de/FTOnto#BF_Position_Switch_3_Pressed,0.098577194,0.13999663,-0.7987456,-0.50093347,0.0014543813,1.7690697,-0.20553817,-1.1545036,-0.31158382,0.19754528,-0.6244247,0.6619037,0.3608146,0.38856557,-0.7683779,0.060707245
http://iot.uni-trier.de/FTOnto#SM_Light_Barrier_1_Interruption,0.099268794,0.15263985,-0.7967836,-0.5026698,0.04677393,1.7463387,-0.31691504,-1.1832043,-0.33422163,0.19526853,-0.56397855,0.7021382,0.36996686,0.43820557,-0.81249124,0.10655749
http://iot.uni-trier.de/FTOnto#VGR_1_Crane_Jib_Magnetic_Field_Strength,0.13281646,0.17414413,-0.746675,-0.4752853,-0.0061750156,1.7328557,-0.318633,-1.1438684,-0.3351116,0.22321056,-0.5710414,0.6394433,0.4041213,0.4173842,-0.78316164,0.15970168
http://iot.uni-trier.de/FTOnto#SM_Light_Barrier_7_Interruption,0.06498929,0.21591443,-0.79319984,-0.49690658,0.02856751,1.7332591,-0.18468787,-1.185161,-0.2974578,0.16898994,-0.6616106,0.6614629,0.3787106,0.35267857,-0.7984166,0.1333299
http://iot.uni-trier.de/FTOnto#HRS_Position_Switch_7_Pressed,0.16702168,0.25262475,-0.7616343,-0.46545097,0.016282424,1.7113141,-0.20260096,-1.1950835,-0.32824963,0.21139593,-0.65263826,0.5897668,0.38293266,0.4287772,-0.82935816,0.1351951
http://iot.uni-trier.de/FTOnto#HBW_1_Crane_Jib_Rotation,0.08030776,0.23215286,-0.79400456,-0.50961363,-0.041434914,1.7342689,-0.20179857,-1.160293,-0.2503384,0.18350676,-0.68850833,0.69318193,0.38373876,0.43839732,-0.81344295,0.110121064
http://iot.uni-trier.de/FTOnto#MPS_Motor_2_Vibration,0.13465169,0.25883016,-0.80650675,-0.5004861,-0.005164193,1.707773,-0.25804946,-1.1176987,-0.3520041,0.1997478,-0.5992377,0.6853878,0.35320678,0.46085215,-0.84063864,0.15456635
http://iot.uni-trier.de/FTOnto#VGR_1_Crane_Jib,0.13226734,0.24191442,-0.8200071,-0.4869968,-0.017971817,1.764797,-0.24643335,-1.2021959,-0.31090784,0.23703672,-0.6848796,0.69822556,0.38913423,0.42743823,-0.8622084,0.1746554
http://iot.uni-trier.de/FTOnto#MPS_Light_Barrier_4_Interruption,0.14227058,0.2361755,-0.75534254,-0.49319023,-0.018023591,1.7555448,-0.2536072,-1.2166296,-0.29509997,0.2093735,-0.6980436,0.6818109,0.37821394,0.4311952,-0.8152922,0.17257288
http://iot.uni-trier.de/FTOnto#VGR_Position_Switch_2_Pressed,0.04550508,0.21812423,-0.79425573,-0.4656937,0.004742759,1.7696314,-0.25830814,-1.1898054,-0.27657902,0.24570337,-0.6363764,0.6884827,0.35648167,0.4564599,-0.81579673,0.116779715
http://iot.uni-trier.de/FTOnto#HRS_Position_Switch_5_Pressed,0.14925128,0.25632402,-0.7423928,-0.45009065,0.027534813,1.7803222,-0.35978115,-1.1546276,-0.36208296,0.16727234,-0.65763426,0.7477951,0.3677864,0.51072735,-0.89308953,0.1769966
http://iot.uni-trier.de/FTOnto#PressureButton,1.7457026,-0.4054247,-0.98888445,-0.32851884,0.45006046,1.0164505,0.9472905,-0.88261694,-0.28122115,0.09966865,0.35369125,-1.1785144,-0.7351581,0.26331356,-0.4513906,-0.47180012
http://iot.uni-trier.de/FTOnto#MPS_Position_Switch_5_Pressed,0.19556479,0.18536122,-0.71894115,-0.38156754,0.0630488,1.7356141,-0.26434132,-1.081197,-0.2987446,0.15403712,-0.6491039,0.6813789,0.30230296,0.4487366,-0.8827362,0.16699804
http://iot.uni-trier.de/FTOnto#VGR_1_Crane_Jib_Rotation,0.1718643,0.16849571,-0.6953915,-0.3906508,0.058169723,1.7163855,-0.334437,-1.0884602,-0.33022252,0.20357026,-0.6336988,0.64917874,0.29868633,0.44861692,-0.8765118,0.17095748
http://www.w3.org/2000/01/rdf-schema#Class,0.9508505,0.1028573,-0.19774401,-2.4578242,1.3929638,1.5208888,0.14364696,-0.92317224,0.48753303,-1.8922764,-1.4023645,-1.8600837,-1.3727785,1.855205,-0.18713953,-0.46587756
http://iot.uni-trier.de/FTOnto#VGR_Position_Switch_1_Pressed,0.108097464,0.19051969,-0.7297145,-0.42493173,0.061697874,1.7666099,-0.28750667,-1.105276,-0.2999497,0.20298925,-0.63833374,0.6913281,0.36028174,0.42423728,-0.85944474,0.121175736
